638 32
517 -0.33296862 -1.2062694 0.23948821 -0.1759897 0.38963795 0.3076727 0.16551255 -0.795449 0.9750707 0.618158 -0.47438285 0.73336154 -0.39786434 0.103269026 -0.03748859 -0.62807584 0.06224356 0.21057303 1.1537362 -0.68787795 -0.1978088 -0.39487678 -0.5105387 0.7688011 0.8172205 -0.4014803 -0.7671374 -0.56970304 -0.9772882 -0.2980852 -0.43300313 0.46655998
84 -0.577895 -0.65152216 0.574675 0.8691783 0.29286832 0.12758458 0.18328762 -1.0102549 0.034638233 -0.39677453 0.58548915 0.34659868 0.659602 0.03654014 0.5079323 -0.013197223 -0.060359064 0.107755326 0.18836509 -0.54631126 -1.3843527 0.2197889 0.08095541 0.13724239 0.19856037 -1.537924 0.0787044 -0.3676984 0.15623479 -0.642342 -0.5349724 1.0877929
410 -0.051915612 -0.5054025 0.43784058 0.010291358 -0.03673883 0.062744625 0.015103862 -0.22193228 -0.09080765 -0.13380453 0.15621956 -0.019921085 -0.06767633 -0.25471053 0.35999155 -0.9468822 -0.23427756 -0.0055175945 0.8508968 -0.23291919 -0.78197163 0.265494 0.05018308 0.7097365 0.5442598 -0.4890782 0.58433306 -0.12679918 -0.6100435 -0.16790584 -0.7135598 0.6873572
346 0.008815992 -1.0476165 -0.07198897 0.22883251 0.1654711 0.035235453 -0.013408563 -1.2884058 -0.38160247 0.057645325 -0.45374206 -0.040396366 -0.15443122 -0.6706204 0.73436826 -0.53749305 -0.8717872 0.53976905 1.2011435 0.060350202 -0.047492225 -0.13343985 -0.56362146 -0.67071825 0.8632732 -0.8941512 0.626796 -0.31284744 -0.14864673 -0.30079287 -1.1403586 -0.024299355
607 -0.20872171 -0.33817628 -0.104896985 0.7500235 0.33888757 0.75154144 0.6199758 -0.20121339 0.112850085 -0.78598624 -0.08656772 0.14299552 0.0007522401 -1.1310774 -0.22695436 -0.5629147 -0.03209369 0.79183775 0.1462619 -0.23951939 -0.6732189 0.4171018 0.0038217667 0.82729536 0.85931385 -0.7454871 0.5060997 -0.037616566 -1.0690595 0.14056614 -0.42350638 0.091663234
552 -0.50251997 -0.9373099 0.560587 0.47860935 1.1588558 0.48957106 -0.4141829 -0.4868946 0.5452427 0.080422744 0.061697964 0.3801092 0.5614834 -0.97154945 0.41416052 -0.9773696 -0.7029074 0.16775881 1.4424269 -1.0101612 -0.45955792 -0.11243049 0.67415303 0.13871786 0.3037421 -0.25714338 0.48992032 0.2538966 0.19065876 -0.15130664 -0.1561136 -0.11129475
460 -1.0017171 -1.6057816 0.54356426 0.48757994 0.11871838 0.07902506 0.33470994 0.56445014 -0.44597894 0.34093368 0.60035175 0.61291707 0.35095558 -0.88815427 0.39464232 -0.8548931 -0.5603778 0.057308294 0.7227205 0.051249653 -0.26001674 -0.4009258 -0.555256 0.64187974 0.8753979 -0.7171653 -0.2427354 -0.07228467 -0.1418189 -0.6677473 -0.7095469 0.15725003
522 -0.688805 -1.0835897 0.40035665 0.5011829 -0.38405898 0.11415284 0.24168226 -0.8161599 1.3083255 -1.0125539 -0.026041713 0.4442561 -0.50271237 -0.4034853 -0.15112025 0.44582555 0.66448456 -0.43045682 0.5554378 1.1019737 -0.7657302 -0.221559 -0.22885187 0.16296053 1.6468724 -0.5202924 -0.5999227 0.65169895 0.7041944 -1.0073005 0.10179968 -0.3362205
417 -0.20416197 -1.187941 -0.13306329 0.51636904 -0.29395556 0.40387982 0.19098921 -0.6417933 0.43901852 0.70959365 -0.0916023 -0.46386638 -0.38500485 -1.0361898 1.1582628 -1.0105153 0.35063195 0.37958804 0.74358875 -0.38173577 -0.12922339 -0.1167064 -0.061124925 0.89725 0.37091058 -1.0389152 0.4324703 0.1085027 0.49938703 -0.41728652 0.057283603 0.69099474
464 -1.771569 -0.6055669 -0.9679115 0.18107095 1.097892 -0.28340068 -0.25633857 0.34833705 0.7195544 -0.4792547 -0.15596762 -0.2968786 0.76514304 -0.3071832 -0.120868586 -0.0858049 0.8645383 -0.50576144 0.62848765 -0.24667807 -0.30116823 -0.30719313 -0.16483909 -0.7219428 0.9774187 -1.2554222 -0.40368947 0.47917262 -0.5204497 -0.069789596 -1.0457498 0.27644736
302 -0.8675183 -1.0710119 -1.0248413 0.6080535 -0.018259982 0.3131604 0.16116649 0.14895973 0.5954837 -0.6864041 0.057065234 0.3380235 0.40075108 0.2002689 -0.4291135 -0.85845625 0.89661616 -0.43476614 -0.16200784 0.22682485 -0.6429962 -0.53249854 -0.31810603 -1.1464684 1.5280284 -0.5931824 -0.9135681 -0.21641102 -0.042365033 0.2656909 -0.81141883 0.6691098
182 -0.60145175 -0.55214554 -0.77091444 0.349753 0.28513741 -0.41057575 0.50541955 -0.27187043 0.29462555 0.07878713 -0.6788633 -0.55632985 0.7087594 -0.38210374 -0.28538582 -1.1376855 1.3357756 -0.63475424 0.6698595 0.42378694 -1.3651152 -0.59231234 -0.36816356 -0.98526156 0.7429334 -0.878586 -0.7100082 0.24541275 -0.5222771 -0.39414218 -0.3683089 0.1401064
60 -0.0763745 -1.1786084 0.0026324205 0.21368533 -0.27673036 0.32677135 0.51687634 -0.12288688 0.2582725 -0.43900254 -0.24151868 0.22728583 -0.02611717 -0.09303285 0.6107108 -0.4609463 -0.4360082 -0.32867327 0.48339224 -1.5223026 -1.1122729 0.13798377 -0.3501093 0.4523237 0.56620425 -0.38843542 0.21829447 0.92473036 -0.1223815 -0.6669291 -1.0166005 0.3449534
180 0.059749443 -0.96652067 -0.03640209 0.68763274 0.2652525 -0.7382633 0.5880294 -0.9250516 0.8300425 0.16598906 0.6813135 0.024177618 -0.014784996 0.07181403 -0.24138872 -1.3394636 -0.55120724 0.5444091 0.87981737 -0.13582736 -0.7818225 0.47699255 -0.36012205 0.5712209 0.387694 -0.0372873 0.12981702 0.5122306 0.007966531 -0.96244437 -0.62437844 0.5514201
540 -0.9524736 -0.5621527 -0.782199 -0.13323545 -0.1852312 -0.14037043 -0.14886579 -0.43899497 0.7891043 -0.3590025 -0.9111281 0.033216916 0.74454814 0.14866637 0.5961735 -0.6647611 -0.30577058 0.18765236 0.48073572 0.92953056 -0.42483535 -0.12845525 1.3105261 0.2873648 1.799252 -1.6924286 -0.32903352 0.058370136 0.13353251 0.8747877 0.45918277 0.7404462
402 -1.76222 -1.1907122 -0.7985294 0.19910522 1.4303278 -0.9034025 -0.36602002 0.058246594 1.3958155 -0.5015254 -0.13463452 -0.6267078 0.34674758 -0.4983826 0.3379546 0.3585943 0.84826845 -0.3271367 0.98052245 -0.06482323 -0.56545764 0.36091256 -0.6081703 -0.3864539 0.73977596 -1.0256737 -0.06639993 -0.065676674 -0.44457173 -0.24333657 -0.49077076 0.074883394
12 -0.83769476 -1.8554944 0.07171721 -0.030305965 0.34315574 0.2629237 0.43167904 -1.62058 0.5677297 -0.5068011 -0.10639194 0.92062867 -0.33681598 -0.7499707 -0.5918453 0.36616576 0.84450245 0.19588873 0.38012317 0.15738022 -0.23155949 0.8002333 0.42230213 -1.1949003 0.8413813 -0.5175106 -0.3579225 0.83663565 0.32597253 -0.8784778 0.51472044 0.097591825
208 -0.26183254 -0.69399613 0.047660068 -0.063434534 -0.0012966825 -0.16948627 0.59188896 -1.1072823 -0.041116163 -0.4568102 0.74794906 0.13660006 0.0329304 -1.0224808 0.27136034 -0.8731301 -0.26635903 -0.2670188 0.88816154 -0.88301015 -0.5416225 -0.25064906 0.45639443 0.65079015 1.4619597 -0.19865772 -0.23423192 -0.5033224 0.34440675 0.35742775 -1.1156881 0.5516862
149 -0.6110792 -0.57673687 -1.0094924 0.08779763 0.36776114 -0.29278582 -0.2709836 0.04376333 0.58237904 -0.29433444 -0.16001841 -0.26847428 0.68105793 0.1589743 0.037443765 -0.74228114 0.8538732 -0.3310575 0.60727084 -0.14089519 -0.5634961 -0.50371534 -0.20129953 -0.93897706 0.7998032 -0.5463912 -0.46692032 0.435921 -0.019601941 0.31238762 -0.31333187 0.41312855
429 -0.8625809 -1.0217097 -0.69556844 0.23358639 0.62327695 0.019331835 0.20757362 -0.58411443 0.659362 -0.34415528 -0.3076061 0.35337055 1.0356337 -0.24413665 1.0024669 -0.4105256 -0.14637879 0.8093369 0.18475913 0.54531527 -0.5110791 -0.8642454 0.38475865 -1.0555983 1.0607693 0.43712014 -0.3984009 0.7444121 -0.6329551 -1.1952282 0.6237782 1.3630981
280 0.06632183 -0.93507594 -0.37759277 -0.14969991 0.0018234848 -0.13302173 0.33337095 -0.06444373 0.26628926 -0.76231086 -0.15785667 -0.18552376 0.6692938 0.1818154 0.20256588 -0.20439541 0.14626482 0.37295076 0.4721542 0.33896017 0.05404036 -0.6364255 0.6726482 -0.8393975 0.88202024 -0.4514809 -0.06795777 0.8111439 -0.174675 -0.6048895 0.54482555 0.8998126
25 -0.6671827 -0.37066984 -0.65609914 -0.5164778 -0.5497475 -0.112873964 -0.06681252 -0.12225148 0.26500943 -0.5537264 -0.70142174 0.003272416 0.6848554 0.07037926 0.23046938 -0.9420606 0.219208 0.3071712 0.5042547 0.37833726 -0.7811827 -0.11362108 0.56519127 -0.25194168 1.0121977 -1.1418369 -0.18514718 0.70750874 -0.29452658 0.9621121 0.55456394 0.9786701
628 -0.6115951 -0.48768875 -0.3052406 0.79304796 0.4207299 -0.0055063944 0.21910922 -0.8173383 0.44632468 -1.1678185 -0.27806303 0.2032542 -0.011478507 -1.0281475 -0.5042875 -1.1290158 -0.09240468 0.7443604 -0.28476277 -0.62453884 -0.2309178 0.36345866 0.7900067 0.6575327 0.8706639 -0.7774189 -0.27179995 0.17098345 -1.2884166 -0.17287336 0.072725624 -0.19394901
458 -0.55783075 -0.97039664 -1.4075612 -0.26689327 1.7369843 0.32840863 -0.05843687 -0.39460456 0.25564468 -0.19561656 -1.0791754 0.9285636 -0.33713824 -0.9429658 -0.20233832 -0.9456756 0.5146171 0.44520658 -0.036587026 0.3792668 -0.91382086 -0.57673055 -0.41919947 -0.17792511 1.3519796 -1.4510096 0.29994112 -0.22576551 1.1598706 -0.41184488 0.6025492 0.0032046768
61 -0.4374033 -0.35161218 -0.8829849 -0.8047068 0.09389747 -0.47127417 0.3375478 -0.39441493 1.277412 -0.12206506 -0.4429453 0.17379995 0.5527357 0.048768617 -0.5453297 -0.883706 0.6817708 0.84917194 0.22568105 -0.39843792 -1.067272 -0.4856355 0.03126304 -0.9942439 1.7915384 -0.9172544 0.93034124 0.0073973346 0.4067438 -0.30897826 0.5358222 -0.101890765
134 -0.3946616 -1.6720301 0.11692109 0.07898647 0.082980566 0.23734288 0.19116074 -0.84819114 0.60980874 -0.58148295 0.02888537 0.42385888 -0.08864317 -0.36544946 -0.14418922 0.7095467 0.55362517 0.0829675 0.65841144 0.63238776 -0.021111613 0.009150188 0.5034627 -0.83666795 1.1002817 -0.40582398 -0.3155989 1.1945934 0.35178372 -0.865436 0.867898 0.23861796
64 -0.13610247 -0.4457851 0.8575921 0.40909114 0.17419346 0.69709456 0.38934532 -0.5317557 0.1608949 -0.063048914 -0.011607142 -0.0056538577 -0.0649235 -0.19252746 1.2531163 -1.6610886 -0.48047262 -0.47087923 0.39885566 -0.20347387 -0.40264404 0.20033565 -0.24806039 0.32247344 0.9442559 -0.9339372 -0.34971994 0.4479267 -0.15369314 0.16255854 -0.8276083 0.51993364
509 -0.8179673 -0.6463429 -0.28906524 0.61704856 -0.64536214 0.22093798 0.22746712 -0.46905112 1.4858862 -1.1789161 -0.19262604 1.2254956 -0.27365923 -0.4380635 0.26807746 0.5427472 0.21569432 -0.34731674 0.25449315 0.85756993 -0.7405149 -0.1907842 -0.64110285 0.35450745 1.7208459 -1.2976301 -0.7076169 0.77256465 0.27433702 -1.2893374 0.40485498 -0.14371029
352 -1.2450322 -1.6398416 -0.8082998 0.6908934 -0.18643674 0.83802736 0.38483757 0.08964404 0.8547561 -0.49136794 -0.51334023 0.63140506 0.65995264 0.029189115 -0.07972324 -0.5317268 0.72809315 -0.30544737 -0.32006946 0.15073633 -1.1540766 -0.27613086 -0.17439221 -1.2226545 1.3175694 -0.20660853 -0.743626 -0.26387763 -0.06719976 0.9264786 -1.032857 0.71367764
108 -0.14573604 -0.38643953 -0.7014358 -0.24751219 0.36691007 0.77121186 -0.15196235 -0.55594176 0.0579435 0.047345802 0.69954777 -0.10238393 0.06838787 -0.7621991 0.37889034 -1.2832811 -0.5865456 -0.1704376 1.1079966 -0.84435856 -0.57244307 0.6776842 -0.19000119 0.5402345 0.65734273 -0.5910784 -0.17933603 0.17376743 -0.5261347 -0.87150526 -0.12354529 1.1406263
561 -0.65662915 -1.0794449 0.29559138 0.16198242 0.102105886 -0.05476235 0.48223042 -0.5104111 0.89414376 -0.721867 -0.44939223 0.5603146 -0.13858455 -0.9365349 0.18073991 0.4911747 0.4770157 -0.20516594 0.46445578 1.2620872 -1.5025305 -0.6557414 0.004381505 0.6599828 2.1080053 -0.04710536 -0.8726432 0.12152959 0.4819923 -0.8973922 0.37972713 -0.4483934
224 -0.24842736 -1.1582942 0.11756759 0.50532186 0.513884 -0.074573465 0.21823452 0.27542955 0.6186479 -1.4797168 -1.2856355 0.29550406 0.21667899 -0.00072652934 0.4721553 -0.32899755 0.8252733 0.96528584 0.7860672 0.44183186 0.29881 -0.9318717 0.90105814 -0.4411022 0.63050807 -1.2751011 -0.58217925 0.65789604 -0.04946615 -0.6737203 -0.055188533 1.3763794
485 -0.27509585 -0.79738265 -0.039915405 0.16016528 0.51225686 0.42550394 0.4605739 0.30017942 -0.3371022 0.43794477 0.23036428 -0.104254544 -0.8781704 -0.019334018 0.30960083 -0.5276778 -0.6586867 0.8412569 1.146463 -0.7607294 -0.890543 -0.20544623 0.26659384 -0.11913989 0.748254 -0.7338666 0.12127362 -0.13020083 0.220529 0.0031098584 -0.8280112 0.541093
179 -0.9244547 -0.7929071 -1.3076621 -0.56670904 1.4008665 0.12215649 0.40092868 -0.6430036 0.65807605 -0.11236033 -0.62172747 0.77738196 -0.15004303 -0.48105714 -0.31118962 -0.9190212 -0.22240251 0.04447456 0.019183999 0.27622452 -0.8621288 -0.6791195 -0.6168583 -0.31051558 1.1852503 -1.1794896 0.5351143 -0.18313228 1.053346 0.1365614 0.7341056 0.084705964
198 -1.261941 -1.3379542 -1.0752299 -0.74062073 0.2903062 -0.05224199 0.48086363 -0.6688738 1.0448453 -0.46473074 -1.1714765 0.35049382 0.13581894 0.032046985 -0.6709087 -1.4851434 0.05920083 0.2718071 0.77810705 0.3495927 -1.0224966 0.0071031917 -0.76638746 -0.25932977 0.66408366 -0.82158893 0.9987498 -0.5128027 1.0437008 0.2980026 0.36763477 0.17262203
143 -0.17407681 -0.27233672 -0.4921558 -0.43695316 0.05098231 -0.30499163 0.005336626 0.23567785 0.27638572 -0.22169837 0.09768818 -0.14039932 0.6503495 0.35067123 -0.03052707 -0.8350986 0.31209448 0.2559098 0.5708649 0.009054647 -0.55382544 -0.22368945 0.035567142 -0.63975054 0.7335242 -0.50046253 0.14702778 0.8433454 -0.021562263 0.4144084 0.27723527 0.6941897
557 -0.2789715 -1.636507 -0.73655623 -0.16355984 0.018545529 0.43622854 1.5389755 0.07063951 0.6476245 -0.7297132 0.0021935215 0.15229282 1.1707611 0.33392298 0.7584359 -0.32014334 0.034168255 0.6588151 1.2870557 0.8080351 0.07994987 -0.030047102 0.8434121 -0.57744443 0.6624445 -0.7327462 -0.5377279 0.36491385 -0.9452055 -0.76101 0.13654965 -0.09516195
153 -0.39543307 -1.3972541 -0.47815397 0.40170103 -0.10538093 -0.4418906 -0.5668246 -1.6755239 -0.18926403 -0.41221008 -0.15550528 0.7913017 -0.38090777 0.088983126 0.59454423 -0.5589175 -1.0285146 0.13330866 0.6233555 0.4331597 -0.18001585 -0.18517798 -0.46144786 -0.7223834 1.5589863 -0.90770996 0.74026054 -0.193016 -0.23441121 -0.31802657 -1.2618479 0.1360992
38 -0.23706575 -1.1626076 -0.36386123 0.73374444 0.02859602 0.51465714 0.37333208 -0.43542293 1.0281067 -1.3413216 -0.13243721 0.22861001 1.007139 -1.71325 -0.23418924 -0.38002697 -0.13037518 1.0551288 -0.055126302 -0.033956356 -0.6477232 1.1818285 -0.42363948 0.40578067 1.1566656 -0.50787646 0.4387315 -0.7424085 -0.66305536 -0.41485178 -0.7522453 -0.3657576
241 -0.63414013 -0.8440815 -0.99367476 0.19632407 0.19728154 -0.2121824 -0.27337947 -0.5971437 0.78155816 -0.8263056 -0.9315081 -0.9190548 1.1042945 0.122625515 -0.5489057 -0.7275941 1.028168 -0.34417477 0.6817135 -0.28284883 -0.71676046 0.19818047 -0.46316487 -0.588932 1.1964291 -0.4288574 -0.9241929 0.59200454 0.30453926 0.2618333 -0.38289315 0.6450134
3 -0.63583255 -0.44405264 -0.298126 1.0804474 0.7970078 1.0326878 0.95422226 -0.60412323 -0.21765637 -1.4488852 -0.2340164 -0.49124628 0.17159218 -0.9237628 0.06644574 -0.49172077 -0.16496363 0.85292387 -0.05823033 -0.051600963 -0.6108261 0.76760626 -0.207023 0.47276324 1.3532908 -0.98395276 -0.20867155 0.31702057 -0.013707672 0.34778285 -0.35809052 -0.3319338
163 -0.34286404 -0.4422251 0.10192034 0.9615666 0.0685091 0.8710565 0.29831076 0.09137078 -0.1818695 -0.64381653 -0.31334388 0.10899124 -0.08868502 -1.1867472 -0.4471381 -1.1967957 0.28509519 1.3456217 0.45237818 0.42480177 -0.3171874 0.67401254 -0.35176525 0.21272764 1.2578846 -1.4742546 0.187914 0.015199656 -1.1243006 -0.45286128 0.0845862 -0.23820506
462 -0.7680064 -1.3283366 -0.8666046 0.12033714 1.2667801 0.3407508 0.21277994 -0.812141 0.11227966 -0.42771155 -0.56067574 0.52571636 0.70528626 -0.107487746 1.0628554 -0.59893936 -0.08834966 1.3339497 -0.5614832 0.38773036 -1.2102776 -1.2748643 0.59821606 -0.25031057 1.5140032 0.51434994 -0.65039146 0.17844969 -0.402703 -1.179603 0.03019528 0.97047526
314 0.0068982886 -1.27519 0.15830334 -0.46126089 0.21116096 -0.40810037 0.21021621 -0.7775513 0.5867525 -0.63181555 0.23724738 0.24545628 0.46194533 0.04597285 -0.05208625 0.37966147 0.46315718 0.3024886 1.0074102 0.4957244 -0.12417881 -0.566177 0.56699723 -1.0524002 1.3570235 -0.3132726 -0.55570924 1.1214105 0.13193253 -0.66016185 1.0613269 0.6308735
209 -0.6850122 -0.73997706 -1.2544427 -0.5896211 0.60609454 0.13727957 0.5133493 -0.1504873 0.96460444 -0.58610785 -0.836218 0.42178717 0.1302135 0.124940746 -0.46983814 -0.91356677 -0.027268833 0.45475343 0.30429357 0.51120317 -0.7895691 -0.43221587 -0.52137977 -0.52835643 0.6992369 -0.79834646 0.7811636 -0.02122594 0.72591746 0.18534121 0.6312351 0.32752308
500 -0.44983047 -0.49578437 0.38954762 0.14666642 -0.27762395 0.7440038 -0.26920685 -0.3919394 0.5288984 0.41069928 1.0748353 -0.11333936 -0.40962288 -0.41469523 0.6976601 -0.6615912 -0.2084047 0.23636964 1.3420119 -0.31073928 -1.1492196 0.049534187 -0.5701312 0.1513001 1.0714391 -0.070227504 0.17391099 0.34818226 -0.51083994 -0.11433212 -0.35989875 0.60012496
115 0.2942015 -1.2506677 0.60383296 0.117429994 -0.13843173 -0.0544623 -0.51106834 -0.03934023 0.36555147 -0.28446785 0.1012938 -0.446453 -0.14406478 -0.80832183 -0.06509229 -0.69884795 -1.0878448 0.62046933 0.7425213 -0.6486765 -0.78962916 -0.32561213 -0.28438008 0.41773412 0.4684075 -1.0136722 -0.5157166 0.19771966 -0.095609725 -0.060071353 -0.9760157 0.63029695
183 0.22983965 -0.9517739 0.55985177 -0.16945761 0.4798844 0.43475798 0.31293508 -0.72038656 -0.68847567 -0.3115075 0.12080378 0.48043963 -0.017612131 -0.27257606 0.44442964 -1.248739 0.28993967 0.792379 1.2706667 -0.3449671 -0.90459555 0.14384523 -0.7901042 0.32587588 0.10594553 -0.20524468 -0.2651015 0.2744735 0.10943641 -0.19749294 -0.605357 0.5519002
243 -0.013615777 -1.255351 -0.08189692 -0.47286096 0.45765224 0.17508295 0.20287423 -0.22950317 0.26235592 -1.1605067 -0.7000066 -0.43495855 0.95581543 0.015331513 0.41967705 0.3294729 0.36725298 0.30947894 0.5803329 0.44205877 -0.18180922 -0.54406905 0.31374443 -0.9101885 1.2361687 -0.6521638 0.28187165 0.36942264 -0.878697 -0.61119795 0.6999412 1.3309965
375 -0.5632609 -1.4643718 0.30076927 0.220682 -0.14486235 0.22298679 0.09489767 -0.71759254 0.7470977 -0.9319858 -0.08482796 0.66929066 -0.3499951 -0.34726435 -0.22329606 0.67238784 0.66317344 -0.12435864 0.756186 0.69404083 -0.45957214 -0.091909185 0.3845145 -0.24362248 1.5714128 -0.31038782 -0.29907155 0.95343757 0.41509557 -1.2213448 0.7286775 -0.28956735
119 -0.9130959 -1.1015598 -0.60966724 1.0672599 1.0216395 0.9707759 0.98360956 -0.53124654 -0.36395848 -1.3931626 -0.5594598 -0.660085 0.4483182 -0.76882505 0.44899023 -0.3091766 -0.08891799 1.0259205 -0.026905648 0.48191974 -0.44198805 0.6022375 -0.4502449 0.6469216 1.566453 -1.2587405 -0.1060626 0.87345904 0.23222269 0.6226553 -0.39941314 -0.67877764
379 -1.3774841 -0.27113268 -0.16174085 -0.9047628 -0.38015708 -0.14560546 0.20540436 -0.42713535 0.5777475 -0.65504164 -0.6520753 0.1645653 1.2807199 -0.4502894 -0.012076455 -0.935307 0.06949484 0.11298961 0.77707624 0.6498381 -0.9202511 -0.2573072 0.54379106 -0.029666547 1.0557607 -1.0674525 -0.62826544 0.43299955 -0.2830553 0.5291416 1.1520171 1.0147837
55 -0.31349742 -1.2783341 -1.0475836 0.77640676 0.32291338 -0.45725113 -0.13731024 -0.23563406 1.01897 -0.15897548 -0.26313895 -0.031126842 1.1218735 0.10825585 -0.47527504 -0.88002247 0.69444203 -0.5719474 0.4824525 -0.2858491 -0.22525907 -0.42592335 -0.15243606 -1.2212024 1.0833298 -0.89287513 -0.68395734 0.504204 -0.34769648 0.5083978 0.31430468 -0.13219655
613 -0.5465754 -1.2937738 0.1642938 -0.15675363 0.1157799 0.15575588 1.6258159 -0.25888085 0.7366541 -1.3582276 0.19454902 -0.038959093 1.3260503 0.46906564 0.3718504 -0.30187234 0.018910084 0.81442505 1.296284 0.25400758 -0.17764883 -0.7701616 0.51744056 -1.422005 0.576068 -0.366185 -0.075023875 0.12318535 -0.320473 -0.64375055 -0.20495707 0.06834472
362 0.12986854 -0.79724455 -0.21863937 0.00034144497 0.2500581 0.12465609 -0.24900028 -0.29794273 0.48756668 -0.03582495 0.9331582 0.93077934 -0.20092186 -0.5454226 0.8729467 -0.69489413 0.07218378 0.4751896 0.7768478 0.041982774 -0.6859466 0.07474674 -0.15780601 0.7984868 0.7788042 -0.47505537 0.39283356 0.74346113 -0.36691433 0.56034154 -1.0746028 0.5385803
109 -1.1301774 -1.0532633 -1.3175969 -0.35766807 1.7137265 0.37704018 0.78600496 -1.106561 0.45761248 0.12759721 0.005432504 0.72419053 -0.28557676 -0.57565933 -0.52657783 -0.6977929 -0.4885179 -0.26462972 0.13423358 0.5521344 -0.9913834 -0.5797445 -0.42361233 -0.3454857 1.1984766 -1.443113 0.37875143 -0.28142077 0.58065146 0.44012803 0.93316704 -0.20924409
506 -0.070858344 -1.2804196 -0.3749994 -0.1527767 -0.08431257 -0.01855147 1.1826134 -0.10326265 0.7858379 -0.92959297 -0.102150716 0.21514395 1.0710294 0.33160213 0.43611154 -0.18123257 0.03343191 0.7450685 0.9331241 0.36495465 -0.12995523 -0.34310186 0.7527865 -1.1022568 0.66670007 -0.36671087 -0.07157139 0.4457763 -0.56356347 -0.45666057 0.18571462 0.31249616
204 -1.1523238 -0.019178582 -0.43479738 1.320876 0.64914566 1.1458585 1.1533508 -0.89130634 0.11488069 -1.6752694 -0.47850963 -0.6002258 -0.10941668 -1.3336668 0.23306057 -0.3325844 0.06322106 0.8298042 0.10438994 -0.018186763 -0.71890444 0.5367191 -0.039245844 0.03720219 1.5042056 -1.207762 -0.23654175 0.22492406 0.21204512 0.44339615 0.03387725 -0.16143467
393 -0.2206128 -0.891095 0.48312736 0.66866535 -0.46444684 0.1563246 0.014882045 -0.4807853 -0.05681623 -0.5940506 0.68875015 0.34629998 -0.33026412 -0.009222619 0.24414967 -0.73413515 -0.7341115 0.32168323 1.2871723 -0.6647654 -0.110209525 -0.05526628 -0.82281995 0.8213888 0.9315392 -0.90284336 0.25507984 0.040181287 -0.27045098 0.018579265 0.24990426 1.1814001
7 0.020933993 -0.45988688 -0.33269832 0.7881225 0.46908325 1.042808 1.0047522 0.23423342 0.5894305 -0.89346045 0.31916204 0.018959463 0.3657111 -0.96481955 0.10790796 -0.8277771 0.13646024 0.755333 -0.12073639 -0.29458946 -0.30708656 -0.0011697131 -0.45688295 1.0088412 1.4895514 -1.0903918 -0.071656995 -0.6668397 -0.8092716 -0.053575974 0.15558241 0.018660182
614 -0.12822023 -0.33891317 -0.82345307 -0.58424777 0.4353041 -0.31030652 0.32628214 -0.08320909 0.80900794 -0.40321615 -0.55570036 0.11200164 0.3146728 0.5211475 -0.40845338 -0.86408037 0.1719413 0.5522724 0.37268376 -0.12998888 -0.7740935 -0.45079607 -0.02028834 -0.67903304 0.95918715 -0.7698668 0.49271387 0.26774946 0.26713467 0.22958633 0.55466616 0.32188836
395 -7.080789e-05 -1.3672224 -0.07916728 0.1202778 -0.4696116 -0.39165622 1.3767638 -0.35163072 1.4002342 -1.0372882 -0.29670495 0.23437974 1.0510659 0.11285164 0.7808683 0.0640821 -0.012776894 0.71806467 1.040292 0.04015134 -0.3510679 -0.5314148 1.2247962 -1.3517236 1.1151662 -0.5232876 0.20685084 0.5557072 -1.1153522 -0.37311038 -0.0997244 0.003309665
534 -0.35207766 -0.39015955 -0.12948851 0.5785212 0.47301748 0.49787462 1.1877275 -0.3380627 0.62935126 -0.45778364 -0.2885851 -0.43862107 0.68245137 0.37392285 0.26739183 0.44687423 0.07387009 0.8807613 1.0487634 0.2229776 -0.078465246 -0.7354271 -0.23194873 -1.0503622 1.8594757 -1.1175185 -0.5635467 1.1320984 -0.5734183 -0.8089799 0.6720108 1.5163798
202 0.5653231 -0.6748496 -0.5451199 -0.07927678 0.52777797 0.30538628 0.41859302 -0.43540457 1.0518378 -0.8325992 -0.17214604 0.0337788 1.0535486 -0.5496525 0.028199825 -0.09160116 0.32035565 0.56266433 0.7658472 0.84249246 -0.27057293 -0.20273991 1.042954 -1.269716 1.0063066 -0.46535167 0.11964127 0.58973897 0.0006351353 -0.48095283 0.36456162 1.4202673
130 -0.53634393 -1.5422314 0.32927552 0.14243776 0.49428317 0.44340888 1.9398594 -0.23784685 0.84893125 -1.4423202 0.31645006 0.14365351 1.0085678 0.34037367 0.6037358 -0.09104681 -0.16880165 1.0595042 1.3324839 0.34419814 -0.33970073 -0.8487956 0.35466778 -1.314632 0.6897966 -0.30381683 0.10346106 0.10362303 -0.103998855 -0.8900364 -0.4037935 -0.12231843
449 -1.4798453 -2.0045285 0.030195385 -0.35440224 -0.18880382 -0.19237241 0.51662314 -1.8792642 0.5493178 -0.11490478 -0.2466347 1.1329968 -0.42459252 -0.53893673 -0.25492278 -0.21468613 0.3421204 0.08668534 0.60325587 -0.061564244 -0.5402015 0.6467616 0.8154222 -1.0747235 0.76339567 -0.20577806 -0.41543612 0.8420552 0.52813697 -1.1875716 0.768865 -0.13400266
232 -0.071400315 -0.28935748 0.5929476 -0.45090464 0.06580662 -0.3919159 0.43477988 -0.5418922 0.20486555 0.318163 0.31136787 0.14587077 -0.42429075 -0.8355707 0.6778707 -0.5603701 -0.186691 0.5642749 0.9967521 -0.8283958 -0.8839349 0.76951957 -0.5397388 0.417707 0.85133433 -1.1380445 0.37800276 0.20770946 -0.15031435 -0.08815859 -0.41101676 -0.16185698
301 -0.3229516 0.3110768 0.4667761 0.3935628 0.4021377 -0.0032730938 -0.06527034 -0.7129292 -0.018278867 0.40017226 0.4110046 0.27688628 0.12170123 -0.1471656 0.46957138 -0.90525013 -0.39316544 0.5453541 0.93540394 -0.5449694 -0.7763716 -0.8429298 -0.4325263 1.068841 1.2316899 -1.0582628 0.49261165 -0.0061442708 0.008846226 -0.3889419 -0.6922525 0.5008322
186 -0.97143924 -1.2461327 -0.59008366 0.67732793 0.6012696 -0.155006 0.0048837857 -1.0287092 0.5058315 -0.43208432 0.016167479 0.11355391 1.1849236 -0.6523773 1.069838 -0.4050984 0.13497196 1.1261702 0.13976045 0.3375167 -0.45599785 -0.36299798 -0.19773284 -1.0221615 1.1852404 0.6951119 -0.09771789 0.6660518 -1.0119429 -1.6087067 0.7309245 1.2758904
278 -0.90997165 -0.899918 0.26924312 0.53244007 -0.51107526 -0.1427319 0.11899202 -0.67975265 -0.35375568 0.052610867 0.3225429 0.024490602 -0.30438232 -0.16683477 0.4691675 -0.6348856 -0.34413195 0.52432775 1.2967782 -0.6415962 -0.59777874 -0.14943603 0.3511763 0.5821496 0.18941148 -0.54544735 -0.32051295 0.69352573 -0.7404639 0.10623805 -1.042034 0.47982186
56 -0.48810568 -1.8999218 -0.96747667 -0.28812075 0.31511223 0.12148072 1.863109 -0.070278645 0.40748268 -1.0883672 0.1697224 0.50023115 0.7905681 0.24580818 0.40939188 -0.45454937 0.14080174 0.46545616 1.5429978 0.66706204 0.008523672 0.23186661 1.2172891 -0.5766086 0.77416885 -0.612941 -0.81264323 0.33085683 -0.9612406 -0.23727703 -0.023003224 -0.3190199
574 -1.062552 -1.8468938 0.39569572 0.14868805 0.26480746 0.2927067 0.29913053 -1.6563703 0.2816122 -0.5614232 -0.25275144 1.0791358 -0.4487874 -0.5979865 -1.0397832 0.13260205 1.089641 1.082953 0.13259211 -0.23065433 -0.25130054 0.5530151 0.26473078 -0.87855345 0.9787345 -0.8535345 -0.41260234 0.9361377 0.7761791 -0.49971217 0.52250206 0.3521318
110 -0.6772183 -1.1538452 -1.002012 0.4992415 0.38239554 -0.10374841 -0.3297563 -0.9465212 0.62459713 -0.8233781 -0.86229116 -1.0321304 1.0890349 -0.10620881 -0.6543789 -0.70746547 0.9962275 -0.30291006 0.72906846 -0.38559464 -0.9247648 0.29045036 -0.4804566 -0.56644624 1.1886196 -0.4614796 -0.9560505 0.740162 0.6195616 0.22586043 -0.65734583 1.0201094
588 -0.9720333 -1.727997 0.55399036 0.7561502 0.1802249 -0.66203964 0.83570564 0.4801571 -0.14556573 0.1024375 0.9286946 0.5596083 0.5233122 -1.1230025 0.60488766 -0.7891419 -0.34344602 -0.07453765 0.82802445 0.09705007 0.07138874 -0.33512342 -0.13405696 0.58541805 1.3507556 -0.36044505 -0.31023642 0.12204497 -0.43071023 -1.0660658 -0.29902238 0.6186071
11 -0.13443325 -1.4352261 0.027052792 0.7169329 0.63853866 0.1634616 0.4176282 0.4225233 0.77870375 -1.7265279 -1.227792 0.6997688 0.012253589 -0.2867788 0.6705079 -0.5585334 0.9320067 0.9556813 0.6086099 0.3342953 0.12302244 -0.95891434 1.0093151 -0.49993864 0.29970545 -1.2356397 -0.47880512 0.1953372 -0.081665 -0.8299227 -0.44242477 1.2783393
307 -0.4044672 -1.4332329 0.25783914 0.9990377 -0.08125548 0.090811804 0.5833315 -0.9733185 1.0370016 -1.1269721 -0.5350632 0.9466266 -0.72934043 -0.23798649 -0.5751345 -0.08609016 0.23949571 -0.3013348 0.47148183 0.96495587 -1.0472951 -0.26266932 -0.06606961 0.23022234 1.7383599 -0.51066536 -0.26357237 0.4763298 0.9834933 -0.6448045 0.23057804 -1.1619757
396 0.09472604 -0.7648534 0.101127736 0.15029165 0.3126303 0.31605777 -0.19789462 -0.57211804 0.16057369 -0.5775011 1.1930622 -0.08843249 -0.6698015 0.14821264 0.5100492 -1.347497 -0.09944069 -0.002173948 0.90618545 -0.595492 -0.34952855 -0.20285617 -0.094139166 0.4644351 0.45280477 -1.0679437 0.1267409 -0.06710377 -0.5117991 -0.7166515 -0.73245883 0.045146007
102 -1.3045404 -0.8351047 -0.8323398 -0.7015419 0.8337549 0.31108785 0.71058387 -0.28651696 1.4088131 -1.1815097 -0.61724085 0.3278448 -0.34614798 -0.4832843 -0.35865986 -0.6405222 -0.6028907 1.055396 0.4561385 0.2569015 -1.3354557 -1.0402962 -0.556471 -0.9388478 0.15409149 -1.2073767 0.9461236 0.20670234 0.728518 -0.20056872 0.95522684 0.8326581
43 -1.3590465 -1.277589 -0.7097391 0.10585096 0.7125344 -0.22747734 0.5210694 -0.32882684 0.8196661 -0.7597589 -0.32995987 0.5476226 0.5620678 -0.3561204 1.5989513 -0.4518053 -0.9990153 0.8615785 0.11395713 0.1480889 -0.44729498 -0.4450882 0.31781113 -1.1288357 0.9886211 0.32511735 -0.19327201 0.5622362 -0.6383754 -1.0963544 0.80124944 1.6542491
299 -0.25172064 -0.7449193 -0.1980051 1.307144 1.4397014 1.2583499 0.69778574 -0.639845 -0.28279155 -1.8700546 -0.37079236 -0.52247334 0.5447661 -1.0505906 -0.17949417 -0.5412556 -0.30463877 0.55080694 0.018256264 -0.087467656 -0.96589565 0.8529826 0.047613364 0.3808481 1.4973392 -0.90354264 -0.37767115 0.20458524 0.29807496 0.06853688 -0.48479113 -0.09871836
444 -0.33984667 -0.8412593 -0.13249962 -0.5596055 -0.28911254 0.0053383894 0.6703294 -0.95010674 0.18664958 -0.88091564 0.81350887 0.41591576 -0.040618442 -1.1249136 -0.18581198 -0.8728536 -0.1337216 -0.39869392 0.7994862 -1.0642416 -0.63413763 -0.041172262 0.805053 0.7843333 1.7367412 -0.56350756 -0.48428783 -0.36970207 0.26143676 0.36079538 -1.2421741 0.101048686
42 -0.33863524 -0.31124115 0.23972549 0.5916164 0.39908606 0.3682639 0.80847234 -1.0006692 0.6583002 -0.8446236 -0.6303772 -0.3839 0.67606264 0.6032365 0.0247888 0.26351506 0.03617671 0.8635892 0.6459814 -0.074666545 -0.13685454 -0.4121873 0.57859933 -1.073877 1.7334803 -1.050054 -0.83274066 1.0581777 -0.8159245 -0.554869 0.5851042 1.6610514
397 -0.3261272 -0.9088277 -0.6437804 0.6389671 0.33433887 0.3616673 0.9821958 -0.23945387 0.5326562 0.19595276 -1.0471469 -0.5030504 0.922615 -0.49120036 -0.22356063 -1.2693483 1.3837819 -0.69881517 0.8091912 0.43666694 -1.3962609 -0.91193265 -0.3005794 -0.74794954 0.31500068 -1.0408547 -0.91810215 0.45410687 -0.16889325 -0.35278866 -0.37188563 -0.088383384
29 -0.82588756 -0.7087283 -1.3802291 -0.5413825 1.2791502 -0.05377451 0.49329275 -0.5006889 0.8107202 -0.261224 -0.4416128 0.772681 -0.2609921 -0.8392455 -0.14239715 -1.0830561 -0.23571719 -0.44997957 0.2712536 -0.32670367 -1.1234628 -0.6070275 -1.2336632 -0.40812054 1.3985023 -1.6372991 0.28185782 0.2649447 1.553497 0.051036194 0.6480837 -0.36826104
582 -0.4856904 -1.2883041 0.52011544 -0.23679191 1.3281399 0.6057534 0.25463942 -0.3087824 0.6838239 -0.29330552 -0.16817918 -0.3589405 0.42411846 -1.116659 0.3049345 -0.9990544 -1.175338 0.016391274 1.3161222 -0.82190883 -0.30932412 -0.1198904 0.37373143 0.4080283 0.7731983 0.024855291 0.37505537 0.9328682 0.6537149 -0.40472263 0.14631075 -0.3760848
189 -0.18235299 -0.46383947 -0.027723543 0.2886725 0.24709515 0.345623 0.7643847 -0.42973685 0.680877 -0.67368037 -0.37082583 -0.21893287 0.7476883 0.5648853 0.17073585 0.28124598 0.123854175 0.9020974 0.65504014 0.08209735 0.043984905 -0.48303163 0.33701512 -1.0618097 1.5059215 -0.83693415 -0.36663166 0.8604147 -0.44088185 -0.5643575 0.68170285 1.3300976
90 -0.5172986 -0.6725552 -0.60121155 0.58014226 0.41190368 0.20161144 0.60445255 -1.1057502 0.8261874 -1.3726802 -0.6594634 0.35767677 0.100831285 -0.9914121 -0.44212377 -1.309288 -0.5789818 0.7152231 -0.35238183 -0.7889571 0.23421279 0.10869583 0.68009037 0.39309168 1.1282846 -0.52165073 -0.5025024 0.67188865 -1.4641938 0.017336907 -0.20015694 -0.5911162
541 -0.7044875 -1.0807731 -0.6670047 0.06646456 0.9648319 0.19881536 0.26285413 -0.6851031 0.3033524 -0.25960964 -0.2942601 0.27815756 0.96939224 -0.042182535 0.9155712 -0.39155564 -0.21458857 1.2395408 -0.19074847 0.27902454 -0.9593126 -1.1947846 0.52665824 -0.7474117 1.4174597 0.5262196 -0.5883425 0.49424908 -0.43539587 -1.1884944 0.41483 1.057967
297 -0.1661168 -0.6406391 0.22641262 1.1081635 1.0373515 0.6969963 0.9824653 -0.22058469 0.528207 -0.43626285 0.37487558 -0.391525 -0.1476695 -1.0020411 -0.3080882 -0.467607 -0.25410134 0.93282145 -0.13011566 -0.32194322 -0.76119506 0.38269076 0.08709368 0.12157017 1.2362266 -0.84331095 0.9105866 -0.013946402 -1.3037391 0.19223022 -0.34310094 -0.2996056
276 -1.0234865 -0.76191026 -1.5407398 -0.52197146 0.4079782 0.21422252 0.5892231 0.19616477 1.0944709 -0.6772261 -0.51137525 0.5937923 -0.17819253 0.2717964 -0.4280625 -0.8869749 -0.3138132 0.6433376 0.29355586 0.72596604 -1.7264913 -0.16544798 -0.5927386 -0.22747965 0.87529993 -1.0529042 1.1045521 0.44397974 0.4476111 0.0982519 0.5932581 -0.06563675
638 0.034670465 -0.8138747 0.020589594 0.3004017 0.33778837 -0.11208459 0.21719836 0.22309336 0.6131647 -1.0934798 -0.9032235 -0.03433494 0.42975855 0.11778424 0.27356866 -0.104774594 0.7096948 0.8925104 0.8180962 0.31399965 0.14505582 -0.8343974 0.8972739 -0.8665936 0.821293 -0.83975524 -0.28276104 0.83865386 0.079605736 -0.49097684 0.21769923 1.1410998
336 -0.5361671 -0.54000217 -0.8179321 0.05138135 0.45032555 -0.37357244 0.6788875 -0.7311168 -0.048854936 -0.10672625 -0.6171565 -0.32792822 0.09394021 -0.5746863 -0.5531024 -1.0580785 1.5989373 -0.8217526 1.0485175 0.48413664 -0.9326498 -0.9203374 0.09949392 -0.80270237 0.9974881 -1.4079282 -0.687393 0.040390715 -0.6800541 -0.6071121 -0.5914539 -0.35018122
229 -0.04522835 -1.0238969 0.27020553 0.06963991 0.35373566 -0.39570588 -0.26146492 -0.70758224 -0.49619088 0.4337507 0.39347032 -0.05152492 0.032472685 0.040757585 0.8047627 -1.4263417 -0.025928047 0.33526158 0.3552309 -0.7554532 -0.8266876 0.1685711 0.23696457 0.06531563 1.0173727 -0.3112943 0.46993646 -0.10868629 -0.50987977 0.008051946 -0.62683845 0.37757435
501 -0.9396299 -0.90781367 0.07005637 0.61554515 -0.00464934 0.2207358 -0.46719655 -1.5783544 0.368555 0.3846805 0.56083286 0.7441093 1.0762521 -0.31594065 0.050585542 -0.47298568 0.058376726 -0.081620686 -0.07549628 -0.5633266 -1.699276 0.20036434 0.016213978 0.089180276 0.16482191 -1.5895034 -0.087475546 -0.72082335 0.06470798 -0.49943835 -0.16060726 0.65102744
569 -0.1517628 -0.4576937 -0.92901695 -0.4892312 0.6731279 -0.4697617 -0.26200804 -0.33882862 1.188143 -0.5302855 -1.3607354 0.12923478 0.14193356 0.5819003 -0.6849398 -0.8771781 0.25653717 0.51751834 0.39772332 0.030177217 -0.8622934 -0.86713654 -0.1473316 -0.7826013 1.3389599 -1.1331066 0.4510962 0.52969265 0.002796901 0.09605316 0.8515505 0.7283472
518 -1.3682444 -1.4549322 -0.6388872 -0.4303866 0.37494993 -0.09227262 0.8743488 -0.9673468 1.0795088 -0.8235644 -1.5253017 0.33666858 -0.0799941 0.020824062 -0.7724285 -1.5763822 0.16414113 0.33839068 0.63919413 0.4419373 -0.9458978 -0.06644391 -0.78003776 -0.2511239 0.48876786 -0.5375535 0.97912323 -0.727873 0.95574164 0.32011768 0.22904126 0.22759303
191 -0.24875042 -0.68480134 -0.114780664 -0.24065578 0.24989665 -0.4810583 0.5693767 -1.3618942 0.45928586 -0.4983639 0.8922738 0.33391374 0.028349461 -1.1626687 0.24768858 -0.924946 -0.09689537 -0.14634421 0.9983538 -0.3647515 -0.76637566 -0.7174933 0.49671903 0.5626383 1.2027594 -0.18246858 -0.51094925 -0.88509357 0.70496 0.50497043 -0.9291911 0.7648798
220 -0.5791913 -1.8680718 0.12004717 0.28473884 0.12753326 -0.047181554 0.18308896 -0.88013136 1.0084065 -0.56936955 -0.3115891 -0.26168007 -0.5354719 -0.27541846 -0.49475855 0.66256946 0.48747057 0.061533175 1.1553866 0.21743627 0.40756938 -0.1326369 0.7044613 -0.8557606 1.4355679 -1.0943096 0.037254624 1.3069361 0.52879703 -0.7131034 0.7755303 -0.22230291
127 -2.1685493 -1.3121812 -0.8690538 0.15800408 1.7525312 -0.38944072 -0.35280803 0.24686241 1.262099 -0.957005 0.000942595 -0.15788977 0.059646707 -0.38742563 0.37312597 0.6562521 0.63206464 0.21476623 0.729269 0.12243422 -0.22777003 0.42574766 -0.50227064 -0.36159828 1.008405 -0.93870413 0.04699877 -0.21829052 -0.4081918 -0.21628378 -0.44697696 0.25070924
227 -0.80399024 -0.93270785 -1.4611692 -0.38697755 1.544528 -0.23007469 0.36073595 -1.2049891 1.0818882 -0.1711875 -0.96482235 1.0413926 0.14682637 -0.35361755 0.12724277 -1.2846297 -0.56667453 -0.26650715 -0.2644342 0.14894675 -0.9654507 -0.95696247 -0.7555545 -0.52222574 1.2742993 -0.7656317 0.2804762 0.07565758 0.99141544 0.16772512 0.62070227 0.24355456
81 0.13882661 -1.5264289 0.064933665 -0.5562791 0.65304595 0.13720916 0.07184547 -0.41526634 0.32171637 -1.3437327 -0.9231213 -0.5150991 1.0805998 0.03866863 0.54390055 0.4592707 0.54120874 0.38067508 0.65471995 0.32306197 -0.27536997 -0.7411705 0.20243151 -0.7877699 1.3715079 -0.77091 0.49883407 0.029440733 -0.8220309 -0.73315525 0.7336121 1.0663137
53 -0.7545425 -1.2795676 -1.398364 -0.06655423 1.8626089 0.54347557 0.1695217 -0.54674655 0.03412397 -0.27203318 -1.10882 0.98727405 -0.48342612 -1.1733917 -0.21932496 -1.135604 0.5351859 0.37529767 0.092608005 0.5716732 -0.908512 -0.3154289 -0.64139 -0.035009272 0.95785165 -1.337305 0.13006179 -0.29812962 1.0937868 -0.6294355 0.35191098 -0.12016499
353 0.0718762 -1.1231587 0.37873125 0.54043615 -0.3462453 0.045957018 0.3756875 -0.64117736 1.2913377 -1.0656341 0.08062622 0.35412765 -0.3552283 -0.57224315 -0.083177745 0.4082286 0.8142447 -0.30551827 0.9298334 1.5832608 -0.8054596 -0.22248882 -0.24609278 0.28143284 1.7095224 -1.1450739 -0.08966078 0.4806788 0.5980561 -1.1867082 0.07677291 -0.16349725
26 -0.5895151 -1.2068616 -1.443932 1.0810585 0.11011972 -0.020294044 -0.018768355 0.13440572 0.46338898 -1.0266527 0.54081583 0.26054946 0.49898505 -0.102176204 -0.270115 -0.6764162 0.6252556 -0.5657219 -0.012197399 0.0801127 -0.7960235 -0.7743845 -0.3050012 -1.1691151 1.6625167 -0.49265188 -0.93588036 -0.3358111 -0.031149112 0.33782402 -0.83032364 0.6813423
242 -0.23007405 -1.747082 -0.8268762 -0.12344104 0.0043149022 0.69801784 1.42721 0.044953763 0.6438568 -0.45267618 0.15719755 -0.10192378 1.4779017 0.2615689 0.710575 -0.17467926 0.09613469 0.4705029 1.5098606 0.9783802 0.092404895 0.17033873 0.72626036 -0.7186679 1.0246794 -0.8877465 -0.5078608 0.50630563 -1.1602365 -0.7476143 -0.057512604 -0.13726299
598 -1.4781446 -1.1355613 -0.6492431 0.0799182 1.4739195 -0.87479186 -0.4549953 0.13200128 1.3230305 -0.3010288 -0.07116845 -0.7692453 0.12230874 -0.78629345 0.144705 0.29448867 0.9752926 -0.11397412 0.9361381 -0.14519079 -0.67386246 0.044253353 -0.64786655 -0.48876968 0.7092227 -1.3585725 -0.00860202 -0.16464101 -0.62670124 -0.37422463 -0.0015768318 0.14216404
54 -0.54359776 -0.87843865 0.023795508 0.024928307 0.14326915 0.4279252 0.09222637 -0.37899664 -0.2163845 0.26737154 0.3201862 -0.27445838 0.4207432 0.112366535 0.29987305 -0.9946366 -0.38546118 0.26087907 0.97734356 -0.3225482 -0.47255012 0.64619577 0.00020078223 1.3101681 0.66036886 -0.750126 0.26230046 0.14769745 -0.09523748 -0.015432549 -0.78151697 -0.051398616
376 -0.35200688 -0.86475885 -0.57582706 0.0005000106 0.3621389 -0.044210482 0.25542492 -0.19119363 0.5507407 -0.3962607 -0.21563794 0.117787346 0.69060045 0.07353461 0.6786789 -0.15521623 0.102931924 0.7069184 0.35242298 0.5869329 -0.3253494 -0.532939 0.4894933 -0.9414864 1.0031906 0.1685995 -0.03695713 0.7378222 -0.37429553 -0.8561839 0.6382231 0.89058214
331 -0.35811648 -0.91614217 0.5537128 0.2897277 -0.47755194 0.2886426 0.77244765 -0.70152 1.4182787 -0.9637549 0.104441196 0.6106467 -0.32828704 -0.41022402 -0.25387415 0.24155103 0.6268562 -0.32062352 0.9196881 1.1518322 -1.0222094 -0.0992045 -0.019117668 0.5938075 1.8239918 -0.8425564 -0.6995871 0.793752 0.7151493 -0.5255998 0.112947024 -0.57252485
49 -0.30091864 -0.9880776 0.79379004 0.43004718 -0.61207765 -0.155514 0.074933656 -0.65274465 1.6855252 -1.059552 0.15445347 0.35576853 -0.20407781 -0.39978838 -0.27338853 0.19817936 0.5071944 -0.39903253 0.83133405 1.0632098 -0.58940154 -0.4605169 0.05568304 0.056291252 2.1281164 -0.5448518 -0.5126982 0.2838383 0.14115585 -1.1296856 -0.030624773 -0.50893545
445 -0.13670595 -0.705056 -0.009130281 0.72082233 0.14692207 0.643874 0.33116576 -0.4455386 0.7394848 -0.8976464 -0.095416166 -0.0069474825 0.6403814 -1.4266139 -0.036147367 -0.6180889 -0.0742288 0.9390804 -0.13891613 -0.2449545 -0.5326938 1.0692261 -0.35213515 0.5447264 0.9260836 -0.39166853 0.31884998 -0.3849224 -0.7803849 -0.20217659 -0.5029505 -0.22750744
79 -0.54815435 -1.0397128 -1.4172196 -0.21478894 1.8240031 0.40539053 -0.032679282 -0.21685939 0.08646611 -0.0989368 -1.088114 0.82295996 -0.3179621 -1.0502557 -0.23010577 -0.94463533 0.63503677 0.5227477 0.09180858 0.64690316 -1.0297413 -0.667156 -0.3079352 -0.04309639 1.1830573 -1.5152222 0.2761195 -0.106534205 1.0060967 -0.448949 0.5269919 0.1789431
455 -1.1662596 -0.66102153 0.5475382 0.27101174 -0.12226845 0.33930486 0.21363984 -0.7447665 -0.0643177 -0.2942917 0.48799047 0.43659854 0.6978216 -0.18482631 0.51881486 0.07808315 -0.5155934 0.036363397 0.48881426 -0.26318154 -1.4707695 0.16944806 0.017562432 0.12689373 0.09692823 -2.0079393 -0.032854695 -0.53783774 0.4328161 -0.21887381 0.10112687 0.9509223
521 -0.25247246 -1.5036877 0.15150248 0.89601034 0.6194585 0.21139066 0.51849055 0.49839875 0.9095641 -1.8508519 -1.29807 0.77471817 -0.06699047 -0.4237487 0.6679158 -0.6937382 1.0170794 0.89469177 0.56318325 0.29452157 0.04534201 -0.9918557 0.8734527 -0.3290446 0.28244832 -1.2657026 -0.42080152 -0.03811223 0.030778263 -0.8059326 -0.6671738 1.0600367
503 -1.2770853 -1.2386374 -1.3686329 -0.20153446 1.7679117 0.5645804 0.9825677 -1.1227736 0.4765776 0.045861535 0.21744356 0.82884246 -0.4346055 -0.5465956 -0.42318094 -0.60363895 -0.72489196 -0.36345673 0.20708272 0.7017695 -1.0186945 -0.59687626 -0.43364695 -0.2857467 1.045537 -1.5188514 0.33174506 -0.18516253 0.4680206 0.461762 0.85314643 -0.22961722
167 -0.7303331 -0.4586379 -0.77510136 0.76937366 0.9683003 0.3176406 0.05981837 -0.8841616 0.86550874 -1.1928358 -0.40675122 0.0949314 -0.037211772 -1.0282507 -0.48669964 -1.0624839 0.14752172 1.0005281 -0.3582997 -0.45969743 -0.39507234 0.6592125 0.98796695 0.74911517 0.9222156 -0.79878753 -0.3570299 0.08937258 -1.3091332 -0.52409804 0.44783553 0.029578097
486 -0.24209931 -1.2389225 -1.0424882 0.95160383 0.27883047 -0.42383432 -0.14864448 -0.35503796 1.1922587 -0.09490357 -0.1776708 0.1387457 1.4203719 0.0759602 -0.51941544 -1.0430228 0.5500412 -0.61380404 0.5074581 -0.3212806 -0.19342597 -0.5017632 -0.052515037 -1.2353215 1.2918813 -0.98511505 -0.7408814 0.62636375 -0.6270926 0.52302724 0.5510859 -0.2677846
72 -0.6098612 -2.3157685 -0.11725906 -0.35747078 0.38244656 0.44935524 0.21839215 -1.55417 0.43882182 -0.4680149 0.18136321 0.95765686 -0.44796574 -0.4541029 -0.5346538 0.27768382 0.92195594 0.7114313 0.41653058 -0.020331051 -0.5932675 0.79159284 0.40369236 -1.1796702 0.71057355 -0.7691887 0.05020932 1.0681741 0.045716543 -0.89669454 0.39135164 -0.2774399
624 -0.4426396 -1.290983 -0.36983943 0.6062403 -0.22153534 0.15176202 0.22518162 -0.7456356 0.75069726 0.73929816 -0.14658539 -0.36313698 -0.12086691 -1.2344551 1.1244334 -1.0511829 0.3283316 0.5268304 0.51591814 -0.11708383 -0.7033567 -0.24137312 0.039192293 0.8558859 -0.09008999 -0.8388883 0.41111153 0.26371038 0.20158823 -0.5634877 0.1898381 0.97509664
387 -0.54827446 -1.842564 0.5938481 0.266289 0.053976875 0.33791292 -0.007936371 -0.804414 0.46247235 -0.4723987 0.20039892 0.3573213 -0.11420165 -0.3445985 -0.14539202 0.6822166 0.8578498 -0.06364569 1.0414134 0.3946341 0.13314992 0.08252465 0.60939914 -0.7935033 1.3682256 -0.71875453 -0.62988573 1.3281677 -0.059918087 -0.7357952 0.6613784 0.13034087
262 -0.53023404 -0.41663036 -0.5406832 -0.71806026 -0.03594305 -0.5867838 0.10159485 -0.6369163 1.5165387 -0.22167309 -0.40171528 0.36722946 0.31670356 0.08198025 -0.59162396 -0.9681325 0.6027773 1.1649915 0.23515877 -0.7507153 -1.0637852 -0.34878278 -0.13956103 -0.66105604 2.2635853 -0.996248 1.1431115 0.08893084 0.34354454 -0.35320377 0.53123015 -0.27524024
629 -0.44274104 -0.7871523 0.5146809 0.6107276 1.2332362 0.43673122 -0.21302187 -0.09815664 1.2597431 -0.4301241 0.36169416 0.2323385 0.35822624 -1.121681 0.17668231 -0.59503293 -0.2815388 0.1705477 1.4049442 -1.1448348 -0.6523033 -0.18799569 0.84990716 0.46259373 0.33209807 -0.8534514 0.6103348 0.36393178 0.1215074 0.027906176 0.009891185 -0.16623388
590 -0.20292717 -0.21514434 -0.022853443 0.78540486 0.12821908 0.9930667 0.3920367 -0.27510276 0.510287 -0.59555966 0.22786216 -0.37814206 0.034842752 -1.2754966 -0.046335142 -0.3392962 0.2514716 1.2862306 0.56003904 -0.4665691 -0.7806505 0.31823042 0.12689364 0.7609537 1.3217711 -0.4798272 -0.1487173 0.07324167 -1.1117423 0.16364458 -0.21478528 -0.31219175
47 0.105058864 -1.1432861 0.6694177 0.46287882 0.17189614 0.19934803 0.08484853 -0.72146577 -0.30031344 0.43421003 0.20521201 0.46945304 -0.5301938 -0.40652484 0.201063 -0.81025606 -0.5681126 0.3923307 0.52387226 -1.0153453 -0.77100086 0.30587173 -0.08085791 0.7016323 0.873657 -0.8265799 0.10171573 0.13513042 -0.41696024 -0.30062366 -0.440155 0.66204077
236 -0.5643625 -0.6160449 -0.42860466 1.0174078 0.69550264 -0.16106725 0.36604947 -0.67264 0.706215 -1.3798298 -0.004492692 0.4242947 0.0738276 -1.2266986 -0.58153355 -1.2380501 0.5501249 1.0406349 -0.33938414 -0.38643324 -0.41391763 0.12323089 0.9720909 0.71310383 1.0867965 -0.5179104 -0.31745365 0.37175354 -1.1694443 -0.2155027 0.2628448 -0.31059116
630 -0.20333432 -1.6262354 0.21438517 -0.658159 -0.018830102 -0.29566118 -0.1770361 -0.80154425 0.626653 -0.5293622 0.41819805 0.0020073203 0.7266646 0.11571815 0.10419331 0.48069462 0.40343213 0.2788959 1.3210087 0.42504707 -0.3526698 -0.5173986 0.50709116 -1.1806307 1.4916705 -0.18565926 -0.63742775 1.102611 0.21956554 -0.51633316 0.86724067 0.8215718
250 -0.63213396 -0.55754936 0.32758382 0.92315674 0.18741584 0.73446196 0.22537753 0.041177865 -0.303232 -0.8054416 -0.43133393 0.4273699 0.28538576 -0.7265778 -0.75394875 -1.2685672 0.35689038 1.7610341 0.63644785 0.5896572 -0.19289295 0.5723834 -0.61524916 0.1152114 1.4165043 -1.4201028 -0.021356791 0.14876351 -1.2489034 -0.30975068 0.21862999 -0.51260966
623 -0.534663 -0.7571585 -1.0533452 0.4596015 -0.08661587 -0.4375592 -0.37415537 0.22107023 0.9373351 -0.3077217 -0.19297738 -0.87751615 1.1853065 0.08218359 0.0764392 -0.7839587 1.0110643 -0.32061034 0.94203067 -0.388159 -0.7818817 -0.53447556 0.13399279 -0.824346 0.9579848 -0.74440384 -0.3913788 -0.20540254 -0.28089318 0.26867267 -0.7582707 0.5059835
493 -0.9972587 -0.7078281 -0.9208793 -0.7477036 0.7642675 0.25902894 0.6418989 -0.1651438 1.0570881 -0.86763287 -0.7285282 0.411797 -0.26416057 -0.23891486 -0.49253738 -0.81391966 -0.2709787 0.91905487 0.36217305 0.32834834 -1.2071905 -0.8275706 -0.47523418 -0.6594935 0.46578977 -1.2490332 0.93939763 0.11938278 0.73475426 -0.029344052 0.88588977 0.50883555
139 -0.13154234 -1.0589018 -0.06323959 0.65946686 0.67590433 0.30038154 0.42004177 -0.8492256 0.03606224 -0.35570553 1.0520766 0.88584447 0.76070446 0.13926111 0.25297368 0.053354654 -0.38652626 0.08669081 0.25551313 0.081925154 -1.4714369 0.19180393 0.059440177 0.0070753195 0.20666867 -1.6749735 -0.010260278 -0.3224341 0.60895133 -0.10502034 -0.7839006 0.77157104
304 -0.72094464 -1.0091952 0.35168704 0.56971663 0.2803157 0.7479277 0.07921693 -1.3246828 0.39593205 0.007300813 0.8427778 0.27664936 0.43944818 0.63151276 0.45427564 0.22082703 0.040306054 0.23538165 0.7907027 -0.10985563 -1.5014994 0.03902559 0.3576648 0.06022766 -0.11072956 -1.64555 -0.13021159 -0.4434997 -0.2156924 -0.44774756 -0.25022703 1.1119709
466 -0.65447396 -0.8322989 0.123364836 0.024321346 -0.4801729 -0.090311244 0.5901841 -1.1005864 0.0019466595 -0.8624974 0.61720943 0.07963396 0.18100044 -1.3910811 0.18107006 -0.6656721 -0.41299278 -0.28764337 0.98270476 -1.0236949 -0.35696566 -0.38571623 0.21046938 0.48469317 1.3593502 0.07366482 -0.37484837 -0.5445381 0.24855833 0.25371397 -0.7674313 0.27427322
425 -0.3234311 -1.1671721 -0.34980083 0.65116566 -0.1561374 0.052188482 0.40312642 -0.47045484 0.41047284 0.2237832 0.0036739027 -0.5956332 -0.6033398 -1.1412516 1.2654338 -1.1712887 0.62268203 0.43919063 0.5239714 -0.47275886 -0.5102392 -0.47642517 0.31732544 0.893765 0.33619708 -0.75327104 0.36430004 0.29238594 0.25055012 -0.30709168 0.07089655 0.65354747
37 -0.6915604 -0.7652286 -1.1103022 0.1906747 0.07752381 -0.004282389 -0.51696455 0.18480599 0.79644066 0.029512513 0.050992742 -0.38982257 0.8388491 -0.25201505 -0.4760813 -0.5879862 0.975188 -0.42765802 1.0514978 -0.2008788 -0.9553134 -0.52069753 -0.22298625 -0.9809079 1.1381387 -0.44122103 -0.40360087 0.63983905 -0.19197963 0.25940353 -0.28652173 0.48955563
244 0.089740425 -0.09063027 -0.1696742 -0.38173884 -0.04317432 -0.23006369 0.025234602 0.23353682 -0.12046967 0.078429386 0.43511343 0.004335577 0.5263765 0.0061066197 0.0090212235 -0.8297995 0.13443117 0.30062 0.75974023 -0.24463908 -0.5216951 -0.045944575 0.14965993 -0.14193553 0.67741525 -0.48166168 0.4572489 0.6965144 -0.25596234 0.25955832 0.006503132 0.7184581
348 -0.37363362 -0.9653636 -0.09742263 0.72565717 0.11855321 -0.93024844 0.8440379 -0.55841815 0.5589239 0.10585358 0.7756724 0.004687049 0.003180651 0.050029896 -0.15124895 -1.583969 -0.50425315 0.53344697 0.7623228 0.019493457 -0.7676613 0.5572829 -0.63527447 0.26830894 0.55770385 -0.09103125 -0.010660784 0.6911818 -0.10527497 -1.0098834 -0.45264918 0.4139937
266 -0.8466726 -0.6667782 0.69965947 0.6281456 1.3456275 -0.068594195 -0.52336437 -0.80559117 0.97407424 -0.070552506 0.25491518 0.37972054 1.0484796 -1.0864941 0.4219466 -1.0473664 -0.7773834 0.2797684 1.6961861 -0.68561405 -0.2103492 -0.226424 0.1936024 0.2487093 0.49303156 -0.46288985 0.6334744 0.24573514 0.22718178 0.03199037 0.08630231 -0.055863533
551 -1.381081 0.33351487 -0.4287246 1.2791677 0.4463858 1.231687 1.2968464 -0.8179953 0.26431534 -1.7135049 -0.49274197 -0.68202287 -0.16063882 -1.4271826 0.3009064 -0.20200841 0.1936581 0.70355934 0.19082464 0.039755017 -1.0511664 0.29014874 -0.16318882 -0.15025122 1.5048105 -1.4240476 -0.24973008 0.214002 0.397543 0.60770124 0.0443692 -0.01022677
448 -0.11380271 -0.9560754 0.6356844 0.28166115 -0.17623909 0.6417798 -0.17720686 -1.4633788 -0.14246368 -0.56337464 0.7901614 0.5139134 0.41534021 0.07627027 0.69207495 0.01585363 -0.025321342 0.27949563 0.4005228 0.30675903 -1.5141902 0.22097394 0.008546653 0.065297775 0.33692595 -1.8023101 -0.17103526 -0.5061438 0.16427755 -0.16003516 -0.30283841 0.56634283
340 -0.11602845 -1.1850624 0.0381417 0.69984764 0.71758115 0.07221252 0.21674663 0.30634475 0.6815172 -1.262471 -1.1144946 0.45552835 0.103650264 -0.3873278 0.57385397 -0.24329051 0.91898304 1.1219386 0.5786844 0.6034296 0.037858132 -0.8410794 0.96985215 -0.28524017 0.5419867 -1.3659936 -0.6224387 0.76776016 -0.13163128 -0.88323015 -0.10328528 1.6323473
99 -0.21752414 -0.970546 0.2245187 0.8806695 0.47628504 -0.5641959 0.75923324 -1.1026927 1.1066062 0.095162675 0.4383253 0.17494614 0.0949888 0.21172339 0.0919987 -1.4967057 -0.46087465 0.48044342 0.7460367 -0.11223089 -0.7538266 0.29863134 -0.4201694 0.5290439 0.49587217 0.2551802 0.20004018 0.6356062 0.21588305 -0.9985595 -0.4560716 0.5963367
213 -0.57844824 -1.5644804 0.456329 0.20774016 0.40850484 0.41571978 1.9460033 -0.20664418 0.8112692 -1.4566209 0.3073035 0.25577503 0.8980656 0.44847235 0.597781 -0.23431142 -0.21883178 1.18618 1.3004858 0.2725842 -0.31878948 -0.9593451 0.3231658 -1.2927126 0.6403654 -0.26594874 0.088270836 0.110121444 0.024788095 -0.8885758 -0.40806127 -0.13579743
274 -0.69887596 -1.197621 -1.3485894 -0.089229695 1.7858123 0.5149122 0.17131329 -0.38977855 -0.0036262204 -0.282173 -1.181651 0.9150504 -0.43141708 -1.1704228 -0.18194073 -1.1290544 0.6296505 0.45630676 0.090589345 0.54797137 -0.91816956 -0.32370716 -0.57199126 -0.033876494 0.9445006 -1.2653533 0.10490293 -0.2531161 1.0736495 -0.6910854 0.3484532 -0.114774406
128 -1.3834981 -2.1390479 -0.063537024 -0.3931124 0.07397877 -0.13306919 0.41389403 -1.7937727 0.41906545 -0.060401108 -0.19798006 0.9756847 -0.3879395 -0.54414874 -0.22585475 -0.22865583 0.36707222 0.3661423 0.6292254 -0.3059174 -0.4540769 0.68440825 0.70718277 -1.2065012 0.7019201 -0.16167906 -0.09064591 0.7933036 0.3050503 -1.1469196 0.65917397 -0.10017523
97 -0.56544584 -0.74707323 0.59981686 0.13327403 -0.099845015 0.89655954 -0.2897265 -0.5313394 0.41507575 0.55531704 0.8429961 -0.18894888 -0.49024346 -0.5329116 0.7478446 -0.46000546 -0.15370859 0.38272738 1.1898276 -0.3167508 -1.4092412 -0.07637967 -0.46776545 0.038929056 1.2773116 0.061284307 0.29358116 0.46970797 -0.46970353 -0.14356004 -0.4028704 0.3233301
50 -1.1634767 -0.9005477 0.37836602 0.60385704 -0.52860683 -0.12850721 0.201001 -0.7394832 -0.41615647 0.12282112 0.25894347 -0.11161193 -0.31095397 -0.23350902 0.56509787 -0.85386777 -0.25322637 0.57970136 1.5205746 -0.606611 -0.5420476 0.018528111 0.5343714 0.7031214 0.15580745 -0.67665416 -0.49517396 0.73424405 -0.717959 0.0072916336 -1.0522453 0.40799877
23 0.2721019 -1.5434486 0.05069144 -0.5097854 0.7437309 0.18918592 -0.010502901 -0.39555773 0.3930974 -1.4553294 -0.8769558 -0.53124577 1.0421323 -0.12483812 0.544189 0.6305425 0.4727713 0.3420733 0.671578 0.34236982 -0.21653257 -0.66725445 0.042909935 -0.76319003 1.4337739 -0.873183 0.6420248 -0.08538736 -0.87568 -0.73533 0.5681438 1.1403669
471 -0.22497283 -1.6123534 -0.68064594 -0.06986031 0.21888675 0.42229283 1.5590084 -0.05186867 0.5219147 -0.81751937 0.11877772 0.11440368 1.1171148 0.10409539 0.76222986 -0.15977636 0.0036228902 0.578363 1.344954 0.857461 0.09219238 0.018355282 0.93571174 -0.67079484 0.7984973 -0.6317328 -0.62095386 0.42242822 -1.0463369 -0.6019346 0.014179045 0.054218408
394 -0.85877186 -1.4099524 -0.51880556 0.72537357 0.66525567 -0.156503 -0.12640755 -0.9745142 0.49740276 -0.4641121 0.0770658 0.090831995 1.1576118 -0.7792054 1.1337887 -0.41989812 0.08372175 1.0319849 0.17423366 0.43358183 -0.44307557 -0.40546122 -0.26322052 -0.9010337 1.1574054 0.6559221 -0.0098996265 0.6607963 -1.003563 -1.6501782 0.69643915 1.1919008
319 -0.9820209 -1.1929022 -0.6779856 1.1169299 1.1826168 0.94130623 0.99236345 -0.57977295 -0.28220522 -1.2845994 -0.51154685 -0.48733148 0.42510924 -0.6449659 0.4003599 -0.21694016 -0.20065115 0.8455544 -0.14682928 0.57382953 -0.52344716 0.5859765 -0.46880087 0.57328624 1.549853 -1.211719 0.09107363 0.8775956 0.1567232 0.5414348 -0.4451393 -0.77338606
535 -0.64701873 -1.2466853 -1.5104398 1.1008483 0.23987511 0.01316515 -0.14974287 0.17197491 0.5075005 -1.1102653 0.69717497 0.3797346 0.4117889 -0.05601709 -0.24743143 -0.68775636 0.5583591 -0.43331102 -0.061344683 -0.037763305 -0.8685284 -0.7714025 -0.3643848 -1.0443884 1.8343178 -0.44771487 -0.82986283 -0.30822766 0.16456078 0.2787239 -0.9535996 0.8992961
316 -0.545426 -1.6505523 0.61028904 0.11137537 0.39362636 0.43274826 1.910713 -0.18891396 0.7719931 -1.53835 0.35280913 0.19511305 0.8900991 0.4633904 0.49147123 -0.2146879 -0.1334461 1.1461161 1.412383 0.25009435 -0.30449882 -1.0515187 0.21490152 -1.2942046 0.6693315 -0.31677333 0.18245696 0.011514791 0.16418521 -0.87535906 -0.50074124 -0.21408461
593 -0.5217758 -0.61235857 0.13963746 0.21754798 -0.07855029 0.8290864 -0.40717587 -0.6223757 0.40865478 0.63747966 0.95686984 -0.27913895 -0.46504843 -0.4437349 0.54775965 -0.5867995 -0.2795328 0.30088648 1.2912925 -0.05767976 -1.3910772 -0.1247038 -0.43509573 0.09193739 1.2749038 0.13217776 0.32027757 0.56119925 -0.3793877 -0.33106562 -0.5410047 0.51747227
140 0.2149368 -1.1189677 0.4429987 0.013850522 -0.092029236 -0.24793577 -0.75744414 -0.08655157 0.5247407 -0.3526132 0.076439664 -0.38917017 0.09063368 -1.0073236 -0.077856496 -0.7217018 -0.99206483 0.7091484 0.74711734 -0.5332198 -0.839328 -0.33987746 -0.26059818 0.3202431 0.44146737 -0.77706236 -0.47889447 0.2868756 -0.25386092 -0.13163082 -0.97063977 0.638195
589 -0.41576427 0.09235582 0.3976243 0.3676737 0.43733704 -0.0449506 -0.05649791 -0.72826576 -0.08392999 0.3595266 0.35088447 0.29794562 0.2309809 -0.33051783 0.34988594 -1.1025661 -0.43739548 0.6573479 1.0348375 -0.71942 -0.87053174 -0.9637621 -0.59612995 1.0953126 1.2790133 -0.95854145 0.7132061 0.017298989 0.11408903 -0.55733716 -0.6464318 0.3299138
584 -0.24470827 -0.3115694 0.61160153 0.3132892 0.39814985 0.66285056 0.27699038 -0.43913817 0.35091203 0.026860299 -0.1372311 -0.14717454 -0.04525461 -0.085584976 1.1191157 -1.6199625 -0.69752157 -0.58454055 0.56353813 -0.08455285 -0.34826025 0.2948437 -0.38204518 0.26686102 1.022657 -0.74368644 -0.4342616 0.5226409 -0.1207152 0.13576706 -1.0330981 0.5113064
28 -0.18314157 -0.37676412 0.9106695 0.59491 0.34409323 0.7810018 0.36810845 -0.6985627 0.203076 -0.28017953 0.071106546 0.02891007 -0.1832112 0.05649563 1.0543171 -1.429201 -0.8030526 -0.40092796 0.48550674 -0.25948337 -0.4387773 0.2864845 -0.20641068 0.33992952 1.0014608 -1.0789706 -0.4953626 0.28497213 -0.036824342 0.34880206 -0.9212004 0.48032612
519 -0.56304854 -0.96725816 -1.4663476 -0.057963848 1.8007418 0.4073305 -0.005101871 -0.32990003 0.16429019 -0.17663562 -0.9257027 0.88511586 -0.34359625 -0.97679627 -0.15412028 -0.96823096 0.4680331 0.35033274 -0.07456958 0.48206306 -1.028316 -0.59083605 -0.48292014 -0.0805737 1.1568726 -1.4226727 0.16174556 -0.11601573 0.9871668 -0.4052777 0.4432176 0.008560689
547 0.107407734 -1.1183937 0.46688733 0.42897233 -0.27749112 0.037448175 0.48064533 -0.61062074 1.2728363 -1.0600791 -0.034910664 0.2773446 -0.33427975 -0.5189729 -0.1733699 0.3042928 0.83436716 -0.29205057 0.9774841 1.66581 -0.8550232 -0.35268492 -0.2210561 0.35576093 1.6838499 -1.0516542 -0.080365725 0.40859792 0.6740672 -0.9953435 0.057931732 -0.18713704
279 -0.3015866 -0.32382357 0.93185586 0.45372823 0.328478 0.69994354 0.5261861 -0.40715992 0.18665528 -0.14651455 0.108232036 0.018229345 -0.051362272 -0.067828625 1.0722367 -1.6480572 -0.6519889 -0.4036743 0.60887337 -0.061833568 -0.34874564 0.34093586 -0.4242478 0.37642166 1.0361407 -0.92611575 -0.71724826 0.3586711 -0.05800126 0.32561237 -0.8098072 0.5774896
514 -0.8265406 -1.871707 0.15170895 -0.08518541 0.16908951 0.24438946 0.3356342 -1.5519829 0.35714474 -0.45432475 -0.13804595 0.8465755 -0.45227733 -0.39192936 -0.55279535 0.29403725 0.7360639 0.49451348 0.38531682 -0.003243025 -0.39848107 0.6947757 0.32011706 -0.9563046 0.9169955 -0.70595825 -0.19876534 1.006891 0.22873235 -0.849475 0.67279696 -0.1607759
175 -0.4354828 -1.0299824 0.37168813 0.42701587 -0.3704222 0.07209921 0.35251322 -0.67822474 1.2217832 -0.917363 -0.008499873 0.66668755 -0.35953766 -0.4552828 -0.22495867 0.40667114 0.5022401 -0.30068347 0.67688304 1.0724471 -0.7376227 -0.18321276 -0.07544582 0.26477656 1.7731075 -0.69565004 -0.5321102 0.68821853 0.5036289 -0.93050075 0.33262378 -0.48656768
8 -0.46949482 -0.70076776 0.62513655 -0.0034837779 -0.32593524 0.6560538 -0.48699185 -0.5604588 0.23859473 0.3955489 1.121078 -0.08886873 -0.41593412 -0.4421922 0.7507158 -0.48266786 -0.12710431 0.31110364 1.4791994 -0.36005968 -1.2682421 -0.14422409 -0.37997884 -0.17042278 1.1935034 -0.085424855 0.24999823 0.3058582 -0.59965104 -0.3170632 -0.358164 0.5015639
595 -0.2605948 -0.27455148 0.84488845 -0.6003832 0.2745036 -0.5781796 0.44907302 -0.6228648 0.17038463 0.17370395 0.4745984 0.1875012 -0.38011426 -0.85991746 0.36357632 -0.77444875 -0.2686453 0.5725851 1.0823101 -0.96523076 -0.94879013 0.8299222 -0.6179672 0.19354662 0.7992987 -1.3586061 0.20135541 -0.02602845 -0.18320046 -0.25461373 -0.32214123 -0.30551884
374 -0.1311092 -0.24758759 -0.033698257 0.7409216 0.18305102 0.7600717 0.43452007 -0.24745679 0.13942167 -0.62112665 0.110424094 -0.14056644 -0.04148351 -1.1156412 -0.13803743 -0.7659921 -0.12314512 0.96809846 0.23624292 -0.5845573 -0.61330694 0.40730104 0.09569004 0.72828764 1.0589888 -0.63477266 0.2706076 0.022094509 -0.8102882 -0.022773614 -0.17617753 -0.05880621
343 -0.86535704 -0.8991691 -0.6074175 0.20052396 0.62879455 -0.06264005 0.101990975 -0.51043975 0.6864451 -0.2709171 -0.37976232 0.3600385 0.7640665 -0.29814765 1.1101172 -0.5225221 -0.35260013 1.0527797 0.14223282 0.41895515 -0.647705 -0.8411919 0.29197866 -0.97228014 0.9828153 0.37965506 -0.24434718 0.7338326 -0.4957677 -1.2062788 0.81632656 1.3103797
91 -0.8438551 -1.9550266 0.08458155 -0.1183299 0.08788022 0.13306166 0.3137468 -1.5820981 0.3983032 -0.4254571 -0.050940227 0.79910356 -0.39469498 -0.45629182 -0.56737113 0.20184419 0.6790255 0.44627666 0.37807485 0.08655032 -0.36414555 0.6888256 0.3665213 -0.93112123 0.9293728 -0.6736654 -0.21441205 0.97463095 0.3218846 -0.81835276 0.7455742 -0.28267813
354 -0.16496372 -0.21444151 0.86438423 -0.5562044 0.06031118 -0.31039828 0.45739982 -0.51408076 0.27385277 -0.026705513 0.23482129 0.07993389 -0.48828182 -0.9475007 0.55371964 -0.84096986 0.022100886 0.35707632 1.0222056 -1.2702188 -0.9615296 0.82785046 -0.53516203 0.19526754 0.9517354 -1.434293 0.070941806 0.19628818 -0.09824073 -0.23226874 -0.2390573 -0.1565779
113 0.22880696 -1.1491841 0.59963167 0.06838379 -0.22019099 -0.28210017 -0.5356608 -0.07674939 0.43682694 -0.25599453 0.079153195 -0.5317584 -0.09811663 -0.8780354 0.061435163 -0.6951733 -1.0297886 0.625603 0.59634817 -0.6451539 -0.8673474 -0.1124764 -0.25900674 0.2943131 0.6240106 -0.89532524 -0.57831514 0.17148513 -0.14855239 0.07134778 -0.98092 0.72158575
261 -0.6048442 -1.0122157 -0.86829793 0.4833324 0.27617243 -0.13686158 -0.31493148 -1.0081657 0.66848767 -0.8637141 -0.9278068 -1.1885934 1.0633284 -0.121761784 -0.63714194 -0.7937241 1.0519754 -0.31897232 0.78473353 -0.4172921 -0.839603 0.38749987 -0.4408836 -0.49427554 1.0899051 -0.55541533 -0.9693999 0.8205201 0.6392495 0.1577443 -0.6927701 0.92756414
332 -0.15774494 -1.6978226 -0.903538 -0.023598356 -0.019322788 0.62798786 1.3753097 -0.021517891 0.68421626 -0.37145346 0.18675493 -0.13029136 1.4478692 0.18830276 0.66835135 -0.1983585 0.16524939 0.39554957 1.4825873 0.8657181 0.0603753 0.28326565 0.8197108 -0.65453935 1.0449977 -0.94585484 -0.60467994 0.57444364 -1.3104699 -0.6466122 -0.089128606 -0.14028344
146 -0.18997242 -1.2107538 0.2081346 0.21866024 -0.46577132 0.19316675 0.45537573 -0.16181055 0.40101138 -0.3992359 -0.2131737 0.20360139 -0.22258157 -0.43922827 0.5363991 -0.63907135 -0.28459907 -0.43856752 0.5365217 -1.5440161 -1.0793935 0.11385227 -0.23888233 0.41416317 0.6810326 -0.29172903 0.30325294 0.96194047 0.08153069 -0.7045578 -1.1245089 0.3133255
52 0.19932616 -0.9605792 0.6167528 -0.17554064 0.41408592 0.44957393 0.20872568 -0.72859734 -0.68026257 -0.30504125 0.11944234 0.47802156 -0.04345434 -0.45410353 0.2874521 -1.4131603 0.4561542 0.8086417 1.1645359 -0.29576704 -1.0334882 0.01619781 -0.702677 0.4949792 0.41938007 -0.26920772 -0.31050137 0.28057724 0.06744385 -0.32850492 -0.7473185 0.4161994
426 -0.53172207 -1.2878367 -0.50930065 0.3505061 -0.25337243 -0.304251 -0.39467454 -1.5400041 -0.15876125 -0.5096739 -0.5660165 0.71725076 -0.27491432 0.121376604 0.463825 -0.4182739 -0.89723784 0.1308115 0.46330538 0.49808666 -0.021807944 -0.15811296 -0.56738317 -1.0046841 1.8519804 -0.8221191 0.73739266 -0.1790755 -0.5172896 -0.3484653 -1.286138 -0.0017702866
277 -1.3151945 -0.7282851 0.4672186 0.081451714 -0.13212398 0.2779211 0.25473627 -0.38368267 0.00787499 -0.20312157 0.45813218 0.46399036 0.7148427 -0.19758083 0.42138028 0.19864608 -0.45478436 -0.036175862 0.61362 -0.33958846 -1.5062841 0.21792755 0.05457642 0.22986628 0.13953781 -2.2147884 -0.10515897 -0.4632388 0.42566136 -0.32669082 0.19889937 0.99743474
350 0.010815943 -1.3119004 0.057480544 0.10359174 -0.6067111 0.391741 0.34902218 -0.19873656 0.4301739 -0.43183535 -0.445457 0.3762295 -0.07886628 -0.17137691 0.5005221 -0.64451534 -0.27170435 -0.2778101 0.38805592 -1.5985782 -0.9800985 0.18675281 -0.34165075 0.28104225 0.7853091 -0.5081371 0.43829134 0.8425824 -0.11283119 -0.697369 -1.2158513 0.20892231
321 0.4216749 -1.1746955 0.48381436 -0.17272311 -0.2885254 -0.17951769 -0.53418946 0.16573897 0.43746224 -0.38494837 -0.05970009 -0.39679566 0.06895165 -0.7006475 0.009167587 -0.72942686 -0.7152483 0.6752188 0.6364687 -0.5791815 -0.7220592 -0.2219904 -0.520182 0.4995749 0.51755047 -1.1268452 -0.56369495 0.19645736 -0.3082735 -0.12035049 -0.9195386 0.79292506
263 -0.2776375 -0.41333503 -0.07260526 0.7448641 0.4386423 0.80671453 0.3483456 -0.32449642 0.2590005 -0.803687 0.15456828 -0.1679302 0.057317987 -1.1318016 -0.10654194 -0.68196505 -0.16634676 1.0015167 0.1421316 -0.50176245 -0.44205627 0.5046809 -0.008131339 0.6691225 0.9863624 -0.5640423 0.18097612 0.092389986 -0.9175645 -0.056073748 -0.34572175 -0.3921099
408 -0.5409225 -0.8757857 0.21433625 0.50143015 0.10212673 0.43712205 0.14777535 -1.0347781 0.07485807 -0.1193335 0.68243253 0.49421483 0.50084466 0.051637094 0.5199653 -0.03278807 -0.005117203 0.06637564 0.4658997 -0.26759848 -1.6889585 0.13495083 0.03129175 0.17118162 0.07124828 -1.4979019 0.09908294 -0.32570872 0.4145814 -0.5377581 -0.16079125 0.8722762
507 -0.49080792 -1.0558206 0.520272 -0.69287294 0.1958564 0.33257088 -0.014738809 -0.96881735 1.1270118 0.23703842 -0.39611065 0.7910077 -0.28611034 0.042812247 0.12865952 -0.53155476 0.2162938 0.30362087 0.8955517 -0.5986571 -0.10522798 -0.31383786 -0.26273498 0.8249291 0.760051 -0.619825 -0.60930085 -0.42104548 -0.92083424 -0.3788765 -0.42737404 0.5555992
345 -0.966073 -0.49440122 -0.87777764 -0.24548729 -0.044713467 -0.23807305 -0.24361855 -0.49905834 0.8274535 -0.30961236 -0.74871856 -0.0006307231 0.82118845 0.1030281 0.65508336 -0.6032872 -0.36844158 0.16642801 0.42801517 0.8023975 -0.55683565 -0.192895 1.2667829 0.39346376 1.7618992 -1.5835379 -0.38470408 0.05314331 0.12951833 0.72691125 0.55095106 0.62562454
104 -0.42706624 -1.8606277 -0.91571957 -0.19672565 0.29484138 0.27273938 1.829229 -0.037435837 0.34779036 -0.9099503 0.29255784 0.42348734 0.7479174 0.23947899 0.42469692 -0.42616314 0.13493569 0.4217532 1.5437807 0.6400205 0.11583205 0.29753113 1.1364381 -0.43910807 0.71242607 -0.70714784 -0.9174998 0.34573045 -0.919787 -0.28433684 -0.12224185 -0.38406578
372 -0.2816204 -0.3757434 1.0179139 0.46513876 0.39823645 0.6017719 0.44606745 -0.47458872 0.2648219 -0.07448421 0.16422857 -0.18665965 -0.11709466 -0.012192295 1.1414413 -1.6089311 -0.8566468 -0.57221544 0.7262174 -0.06511783 -0.570062 0.38925737 -0.39624867 0.17141098 1.1720266 -0.9961945 -0.54597986 0.3755705 0.0798039 0.22686309 -0.90329635 0.5110118
416 0.21824127 -0.92217904 0.6683203 -0.11022194 0.47934926 0.52127683 0.31590867 -0.67298096 -0.52052355 -0.21030475 0.15846273 0.43152612 -0.12037708 -0.53682476 0.31916526 -1.3356383 0.4923107 0.8880098 1.3432701 -0.3088075 -0.98588705 0.1353271 -0.7756493 0.56698483 0.2959446 -0.1449974 -0.28577545 0.5363113 0.121691175 -0.055200223 -0.64563453 0.48329473
369 -0.60748804 -0.90735793 0.078963496 0.11449504 0.31902793 0.55387676 0.18488432 -0.5122933 -0.31696385 0.10675053 0.37993363 -0.036776405 0.33062458 0.41560337 0.32749316 -0.96441364 -0.55058426 0.38523528 0.92750627 -0.40941218 -0.6687265 0.5765136 0.11339011 1.3624834 0.93098074 -0.8220273 0.33175552 0.17033459 -0.0024510631 -0.00992863 -0.90747434 -0.18964797
524 -0.51936966 -1.5823816 0.39351088 0.19028187 -0.17026454 0.21361531 0.116914675 -0.731919 0.68540084 -0.94376886 -0.07257561 0.71606106 -0.42146882 -0.44816783 -0.2365131 0.7329831 0.7607687 -0.11880531 0.8031122 0.7465962 -0.490332 -0.057824545 0.35808274 -0.14486854 1.6219054 -0.4156312 -0.303817 0.9705803 0.3152321 -1.1097827 0.68865126 -0.33356878
136 -0.06350647 -1.2722094 -0.11381781 0.2893512 -0.60675323 0.26954964 0.34856826 -0.19548698 0.4294336 -0.33159858 -0.35621256 0.18710825 -0.17670983 -0.17403474 0.5363656 -0.7306263 -0.26397377 -0.20454958 0.46356133 -1.4957689 -1.1309974 0.17573176 -0.40369445 0.25665948 0.75811857 -0.43761188 0.62715447 1.0380462 -0.050667092 -0.7448563 -1.3063631 0.2548047
631 -0.6014907 -1.6415586 0.33661416 0.26238656 -0.13336872 0.1954892 0.14943871 -0.66991323 0.75989175 -0.9288022 -0.071031354 0.75290793 -0.46254984 -0.44096836 -0.22751096 0.64357954 0.7318805 -0.061261997 0.8076508 0.70653814 -0.45297423 -0.14051525 0.39764217 -0.2065748 1.6088237 -0.42061645 -0.32171574 0.98583645 0.35000408 -1.1716083 0.6465116 -0.45316193
246 -0.17165531 -0.63138145 0.01245778 -0.246674 0.017078748 0.048716705 0.6992109 -0.9503635 -0.24903013 -0.71678203 0.9047542 0.14343254 -0.06210808 -1.1706045 0.21478657 -0.8771531 -0.11969156 -0.075654335 1.0054948 -0.7074274 -0.64076763 -0.28457814 0.42117605 0.47508454 1.4367439 -0.25082356 -0.32156008 -0.56962067 0.42129552 0.41257298 -1.0467554 0.3368653
326 -0.77564466 -1.2609975 -0.52230287 0.6963807 0.57507586 -0.15164502 -0.16630833 -1.0379126 0.52724695 -0.37883973 0.057665806 -0.008588415 1.1745023 -0.791838 1.0715483 -0.43929747 0.049134202 1.0176713 0.18070678 0.31769207 -0.4954976 -0.34193015 -0.24893714 -1.0093441 1.1358895 0.5719717 0.0030423468 0.7418505 -0.9712417 -1.58582 0.6655696 1.4942828
423 0.0008854361 -1.028246 -0.23739436 -0.011811786 -0.24282105 0.03917563 -0.056821764 -1.3587089 -0.50956243 -0.25900018 -0.40148047 0.06836879 -0.39555475 -0.6042764 0.5849651 -0.5465697 -1.0175729 0.3630811 0.7813217 0.14364563 -0.34717116 -0.044609156 -0.5486087 -0.54009616 1.0428715 -0.77850574 0.5393591 -0.18816796 -0.15841193 -0.54865474 -1.003377 0.14199136
83 -0.40662113 -1.2136611 -0.5542851 0.33096516 -0.16176604 -0.21307856 -0.4228247 -1.4756624 -0.09359329 -0.5289591 -0.45856425 0.6824626 -0.30746505 0.0020841353 0.4923811 -0.3845334 -1.0243262 0.07419077 0.42495173 0.48919907 -0.01057428 -0.14312433 -0.5603952 -0.93019843 1.6826185 -0.8405163 0.71194434 -0.1312444 -0.5298924 -0.40980405 -1.1578708 0.033516426
409 -1.5363606 -1.1438388 -0.7691574 0.24633919 1.5240908 -0.764301 -0.4390234 0.14480226 1.3490494 -0.60898626 -0.027248846 -0.63095844 0.2417248 -0.46831214 0.18939005 0.39723745 0.8113059 -0.121095486 0.92471486 -0.15061069 -0.3664108 0.2705254 -0.59734607 -0.3136337 0.78217995 -0.99670553 -0.046220187 -0.13750638 -0.47692582 -0.27014267 -0.29508922 0.11009961
615 -0.43473077 -1.5108457 0.34339994 -0.16295326 0.21219362 0.19890079 1.4721155 -0.15793502 0.7224544 -1.4777979 0.17264175 0.00015464814 1.1755832 0.47950113 0.33933133 -0.21130632 0.11936475 0.8533295 1.3753515 0.33676666 -0.12493813 -0.8421851 0.38411745 -1.3401554 0.7552869 -0.33488175 0.12885772 0.13554163 -0.15587597 -0.72699386 -0.15873133 0.0033323646
549 -0.24664125 -0.8998986 0.64927924 0.69990456 -0.41509876 0.39965388 0.033294994 -0.4014479 -0.1364293 -0.6449483 0.5785021 0.28698882 -0.2737862 0.14400509 0.23883192 -0.811145 -0.64773273 0.4399425 1.4647638 -0.6865016 -0.046049364 -0.04914669 -0.65580934 0.4709626 1.0045214 -0.87538546 0.22751422 0.06457951 -0.35211265 0.22676097 0.3890479 0.9080699
100 -1.6166682 -1.1679358 -0.55767787 -0.090307556 1.5752703 -0.8740901 -0.40760058 0.2588048 1.3485419 -0.24784464 -0.06845278 -0.561861 0.13565151 -0.7620241 0.20487097 0.27694365 0.8173594 -0.016408656 0.9306264 -0.1412274 -0.565067 -0.042894434 -0.5314443 -0.44237986 0.68121684 -1.4063225 0.07694157 -0.10987634 -0.6624001 -0.39349857 0.13543028 0.1557829
415 -0.20471251 -1.623438 -0.652832 -0.18150939 0.2573695 0.40203556 1.6283622 0.023165133 0.47236532 -0.8614944 0.12749511 0.07016453 1.0949746 0.20878349 0.6919875 -0.21187244 -0.0024297445 0.68575287 1.4578607 0.7752741 0.12073316 -0.00022284975 0.8796089 -0.5999158 0.8578742 -0.7181007 -0.5544536 0.39925578 -0.9920254 -0.5785643 0.052255932 0.0516219
472 -0.3279238 -1.2753149 -0.60873735 0.33041105 -0.08355064 -0.28333148 -0.47188586 -1.5518467 -0.10005445 -0.46543187 -0.36803007 0.6746333 -0.27626795 0.058099072 0.5159608 -0.4412686 -0.99397695 0.17376998 0.5265656 0.43493575 -0.16471389 -0.15977894 -0.54315126 -0.92635316 1.6652119 -0.8515724 0.8856489 -0.103836626 -0.38283992 -0.46300465 -1.230203 0.044342898
22 -0.3488453 -1.8552905 -0.9383737 -0.24811281 0.1928412 0.23205525 1.7200726 -0.007934801 0.4936501 -0.9195078 0.2168412 0.3342028 0.91528326 0.21431617 0.4411123 -0.3505828 0.13915966 0.43081245 1.5841174 0.7213843 0.09443428 0.32494727 1.1611141 -0.46173474 0.90434223 -0.79873985 -0.7844115 0.42792353 -1.0126928 -0.26242197 -0.011336202 -0.30426908
158 -0.18241045 -0.33930767 0.026580462 0.7783764 0.1932537 0.9110727 0.36100367 -0.36647263 0.18224582 -0.7737464 -0.009890564 -0.16931419 0.08907665 -0.96315813 -0.020289421 -0.78295255 0.05925649 0.9961203 0.0128504615 -0.42811403 -0.51075566 0.5696432 -0.26588097 0.56434035 1.2241032 -0.5702933 -0.01659977 0.013057173 -0.8274013 -0.22011635 -0.26262143 -0.21756984
473 -0.37063006 -1.0412863 0.40656814 -0.4986032 0.063879214 0.3120509 0.023388386 -0.8914735 1.0871 0.23093404 -0.48369443 0.57405597 -0.32132947 -0.01911514 0.20358288 -0.6980748 0.24757984 0.31586546 0.6985378 -0.5624949 -0.068251275 -0.37188753 -0.3801891 0.8206673 0.8718917 -0.48000336 -0.5527699 -0.450255 -0.9161764 -0.37901297 -0.5234325 0.5593809
596 -1.1766295 -1.6597838 0.53072125 0.8720528 0.2722676 -0.47099033 0.97931635 0.6168418 -0.061304916 -0.0015560093 0.8677581 0.5675899 0.6392176 -1.2209657 0.56534046 -0.6984666 -0.20420913 -0.14810748 0.7467215 0.11518717 0.113722146 -0.3542378 -0.13917524 0.6592825 1.1856163 -0.43067878 -0.33988294 -0.0041039847 -0.28096515 -1.0537968 -0.12981564 0.46823943
312 -1.0146452 -1.8899926 0.30354005 0.02114554 0.31618065 0.25286224 0.2619562 -1.5651573 0.19317727 -0.4700809 -0.16419742 0.9964064 -0.464029 -0.53049767 -0.96480614 0.05620864 0.96593374 1.0516871 0.21090314 -0.29868203 -0.24152042 0.6059589 0.21620084 -0.88956255 0.85571545 -0.89021325 -0.238849 0.867549 0.6484881 -0.45558465 0.4742989 0.17420663
310 -0.30776647 0.15820652 0.5843877 0.33975467 0.46912104 0.25086793 -0.15383707 -0.7766797 -0.17546785 0.44168785 0.1371708 0.17081004 0.19722104 -0.1895878 0.6080168 -1.1267757 -0.37910938 0.6682622 1.0793626 -0.6124703 -1.02218 -1.0722682 -0.68742526 1.1195067 1.2636937 -1.0837747 0.43802297 0.11819984 0.12869821 -0.38685235 -0.6572622 0.5815577
138 0.10692195 -1.2787235 -0.08028804 -0.44030353 0.39455867 0.12632793 -0.02658934 -0.39660814 0.40613833 -1.1574684 -0.65601456 -0.39340118 0.9424865 -0.12068775 0.52879953 0.33277386 0.29865766 0.40054047 0.71307546 0.49110988 -0.23008876 -0.57056266 0.23421164 -1.0097014 1.4040023 -0.6593788 0.42226645 0.2640285 -0.71328115 -0.6194169 0.63362545 1.2442565
432 -0.9958874 -1.0446414 0.34758928 0.5919313 -0.6183085 -0.048515853 0.15044953 -0.78821707 -0.33995426 -0.092435226 0.34290284 -0.13060372 -0.32077944 -0.4049241 0.53520507 -0.84972113 -0.361903 0.5664686 1.3842176 -0.59289074 -0.63942724 -0.021088962 0.49676716 0.6866163 0.2171768 -0.6931112 -0.4089827 0.6705161 -0.76399404 -0.074719325 -1.2073158 0.4366313
219 -0.4139317 -0.76464033 0.21982162 0.629073 0.1337994 0.53199613 0.16761537 -0.8101418 0.07627899 -0.105966374 0.68373215 0.40724024 0.48810434 0.13903275 0.41012236 -0.1390279 -0.24985278 0.11605782 0.2711172 -0.23956871 -1.6367999 0.21688406 -0.04550866 0.19343218 0.24215099 -1.6504283 0.053760763 -0.4100003 0.27550966 -0.41549134 -0.30801207 0.82829195
634 -0.57039315 -1.0059917 -1.4408511 -0.056492716 1.8110611 0.42003623 0.033080738 -0.42784742 0.11567854 -0.122573815 -1.002306 0.8516816 -0.36700892 -1.0512546 -0.14202875 -1.0198339 0.47993553 0.2875595 0.016315036 0.50823694 -1.0095817 -0.5305503 -0.51502544 -0.005276407 1.1002034 -1.4261695 0.15573475 -0.12630272 1.0002952 -0.39239216 0.3847762 -0.09542197
270 -0.23418014 -1.1476192 -0.41956615 0.71196944 0.17525096 0.34886682 0.30869424 -0.6043626 1.0765598 -1.3591672 -0.081255354 0.32546505 1.0228286 -1.7183882 -0.35916805 -0.29477474 -0.16042097 1.1574467 -0.18000826 0.04971413 -0.72832084 1.0673777 -0.2811552 0.29624093 1.0781701 -0.533001 0.41689426 -0.6479811 -0.60588425 -0.32816815 -0.6170102 -0.39665803
622 0.047298815 -1.2874703 -0.047417108 0.017982991 -0.21041375 0.07285741 -0.13988087 -1.580365 -0.68486756 -0.3835871 -0.21590482 0.16832072 -0.26528326 -0.46476278 0.72996837 -0.58609366 -0.8733987 0.5062928 0.9188732 0.17324708 -0.38500062 -0.1576123 -0.613106 -0.44401106 0.9144679 -0.77817005 0.6579793 -0.18937506 -0.13645312 -0.45303935 -0.7386651 0.15789533
15 -0.3158151 -1.138665 -0.012686164 0.27486375 -0.5781112 0.4838122 0.33926728 -0.21232438 0.27970955 -0.25252262 -0.39657328 0.21577054 -0.18887132 0.017070197 0.7177506 -0.66677594 -0.46535352 -0.45262456 0.5098712 -1.4711148 -0.9798697 0.19392106 -0.29638514 0.07967504 0.7217072 -0.6516282 0.52459127 1.0241989 -0.052607108 -0.7214113 -1.1405275 0.21679866
157 -1.4307705 -0.16277163 -0.1482628 -0.95863956 -0.40896523 -0.08825166 0.2721066 -0.50203586 0.7149634 -0.6659478 -0.6128802 0.28413838 1.4093788 -0.45466053 -0.17265269 -0.9550654 -0.034721185 0.10812474 0.8277331 0.5663422 -0.97236985 -0.19770238 0.46711046 0.0238997 1.0371077 -1.1820701 -0.5894328 0.2753526 -0.37316343 0.59880805 1.2294455 1.0114202
537 -1.3208032 -2.0808916 -0.055655718 -0.37201893 0.057076607 -0.14215189 0.44738543 -1.8077031 0.47967395 -0.071026005 -0.22504799 0.9630081 -0.4034869 -0.47063842 -0.23702273 -0.24965836 0.35522905 0.44967598 0.54787743 -0.28080022 -0.45499915 0.65895325 0.7183041 -1.2088304 0.68716866 -0.1564302 -0.09180632 0.85228693 0.3402873 -1.2067088 0.69077903 -0.105379514
132 -0.9028487 -1.1188303 -0.658842 1.0947584 1.163738 1.0449754 0.9661264 -0.5377516 -0.3620453 -1.2692826 -0.50509727 -0.5453219 0.34463418 -0.63406545 0.443504 -0.3545485 -0.18445195 0.8150203 -0.00015664224 0.48227534 -0.47739312 0.48853633 -0.36734426 0.63205713 1.5783744 -1.1912493 -0.0056435433 0.93204814 0.23042588 0.59674394 -0.33762282 -0.6903646
118 -0.31757918 -1.0232776 0.38444045 0.42603844 -0.2931028 0.07131487 0.39097458 -0.61575264 1.145613 -0.9252962 -0.04655443 0.56574184 -0.3615057 -0.44915158 -0.28049138 0.36959428 0.52444744 -0.26099458 0.6875428 1.1008415 -0.70844257 -0.18656537 -0.1005399 0.26769435 1.7123816 -0.710699 -0.39216644 0.64870733 0.57624614 -0.8544767 0.29655716 -0.49060476
303 -0.25024357 -1.171007 -0.32590482 0.7161579 0.10011722 0.4478605 0.3676026 -0.4587343 0.941909 -1.2675792 -0.06641543 0.26977855 1.0559794 -1.7194763 -0.32614884 -0.209579 -0.1706213 1.0686357 -0.117330134 0.09621387 -0.74717826 1.1332608 -0.5245959 0.2170228 1.1028569 -0.48126253 0.56262803 -0.66667885 -0.5624449 -0.45210257 -0.7374977 -0.51352036
292 -0.67735016 -2.1229842 0.5742106 0.21624933 0.1165123 0.36883578 -0.11858782 -0.8565483 0.41254294 -0.45515314 0.27694315 0.30634078 -0.15204082 -0.31309965 -0.21098974 0.6524954 0.81651884 -0.18286785 1.2286483 0.3906507 0.15520388 0.038755566 0.6065784 -0.8236104 1.3347164 -0.86843824 -0.62521094 1.3386978 0.081296615 -0.5633879 0.5702192 0.031982362
544 -0.40515137 -0.9883067 0.29132184 0.4393308 -0.27405322 0.092322886 0.38274804 -0.6469334 1.1326989 -0.94510925 -0.061801128 0.6185572 -0.32604918 -0.4514352 -0.18953079 0.39891842 0.46155667 -0.25948077 0.6255307 1.0315964 -0.8106648 -0.22147787 -0.07647594 0.26275724 1.7358375 -0.6178022 -0.5000442 0.6110102 0.50292397 -0.8642423 0.33121118 -0.44416505
305 -0.096454844 -1.0499028 -0.2065 -0.018319147 -0.06790519 0.083927244 -0.04533839 -1.383694 -0.35982642 -0.03516681 -0.13670896 -0.105118245 -0.2505214 -0.5060317 0.7190672 -0.6349857 -1.1259769 0.3863687 0.93455255 0.40084827 -0.40396482 -0.13108583 -0.4536288 -0.5486774 0.9509542 -0.6753417 0.6510411 -0.1929043 -0.17943561 -0.589216 -0.5811174 0.16572131
484 -0.8285458 -1.9795684 0.11780456 -0.1803261 0.18945667 0.15712538 0.30215213 -1.5432286 0.37579966 -0.42085126 -0.11379614 0.79418796 -0.40275854 -0.45334154 -0.48216635 0.24719657 0.6714337 0.35701567 0.48458683 0.020494709 -0.29756197 0.67120785 0.42253157 -0.98883355 0.8342265 -0.61889464 -0.1735636 0.9330281 0.254431 -0.87440556 0.68767554 -0.19826715
344 -0.36400923 -1.1424474 0.48474112 -0.67270464 0.14161432 0.41090864 0.0033317807 -0.8567146 1.022524 0.22442217 -0.5427401 0.7744141 -0.31098062 0.31337294 0.18095788 -0.6406615 0.2710441 0.28496143 0.90903026 -0.53359574 -0.09363066 -0.4297894 -0.23999754 0.6872888 0.8809073 -0.48324588 -0.7137512 -0.23478325 -0.8687689 -0.302236 -0.6694935 0.5639164
612 -1.0206628 -1.8335131 0.3293784 0.05855541 0.30520162 0.30166143 0.32174656 -1.5894809 0.22761245 -0.52266884 -0.21280305 1.075328 -0.49677157 -0.5385288 -0.9823384 0.05397893 1.0358249 1.1107787 0.1528564 -0.250087 -0.32571495 0.5979911 0.22448209 -0.83890074 0.9198977 -0.8807006 -0.27708036 0.855564 0.6666612 -0.47940215 0.44640732 0.2112941
468 -0.4297022 -0.43699706 0.7782494 0.45417768 0.3491467 0.6413619 0.36394092 -0.48160052 0.17318614 0.0676852 0.020791536 -0.082668304 -0.15787753 -0.004829429 1.3131801 -1.7294648 -0.7421109 -0.5731408 0.6531493 -0.1223482 -0.35214627 0.15032746 -0.28037038 0.35842097 1.0520153 -0.7919653 -0.35912445 0.618466 -0.023554657 0.19947115 -0.88591397 0.44417372
338 -0.32851934 -1.0078188 0.79658103 0.4810433 -0.5837736 -0.1356368 0.20750874 -0.6712175 1.649538 -1.0285785 0.09534817 0.299853 -0.30980074 -0.35056576 -0.3633864 0.14487067 0.49511316 -0.41624174 0.9069194 1.0341275 -0.5788875 -0.46357554 -0.08231065 0.13433778 2.1649134 -0.52948666 -0.47516364 0.29245424 0.22721288 -0.9952696 -0.10091977 -0.5488783
173 -0.46311185 -1.0183747 -1.3245877 -0.07947386 1.8542032 0.44169196 -0.06315393 -0.16567567 -0.0064933314 -0.107113585 -1.1212494 0.7875617 -0.32411155 -1.0652039 -0.1191007 -0.89272016 0.7278568 0.4660773 0.07964518 0.6448332 -0.90594393 -0.62954295 -0.2776971 0.0007400636 1.1381345 -1.4662471 0.06294115 -0.096154965 0.966833 -0.52668965 0.47954613 0.18601802
325 0.089670114 -0.94924027 0.74115515 -0.14381936 0.42807657 0.4290749 0.51182115 -0.5608956 -0.5152077 -0.24954654 0.20546064 0.43938032 -0.03746354 -0.540634 0.307606 -1.2614771 0.8032267 0.90969247 1.3245702 -0.34762388 -1.1556093 0.03664433 -0.7148913 0.4996877 0.17557082 -0.26581168 -0.18059093 0.42023307 0.2655642 -0.2686861 -0.38361537 0.41987965
62 -1.0433328 -1.5606041 -0.6072068 0.82266194 -0.21516095 0.97403926 0.6583815 0.124760576 0.7267301 -0.6804273 -0.5074657 0.64779973 0.80132407 -0.06232743 -0.046847913 -0.4996347 0.7762032 -0.32024565 -0.29697952 0.2267686 -1.2073745 -0.28058487 -0.056299213 -1.1496631 1.272535 -0.23597603 -0.79513985 -0.1935345 -0.24448879 0.79189557 -0.9850859 0.66695386
212 0.015976882 -0.66003305 0.25615028 0.17034088 0.5815268 0.32600403 -0.080096714 -0.55958486 0.20870863 -0.6032535 1.1461898 -0.115266174 -0.87254775 0.13560252 0.6353357 -1.3736893 -0.09118334 0.02531953 1.2141405 -0.530139 -0.31729662 -0.22437875 0.058058735 0.38934028 0.3759381 -1.2065904 0.11982804 -0.03816353 -0.5463385 -0.8134244 -0.7331822 -0.045008488
39 -0.7442703 -1.3232734 0.4637963 -0.1650948 1.2271616 0.57572645 0.22692852 -0.19321853 0.8349799 -0.4541571 -0.09696449 -0.23617478 0.55762726 -1.2033535 0.19574288 -0.7887155 -1.0260638 -0.14701767 1.3374937 -0.9715945 -0.36679175 -0.10247831 0.4469429 0.38818923 0.8048176 0.095959075 0.38783923 0.916622 0.6716872 -0.4415913 0.27042663 -0.21214384
142 -0.3777224 -1.0117532 0.33834708 0.43690646 -0.36509502 0.076795064 0.33380073 -0.6663596 1.2086825 -0.93646616 -0.012503979 0.6543869 -0.37274313 -0.46494022 -0.2250709 0.404883 0.52010614 -0.27344912 0.6452811 1.0860574 -0.7647083 -0.21110694 -0.12641351 0.25949442 1.7765378 -0.6775649 -0.46065465 0.6489015 0.54287255 -0.99660057 0.3205015 -0.4827487
205 -0.81894904 -1.049998 -1.1380296 0.7252448 0.01848209 0.18564877 0.12769303 0.24729082 0.5496541 -0.75609046 0.02924484 0.41984716 0.4954612 0.0565652 -0.3675284 -0.7014856 0.81388247 -0.3041307 -0.25085837 0.071127325 -0.86164576 -0.6147548 -0.2768931 -1.0655982 1.5469742 -0.47031322 -0.7209218 -0.25465238 -0.0006002906 0.39129364 -0.8545482 0.7170069
284 -0.16094051 -0.93985695 -0.027657915 0.102036364 0.0702375 0.13733529 -0.05536902 -1.393423 -0.4679597 -0.09904858 -0.30165708 -0.045903966 -0.19950941 -0.51754016 0.7637785 -0.7561295 -1.2317104 0.33456054 0.9988604 0.35299057 -0.14201999 -0.06648609 -0.5736264 -0.4971153 1.0023961 -0.6816969 0.52597237 -0.06857228 -0.17426842 -0.52723444 -0.67984754 0.0647998
567 -0.88405186 -0.95034754 -0.6969706 0.30576852 0.60970706 0.012476533 0.21303804 -0.4759427 0.55219406 -0.32271042 -0.17566799 0.14832315 0.9957232 -0.2304564 1.0430881 -0.42518646 -0.29747748 1.0024983 0.21361841 0.46485525 -0.44573238 -0.6654353 0.18196653 -1.0070838 1.1495872 0.34735444 -0.35635918 0.8256596 -0.7064122 -1.1675935 0.75905895 1.4367374
627 -0.4984926 -1.0120038 0.4790706 -0.72149503 0.022754906 0.36132374 -0.025644345 -1.0608228 1.0003965 0.25919205 -0.4148507 0.71904516 -0.29600972 0.18132034 0.19167106 -0.6631936 0.22001748 0.17212328 0.99264055 -0.60129726 -0.03948938 -0.36246306 -0.06569108 0.66923517 0.931424 -0.5460631 -0.6780116 -0.38984546 -0.96728885 -0.2655505 -0.5973235 0.5023921
57 -0.2479152 -0.8781898 -0.3056954 1.2635835 1.5655046 1.1860205 0.62355506 -0.6178739 -0.16284056 -1.8231355 -0.45656022 -0.34036925 0.6340817 -0.97183794 -0.19524974 -0.6134823 -0.3411076 0.46249217 -0.21323785 0.07020338 -0.98681945 0.9250028 0.009021201 0.32823837 1.4513266 -0.9660661 -0.38569972 0.2601156 0.26004067 -0.021377224 -0.5283088 -0.17912175
106 -0.86736155 -0.9579351 -1.1282936 0.6952229 0.10787509 0.119500436 0.050149072 0.24744971 0.57652783 -0.85651046 -0.047545426 0.19145727 0.51308256 0.030603819 -0.41016284 -0.6029672 0.96147925 -0.2849717 -0.18695836 0.061456725 -0.8640859 -0.5012577 -0.3125992 -1.0231127 1.525585 -0.45185396 -0.7753367 -0.16390702 0.02818062 0.3585002 -0.8604309 0.8332381
558 -0.3163727 -0.99416107 0.3502313 0.4897716 -0.3401742 0.09724912 0.45527163 -0.6191536 1.2303052 -0.9742028 -0.068283156 0.6273914 -0.42205775 -0.45867148 -0.27114743 0.32005697 0.52524185 -0.25287047 0.6921974 1.1254921 -0.78908455 -0.22452383 -0.06327311 0.30960998 1.7814789 -0.75343233 -0.43736827 0.65574765 0.59611773 -0.87279475 0.25926486 -0.56784797
254 -1.1806902 -1.8361701 0.4069545 0.7417409 0.12875238 -0.54617894 0.81315535 0.49356246 -0.18089433 0.07931864 0.8729138 0.59708613 0.5032334 -1.2735448 0.7836459 -0.56615716 -0.096177764 -0.12783971 0.8027543 0.15288545 0.10301466 -0.63387084 -0.19829585 0.6006479 1.2212375 -0.43176615 -0.3190187 -0.07864245 -0.32623067 -1.0625529 -0.16137736 0.5400378
504 -0.09341413 -1.1179788 -0.23387589 0.086844854 -0.24864006 0.040985998 -0.051339976 -1.4015268 -0.5226177 -0.17319131 -0.13668486 0.024380272 -0.41448084 -0.7333051 0.88276434 -0.45358592 -0.8713516 0.3565015 0.8745325 0.31459382 -0.4265118 -0.1903153 -0.4927012 -0.49117637 0.745567 -0.8370839 0.6119136 -0.14418499 -0.07365418 -0.5739811 -0.8700347 0.083667435
154 -0.54558927 -0.97932494 -1.3845261 -0.13981806 1.6862198 0.338467 -0.00457772 -0.45019355 0.17652091 -0.17008153 -1.0924613 0.8305676 -0.28968406 -0.9069097 -0.15829645 -1.0313011 0.45727423 0.3541237 -0.0294988 0.4742663 -0.96954435 -0.54017735 -0.44095007 -0.032423772 1.1658298 -1.3501515 0.19688481 -0.20780183 0.9634346 -0.31143135 0.43416044 -0.026213381
430 -0.43419066 -1.3167248 -0.59451026 0.28453115 -0.27122524 -0.2852694 -0.42105255 -1.5736053 -0.0981244 -0.5075867 -0.50323987 0.67561877 -0.31078094 0.102572024 0.5145281 -0.4145333 -0.9243835 0.062467948 0.43687707 0.50848657 -0.10863049 -0.10665892 -0.59607863 -1.079448 1.7645403 -0.90927297 0.7150215 -0.13235068 -0.49884328 -0.56565297 -1.2183241 0.122134194
76 -0.032393757 -1.0632887 0.0058992193 -0.07604091 -0.16274077 0.24252492 -0.10722267 -1.6008412 -0.5295316 -0.32074493 -0.26759455 0.10205916 -0.26560292 -0.605785 0.81476456 -0.45050883 -0.9268884 0.36156443 0.94649726 0.24995054 -0.27265292 -0.15318052 -0.52252257 -0.43392375 0.8040062 -0.86171985 0.42533046 -0.25195533 -0.26853454 -0.4081366 -0.71103877 0.22777309
420 0.04709816 -1.1678071 -0.0052077165 -0.09358589 -0.13546649 0.084087245 -0.035574187 -1.5254227 -0.48176926 -0.27766404 -0.14130075 -0.06385217 -0.29978958 -0.56306565 0.85423684 -0.7192455 -0.970238 0.4922989 0.9936814 0.21170306 -0.39878353 -0.102800965 -0.5363606 -0.52150494 1.083554 -0.8494671 0.5682411 -0.19185446 -0.13516364 -0.39108053 -0.7668303 0.056690354
290 -0.6196633 -0.40645066 -0.2674097 1.1299086 0.84952515 1.0690823 0.9190189 -0.47086337 -0.089348815 -1.5366881 -0.20166886 -0.4663664 0.029423816 -0.9798197 0.16909468 -0.54028404 -0.17237839 0.66835344 -0.05802432 0.0030866985 -0.73497504 0.8124786 -0.21989128 0.46522972 1.3005766 -1.3052006 -0.23734848 0.1834994 0.1058211 0.3702956 -0.50747526 -0.35603487
592 -0.23660399 -1.1668067 0.1381605 0.25143862 -0.43613222 0.22111489 0.5118112 -0.11623171 0.4807232 -0.43512812 -0.31011263 0.2643711 -0.1586851 -0.25358373 0.43246254 -0.7700192 -0.3281269 -0.2887976 0.36220098 -1.5796021 -0.9633478 0.12933908 -0.3909342 0.36811072 0.82839197 -0.4851339 0.45761022 0.90240306 -0.004085472 -0.6757453 -1.1670977 -0.0011137683
443 -0.31576923 -1.2697923 0.24320593 0.9064649 -0.065579556 0.11456664 0.61196184 -0.9772242 1.1587269 -1.1262127 -0.44631562 0.85078055 -0.7684866 -0.26733834 -0.6329178 -0.12890042 0.26786458 -0.25955936 0.5214937 0.9909871 -0.96566594 -0.11743052 -0.16615124 0.30995044 1.6607715 -0.6701435 -0.15513277 0.41378316 0.89298385 -0.61988795 0.12624379 -1.0887498
35 -0.39664358 -0.51801425 0.2384664 0.898097 0.22633971 0.7063308 0.3911418 0.017358301 -0.35510743 -0.8027153 -0.09455699 0.37188244 0.021735117 -1.0400213 -0.50848603 -1.0604191 0.20747699 1.4028567 0.5231034 0.414242 -0.220126 0.3635209 -0.45053527 0.11424827 1.2862185 -1.1672679 0.05484896 -0.122053325 -1.1770737 -0.46764758 -0.016254641 -0.39394212
231 -0.09621809 -0.29730886 -0.0034461692 0.86415905 0.14151107 0.6904292 0.56737477 -0.589084 0.09633091 -0.72929525 0.00027749204 -0.28105247 -0.02582304 -0.99572325 -0.05667743 -0.7292642 -0.06387357 0.9978348 -0.1186707 -0.2895775 -0.52588314 0.4105646 -0.18044676 0.6778984 1.149258 -0.75050104 0.092475645 -0.29904938 -0.953057 -0.12701444 -0.2531261 -0.07664399
206 -0.18276541 -1.4105359 0.18713683 0.96033126 0.56644374 0.16482039 0.40886983 0.47129038 0.74227715 -1.6274749 -1.1631825 0.66820043 -0.12836991 -0.41993523 0.60276276 -0.5210043 0.98061043 0.90709573 0.525003 0.3421536 0.15023378 -0.9025801 0.8536723 -0.31816077 0.30972132 -1.243022 -0.6286263 0.30087104 -0.03327325 -0.88383055 -0.54195213 1.1939075
221 -0.4331319 -0.90877384 0.44328824 -0.4222583 0.18415944 0.43849957 0.036669347 -0.94443375 1.0743464 0.16256 -0.4848713 0.6694548 -0.23327959 0.10398356 0.13283788 -0.60590714 0.14396991 0.16408587 0.85203 -0.49142534 0.026920326 -0.31920072 -0.12961097 0.7780417 0.8364198 -0.33854252 -0.5658657 -0.41011408 -0.87794393 -0.31114057 -0.5739786 0.41109738
27 -0.7089184 -1.022403 0.41599408 -0.6361186 0.2191898 0.38410747 0.015839515 -0.7799608 0.8429316 0.3082897 -0.6183767 0.7992165 -0.2049199 0.15696017 0.10643708 -0.62119174 0.22908743 0.065281756 0.93917394 -0.5993416 0.022578424 -0.37974164 -0.24626328 0.7111658 0.8994325 -0.543722 -0.8236801 -0.343046 -0.9584115 -0.37958735 -0.4986573 0.5135016
401 -0.30496934 -0.86255264 0.586262 0.37970176 -0.50255245 0.21913795 0.81735504 -0.6712074 1.4407647 -0.9526197 0.027336163 0.4325912 -0.3169694 -0.33622763 -0.24339801 0.17582783 0.62477714 -0.2994577 0.98158467 1.172927 -0.9328688 -0.16409075 -0.061184276 0.6351037 1.8331013 -0.8978356 -0.68203706 0.7806833 0.688136 -0.46470287 0.046755116 -0.50549453
19 -0.095285766 -1.1517025 0.14521813 0.1544025 -0.53410816 0.47347337 0.3788633 -0.20771715 0.39317086 -0.28061038 -0.49341744 0.2071872 -0.24159844 -0.0058605424 0.5150368 -0.6288781 -0.22414868 -0.3030917 0.41569072 -1.5260075 -0.9469867 0.0659025 -0.39005303 0.2376393 0.80916387 -0.48498917 0.45646647 0.73680264 -0.12662178 -0.72324014 -1.102672 0.24448113
363 -0.4883723 -0.9232446 0.27103013 0.1905265 0.1244888 0.045667 0.52742493 -0.4360894 0.8791637 -0.80311537 -0.40512878 0.4368855 -0.14949702 -0.9763403 0.21907966 0.35351235 0.51673615 -0.22059347 0.53263813 1.2898816 -1.4252224 -0.7638001 -0.023308754 0.8400331 2.1050258 -0.012277326 -0.7830241 0.11456716 0.47961 -0.85210305 0.2871774 -0.3076562
482 -0.71524626 -0.27264336 -0.5561177 -0.5190138 -0.5955795 -0.31571367 -0.16072755 -0.26415154 0.5533868 -0.46308327 -0.4641049 -0.15616274 1.1696388 0.028491694 0.13561308 -1.0076909 -0.08063872 0.034002677 0.68041503 0.46143624 -0.7376411 -0.22806452 0.62634516 -0.1446366 1.2591743 -1.1027051 -0.3209441 0.29057553 -0.23590426 0.7444207 0.54705983 0.95291644
601 -1.2049791 -1.6606915 0.41456306 0.5292969 0.21342355 -0.36737257 0.63173854 0.32112235 -0.49383172 0.14919934 0.6013827 0.580304 -0.0030128367 -0.7932096 0.5299735 -0.6966421 -0.5246687 0.05278355 0.7073062 -0.25305194 -0.2967972 -0.40819934 -0.7174124 0.53321576 0.69853026 -0.7835562 -0.17319225 -0.04125575 -0.3291066 -0.8381426 -0.3812453 0.23299573
367 -0.24352069 -1.2378846 -0.26407686 0.8179808 0.23906395 0.4189589 0.38857076 -0.6330037 1.0250742 -1.3507513 -0.07619498 0.31603342 1.0152164 -1.6866612 -0.3620355 -0.36270264 -0.17879537 1.1682861 -0.10860951 0.043240678 -0.84816784 1.1290611 -0.32078838 0.30962896 1.1456913 -0.5672786 0.4555317 -0.5850065 -0.61874217 -0.29181758 -0.82238346 -0.4407665
539 -0.96387786 -1.123488 -0.70300776 1.0742326 1.138263 0.8989699 1.0431633 -0.5122694 -0.34741506 -1.2476277 -0.53025 -0.49647173 0.33519554 -0.6293301 0.41685683 -0.33808377 -0.22275524 0.791202 -0.12942271 0.56050915 -0.31088135 0.4754438 -0.4060899 0.61753 1.556834 -1.2114834 0.019355899 0.86238986 0.15464815 0.57776535 -0.30885333 -0.7843071
309 -0.5232956 -1.0636743 0.538135 0.13026164 1.0670645 0.31686303 -0.36350065 -0.47384614 0.7607825 -0.22033997 -0.11410541 0.16343305 0.36911073 -0.9819053 0.2966965 -0.58305615 -0.95394266 0.16778982 1.2417743 -0.90211374 -0.33289602 -0.10527704 0.56233335 0.32304004 0.46099728 -0.3308203 0.589931 0.36131662 0.04126076 -0.03299996 -0.05461618 -0.3078007
475 -1.2586524 -1.2647036 -1.2756442 -0.15153939 1.6618181 0.55245245 1.0645236 -1.1914781 0.47970545 0.05503814 0.29397714 0.8189184 -0.42614597 -0.5020936 -0.35108894 -0.5090772 -0.7711248 -0.4392049 0.26332402 0.6904303 -0.9423431 -0.49563202 -0.40105566 -0.20757464 0.9506508 -1.413083 0.2650068 -0.19817656 0.37415498 0.4508551 0.68590695 -0.27352855
591 -1.1005176 -1.427805 0.31225672 0.58654153 0.36392683 -0.013551014 0.4905807 0.39149728 -0.27246532 0.098033786 0.6721892 0.6896778 0.22500859 -0.91042435 0.51275915 -0.73143154 -0.59195435 0.10251463 0.63136256 -0.107158214 -0.25169018 -0.3320656 -0.64663917 0.92089725 0.6582573 -0.57609445 -0.13180357 -0.047725324 -0.29412645 -0.55165297 -0.5633924 0.15337218
125 0.09672586 -0.7878824 -0.065212466 0.23125295 0.30174962 0.24332592 0.05053261 -0.5306204 0.26450968 -0.86701566 1.2656244 -0.17999838 -0.60715044 0.08716448 0.5343339 -1.3967491 0.0621056 0.049499653 1.0163189 -0.62693906 -0.2558256 -0.19391814 0.05257064 0.559803 0.4175825 -1.1750247 0.18668385 -0.09799056 -0.7119975 -0.8548314 -0.6492568 -0.017847134
358 -0.52448124 -0.47710982 -0.70634604 -0.70111036 0.13407394 -0.5279841 -0.047646046 -0.4847167 1.3569562 -0.18024176 -0.43095502 0.3031472 0.313065 0.11545047 -0.6731864 -0.84307986 0.5956985 0.81236756 0.25516543 -0.54427755 -1.072768 -0.3909061 -0.20578529 -0.87805533 1.9577426 -0.80060625 0.947014 0.14345525 0.48985186 -0.19070739 0.6507119 -0.11086662
282 -0.38371047 -0.5910301 -0.4295815 0.78796005 0.49657753 0.09022471 0.32164517 -0.7509682 0.55488306 -1.1568058 -0.17793162 0.30004367 -0.015293212 -1.1217637 -0.33963495 -1.3020579 0.10734457 1.0107843 -0.11688468 -0.58634245 -0.0916273 0.18774399 0.81936157 0.8191134 0.9232231 -0.57705945 -0.034351192 0.28718248 -1.2159041 -0.19430447 0.23826794 -0.24040508
533 -1.5306723 -0.25127402 -0.107272446 -0.8549891 -0.46266323 -0.16320722 0.12660496 -0.5929506 0.6518985 -0.61052716 -0.5683292 0.2169467 1.4337965 -0.53084904 -0.03252582 -0.9030099 -0.02302049 0.049619872 0.79457134 0.55827874 -0.90487397 -0.17308818 0.58028924 0.025113946 1.10917 -1.0026126 -0.68069357 0.29249313 -0.27036566 0.5900682 1.1639473 1.0225728
566 -1.2948692 -1.2137921 -0.73079956 0.16797507 0.6780796 -0.22005522 0.49270442 -0.35250565 0.8043821 -0.61927754 -0.3187038 0.48416945 0.46388212 -0.3993626 1.5332317 -0.5232405 -1.0192465 0.8027619 0.101446636 0.14493768 -0.52818084 -0.38653314 0.2109599 -1.0914438 0.9469791 0.27690247 -0.20908254 0.6029756 -0.5871831 -1.117169 0.71823806 1.6101431
141 -0.4934248 -0.77017576 0.44681317 0.6019086 0.2634848 0.5403543 0.16572452 -0.9602565 0.14970386 -0.13193047 0.73198044 0.47368178 0.53739506 0.1826292 0.48611066 -0.02298279 -0.24888308 0.05238813 0.34270707 -0.24356197 -1.6812527 0.23628889 0.027583692 0.18199149 0.1795065 -1.6035845 -0.051130332 -0.2670683 0.3502461 -0.427917 -0.3615481 0.77685803
135 -0.9414479 -0.6345628 -0.7220114 -0.21460524 -0.19413334 -0.17704192 -0.20219249 -0.6092319 0.7525951 -0.42936507 -0.7707497 -0.079062775 0.68088144 0.12245488 0.6417823 -0.48316586 -0.33277875 0.06823456 0.64187473 0.9303048 -0.4909811 -0.12853935 1.3963702 0.4393954 1.705141 -1.7461072 -0.45513952 0.14859669 0.115493506 0.8044301 0.4935554 0.68656355
123 -1.3493563 -0.8970071 -0.76180613 -0.6552129 0.7919425 0.35187477 0.77124727 -0.33705482 1.3496081 -1.2364217 -0.59945893 0.37995288 -0.2838839 -0.4162689 -0.2047731 -0.67580473 -0.7922603 1.0069972 0.5059708 0.27360895 -1.2359899 -0.92178905 -0.58875614 -0.83000606 0.111576974 -1.0849321 0.8422617 0.31818238 0.545575 -0.18437602 0.92043227 0.8997357
368 -0.30408353 -1.2586751 0.26240942 0.91141653 -0.047024522 0.12025912 0.66710794 -0.93968004 1.1371781 -1.1175884 -0.47345853 0.7748339 -0.72969323 -0.27879578 -0.5777033 -0.1348177 0.22010909 -0.23629826 0.53288555 0.99206716 -1.0168008 -0.1929506 -0.1839479 0.34568214 1.7187686 -0.6850181 -0.19314912 0.45616263 0.94904995 -0.5464893 0.11757937 -1.0431743
381 -0.23916568 -0.32467753 -0.64919883 -0.2498823 0.6084871 0.59019935 -0.1728639 -0.569188 0.12695527 -0.064272046 0.6630225 -0.055861145 -0.012317667 -1.012106 0.3532357 -1.1026316 -0.8355853 -0.064079575 1.2464128 -0.8112785 -0.6311136 0.6241023 -0.22264796 0.46842876 0.6563102 -0.7753647 -0.28276005 0.14634064 -0.5337611 -0.8383958 -0.23049828 1.1978158
165 -0.53023577 -0.90463716 -1.3909497 -0.095246464 1.825496 0.34981546 -0.029333616 -0.43740898 0.16706641 -0.09605181 -0.904514 0.88865006 -0.32348135 -0.994131 -0.07830459 -0.9334252 0.31529236 0.1556422 -0.060988385 0.37962002 -0.9061267 -0.66750693 -0.48809537 -0.040461574 1.182725 -1.4751431 0.05200506 -0.099098 0.9692921 -0.30062136 0.46576795 -0.07524092
306 -0.40701813 -0.98248863 0.33273992 -0.5006849 0.25234786 0.45003796 0.07310906 -1.0365634 0.94498694 0.36147308 -0.42428347 0.79171497 -0.3126162 0.14118657 0.09368123 -0.57555604 0.23800302 0.340072 0.83820283 -0.48831415 -0.17403845 -0.44861907 -0.26534554 0.76596916 0.9693849 -0.35178232 -0.62843955 -0.39639968 -0.73254204 -0.14562595 -0.6502 0.5336386
565 -0.498867 -0.9702655 0.54558814 -0.5381579 0.0739981 0.5203342 -0.093093574 -1.0401559 1.0306845 0.3551813 -0.42392832 0.59872913 -0.45161727 0.24218881 0.24146749 -0.53104 0.15995471 0.30881652 0.9212926 -0.47079968 -0.1956982 -0.21862173 -0.19654748 0.62545526 0.9685872 -0.6204857 -0.6048802 -0.36779857 -1.028891 -0.29967406 -0.5704547 0.43545404
271 -0.416481 -1.19888 -1.055204 0.92431134 0.3595131 -0.28964487 -0.14241193 -0.31565395 1.0807333 -0.20130378 -0.18850155 0.10119175 1.2486749 -0.0320051 -0.69308025 -0.9647561 0.5998845 -0.64257205 0.5296622 -0.3483051 -0.16959482 -0.4157187 -0.17729054 -1.2212251 1.2349342 -0.8974419 -0.8239922 0.75310534 -0.427859 0.48726165 0.32199672 -0.02963383
339 -0.18039873 -0.29128087 -0.056017775 0.9142613 0.15116191 0.8231651 0.38686773 -0.36215588 0.22733767 -0.8593607 -0.0053081852 -0.22964111 -0.14442898 -0.95008874 -0.048872735 -0.86696434 0.034719665 1.0295563 0.021370677 -0.34478143 -0.51838636 0.582936 -0.1057479 0.6261142 1.1811594 -0.6299978 0.15107206 0.11416154 -0.98129606 -0.130327 -0.35858852 -0.07860841
230 -0.4724185 -1.0159862 0.54436874 -0.6734095 0.1958031 0.29800788 -0.1413764 -0.952859 1.0252459 0.24868713 -0.36591285 0.5981592 -0.28925803 -0.050119318 0.10313611 -0.70215327 0.204564 0.33161294 1.0765151 -0.76581955 -0.025194846 -0.4672016 -0.060524464 0.78612477 0.7838322 -0.5639591 -0.62315553 -0.3934793 -0.84966946 -0.24824984 -0.4956372 0.37952214
