697 32
89 0.47648853 -0.79805 -0.16251455 -0.82446027 -0.24224322 0.67422897 0.2444749 -0.9941595 0.15890233 0.27955276 0.6486964 -0.11920853 -0.34109002 -1.0550767 0.2786963 -1.0513403 -0.023542516 0.118979834 0.70246774 -0.3294921 -0.025825236 0.5205227 -0.5457081 -1.2276653 -0.60546356 0.1501735 0.34501475 0.08160838 -0.98785275 0.5556017 0.15777883 -0.5151692
564 -0.3250185 -0.5893384 0.1688343 -1.2132854 -0.36203706 0.17049684 -0.44676235 0.566582 -0.46862146 0.450841 0.71652627 -0.5926756 0.10019102 -0.59152997 0.15910782 -0.09657778 -0.7959225 -1.0464566 0.5843522 0.16803783 -0.8268794 -0.31393343 -0.5940914 -0.6361763 -0.18689933 -0.713164 0.40762514 1.017678 0.022195928 0.9085923 0.10945132 -0.7594498
447 0.88035744 -1.1658862 0.08664802 -0.37911975 -0.35372755 0.04076754 0.057274133 0.080146395 -0.13337949 0.5729781 0.26876977 -0.5405963 0.029113524 -0.23114096 0.30180287 -0.33820018 -0.34976533 -0.39279014 0.45035827 0.18736193 -0.06945726 0.11468923 -0.38993526 -0.8166598 -0.16605388 0.076544024 -0.24047947 0.04711092 -0.20504427 0.087230295 0.3749794 -0.61386275
377 0.2937574 -1.6282293 -0.6887304 -0.5311531 -0.5236504 0.07213571 0.5473091 0.39969927 -0.28889754 -0.31136245 -0.388361 -0.979509 -0.83960336 -0.2715763 0.19562751 0.52499396 -0.64176744 -0.5460101 0.37130544 0.64872104 -0.34035623 0.44151282 -0.24733202 -0.49401715 0.24837224 -0.13245416 0.6707528 -0.60599065 -1.0887868 0.80114084 0.07552278 -0.30954653
603 0.87063605 -1.4065847 -0.6231885 -0.28316203 -0.0109243095 -0.52989763 -0.7974246 -0.17755927 0.058507312 0.6943116 0.18304335 -0.0164787 0.30400103 -1.297741 -0.8342377 0.25363275 -0.56654 -0.77995425 0.19506459 0.054272458 0.06612671 1.4645795 -0.19020855 -0.6994711 0.10892082 -0.8174146 -0.2466345 0.31723285 -0.7343202 0.4129067 -0.085793115 -0.6448527
502 0.47717288 -1.8899555 0.047075983 -0.12711369 -0.007938977 0.13364941 0.36809763 0.87639946 -0.13179736 0.95059216 0.07063887 -1.1388927 -0.63587165 -1.0058491 -0.72123605 0.24884972 0.30501997 0.21475536 1.0063673 -0.49100357 -0.57243705 -0.08667752 -0.14420924 -0.72949106 -0.3774312 0.07440632 0.40749058 0.6353622 0.18822177 0.14204666 -0.29088286 -0.90235543
661 0.73652244 -0.633247 -0.46468794 -0.769484 -0.660703 -0.72678936 -0.10885949 -0.00683368 -0.033449616 0.3877067 0.28289077 -0.7607366 0.76149076 -0.8687216 0.41858286 0.4723112 0.083989695 0.5630736 0.5604849 0.19399107 0.88424027 -0.2705872 -0.063842654 -1.0065109 -0.01579348 0.02158396 0.102423176 0.36811966 0.07377131 0.55011296 -0.5354334 -0.60132545
507 -0.04587885 -1.2111613 0.36243573 -0.3932465 -0.22476108 0.89164734 0.07855265 0.18913099 -0.3629859 0.114540786 0.21907543 0.0651395 0.15456407 -0.5219499 0.88682526 1.2427087 0.06019991 0.39501902 -0.9694444 -0.6654637 0.5534425 0.096484475 -0.19108027 0.01004248 -0.92685735 -0.18826166 0.057758518 1.2923976 -1.1705865 1.3238899 -0.06535405 -0.3114103
331 -0.16254696 -1.192143 0.36584228 -0.73261744 -0.36724526 0.23428448 1.2705855 0.48930115 0.14345822 -0.12431672 0.58385205 -0.18310808 0.39819703 -0.9268534 -0.13075703 0.54643726 -0.70132875 0.6908749 -0.66398436 -0.9336695 -0.5128565 -0.112176396 -0.030590944 -0.5568053 -0.7559667 -0.35145336 -0.30738953 1.1215215 -1.1494772 1.1176859 -0.6204886 0.74553615
569 -0.8203014 -1.0575908 1.18097 -0.3789769 -0.59244376 -0.58161205 0.30084908 -1.2474949 0.12582095 -0.67824644 -0.6061566 0.010324386 -1.0050929 -1.4159057 -0.5075535 0.2985628 -0.4148802 0.30918384 -0.2512272 -0.05937634 0.36640966 0.101808846 -0.30996895 -0.528138 -0.05645353 -0.28388044 1.5887504 1.244239 -0.0485638 0.6679316 -0.3343055 -0.50794375
199 -0.09023658 -1.2340238 0.20203187 -0.48498842 -0.17942594 -0.28439492 0.7886634 0.5561404 -0.39807814 -0.2963128 -0.20909151 0.56801414 -0.109354526 -1.1381947 -0.25471112 1.4270259 -0.38044778 -0.16907054 -0.50091124 -0.2906656 0.068600364 -0.18363391 0.08777791 -0.69213146 -0.86335903 -0.73347133 -0.27919036 1.7702948 -1.5869856 0.5008763 0.67710316 0.22613129
197 0.022759063 -1.1509509 0.31985232 -0.56646407 -1.514171 -0.20664202 -0.24735601 0.23422359 0.17793162 0.65163594 0.7081021 -0.7193295 -0.70084006 -0.70498556 -0.17495751 0.20127302 -0.74610084 -0.27408317 0.7016341 0.25826988 0.094693564 0.8688952 -0.41612187 -1.0480496 0.26955593 0.19703923 -0.44886434 0.50721484 -0.11312422 0.40506658 0.17144066 0.52006745
64 0.15594645 -0.8647174 -0.094616756 -0.18681906 -0.92916405 0.28591523 0.988656 0.6620196 -0.5503388 0.5739077 0.10761025 -0.72817695 -0.02583702 -0.82414985 0.35131502 -0.33075264 -1.2486174 -0.7623961 0.4574807 -0.39749405 0.31163138 0.9893326 -0.34305072 -0.9360903 -0.04526504 0.059197117 0.5786334 0.42075452 0.1785172 0.13335297 -0.00032201025 -1.1590159
454 0.10615171 -0.86158323 0.5030635 -0.063010186 -0.17325592 -0.047616147 0.35926732 0.15187119 0.39732134 0.32525954 0.4060241 -0.82559675 0.17993075 -0.8586527 -0.01703259 0.6576155 -0.13828138 0.05951279 0.41594812 0.34018934 0.06989004 0.35855508 -1.6431451 -1.0575677 0.08004781 -0.17062579 -0.092199184 -0.38574255 -0.41921812 0.8510161 0.71260446 -0.93336564
229 0.8761361 -1.4048811 -0.26059005 -0.63445157 -0.5881321 0.33243802 -0.58726704 0.20865774 -0.21451081 0.2929316 0.054262962 -0.9597128 -0.030872393 -0.09293298 0.07296424 -0.3936274 -0.75295264 0.5931848 -0.6228495 0.13927506 -0.4447188 0.22491148 -0.9839418 -0.9038649 0.5974923 -0.030526228 0.625002 0.62396866 -0.14305343 0.638844 0.8513199 -0.9678325
438 0.0025485628 -1.6993959 0.5663341 0.06537897 -0.08550731 1.0619874 -0.25311702 0.18021955 0.35421285 0.083320916 0.2861305 -0.8976727 0.64164054 -0.6082162 0.34632996 0.8460437 0.22766861 -0.021744745 -0.63152456 0.024146194 0.63102275 0.026781335 0.049380623 0.24868827 -0.93636024 -0.42734033 0.510931 1.1948017 -1.5746 1.8577294 -0.20031326 -0.39013812
589 -0.3126618 -0.52984756 -0.078587465 -2.2462234 -0.41614604 0.5863711 1.5203098 -0.48929402 -0.1512537 0.42671964 -1.1034324 -0.3025566 -0.10179967 -0.04017395 -0.13517907 0.72455716 0.32814562 0.662703 0.45545584 -0.25953075 0.016521825 0.5162531 -0.28285542 -0.19542468 -0.23973925 -1.1633899 0.0056790626 1.4337399 -0.30537173 1.0353527 0.34064087 -0.43415594
162 -0.10476463 -0.9979355 0.2833432 -0.46856585 -0.20689039 0.71741885 0.7586051 0.26599154 0.00016722754 0.34247392 -0.13297036 0.21617776 0.25970584 -0.54746807 0.15187529 0.8830043 -0.37680402 0.1925801 -0.6851631 -0.47413886 0.12712194 -0.08915451 0.14077644 -0.1445333 -0.3164831 -0.43337455 -0.30755556 1.4500023 -1.0522951 0.5223283 0.026878104 0.35149956
13 0.16370733 -0.72118676 0.17260174 -1.2080574 -0.16327244 -0.218193 -0.12768607 -0.69521177 0.13599238 -0.22304572 -0.88693416 -0.5182014 -0.44067612 -1.4955404 -0.060287222 0.16399333 -0.8133035 -0.03648214 -0.888242 -0.35312223 0.8556362 0.6345568 -0.750043 -0.4787676 -1.3184729 0.06836186 1.1631694 1.0696539 0.60063237 0.64021057 -0.20779665 0.58563375
470 -0.77867484 -1.8207697 -0.6767618 -0.8388838 -0.4264612 1.326307 0.2719925 -0.9871492 0.17534482 0.18446034 -0.4609552 0.8365895 0.035858065 -1.1692427 -0.43710923 0.74521446 -1.1230123 0.56125534 0.1429533 0.58729744 -0.4230104 0.301999 -0.5226314 -0.019220429 -0.45792824 -0.78287905 0.36776766 0.4285275 0.6944169 0.8038518 -0.009823512 0.23601866
307 -0.37545496 -1.5079663 -0.044379108 -0.5515555 0.023061845 0.3421676 0.63693523 -0.83600634 -0.005930309 0.3542488 -0.5491469 0.35073382 0.3698755 -0.46245256 0.2139247 0.5606869 -0.6680251 -0.077985145 -0.4627402 -0.23419163 -0.317609 0.39252436 0.16512103 0.30137616 -0.5780826 -0.121980675 0.32018438 0.70610964 0.44554472 0.44075236 0.3308058 0.21131153
545 0.023545519 -1.1607351 -0.4690294 -0.40883437 0.02325319 0.009094564 0.044813436 -0.023143377 -0.18440557 0.88714516 0.6426122 -0.34558487 -0.5624347 0.10555552 -0.20362778 0.71267354 -0.7890356 -0.3050807 0.37004775 0.6872321 0.30947453 0.3399557 -1.2223257 -1.4019904 -0.06449797 0.11786642 0.3647884 0.65021133 -0.6086612 -0.46723518 0.057686847 -0.74092066
686 0.17339267 -0.9795174 -0.8326344 -1.5913669 -0.1645575 -0.8542021 0.43568972 0.11763544 0.04692279 0.6455895 0.9685848 -0.45171466 0.053337194 -1.3654389 0.29380304 0.5363087 -0.32460785 0.67867076 0.7293691 0.30078202 1.0610183 -0.5481843 0.36335042 -0.9011874 -0.15138327 -0.270824 0.2498372 0.92725646 0.57665426 0.9313184 -0.42523563 0.23538509
27 -0.24624231 -1.1403308 -0.03002343 -1.5654533 -0.3496013 0.52314115 0.96579826 -0.08986329 -0.18131803 0.55930567 -0.8451713 0.35752854 0.2874745 0.4529359 -0.19426973 0.32107478 0.10341761 0.02190516 0.26897806 -0.842527 0.42014804 0.5981154 -0.23461947 -0.16362071 -0.42234784 -0.6403602 -0.05252399 1.0807465 -0.07865925 0.74669003 0.470008 -0.17731866
65 -0.4229723 -1.5865818 -0.23630522 -1.3402433 0.28353146 0.24366973 0.11045194 -0.8959472 -0.41124636 -0.62449926 -0.45108312 -0.18410495 0.6382411 -0.33618388 -0.7987502 0.85947216 -0.29201585 0.14529522 0.61319137 -0.22207917 0.18199877 0.090432465 0.022165352 0.290199 0.16034922 0.7994699 -0.29207277 1.4387012 -0.81252784 1.3488709 0.8597088 0.10317025
556 -0.89125574 -1.4698153 1.5346371 -0.64550906 -0.3151784 -0.39125034 0.3173943 -0.86090696 0.08662387 -0.8548593 -0.30007774 0.11697567 -0.99396515 -1.756127 0.15569715 0.5639534 -0.26598263 -0.17264533 0.44654155 0.7977506 0.4852271 0.051093172 -0.39379406 -0.40599704 0.3726615 -0.20461243 1.3964012 1.4500266 -0.28650755 0.35054013 -0.4914421 -0.33089536
178 0.48912948 -0.81711984 -0.47218448 -0.7077166 -0.8398982 -1.6090586 0.27227244 0.043639094 0.14674552 0.3731658 0.29763854 -0.662691 0.78877586 -0.8588942 -0.13740334 0.24882746 -0.25643054 0.88632464 0.58965605 0.5309182 0.21742158 0.14665969 0.63895136 -0.93274903 -0.32908204 0.26693577 0.73161846 0.8352868 0.062535726 1.4706542 -0.06573285 -0.5917495
145 -0.46248865 -1.3273572 0.61118966 -0.9096482 -0.10373286 -0.042457405 -0.01669568 -0.85841686 0.1362426 -0.18603018 -0.8227071 -0.16576786 -0.74214876 -1.4195817 -0.2132085 0.2678234 -0.6969498 0.10397241 -0.634301 -0.5175534 0.3645272 0.799268 0.032296292 -0.08250184 -0.7614727 0.06190763 1.2622957 0.8939933 0.75027245 0.49480084 0.06443175 0.4098167
500 -0.28996852 -1.3297223 -0.2387021 -0.4503162 0.15014316 0.012944348 -0.7091326 -0.8682457 -0.46964255 0.0897508 -0.59649634 0.35474765 0.36562648 -0.35729468 -0.4192252 0.4776978 -0.22919708 0.20521942 1.1444362 -0.63967735 -0.040897585 0.26046997 -1.8554962 -0.28797117 0.2832746 0.27642316 0.8656676 1.7152549 -0.6517338 1.6577314 -1.1994085 0.31148833
529 0.29359728 -0.9718728 0.24257807 -0.8653734 -0.5953356 -0.202324 -0.09752804 -0.106173724 0.05543182 0.45207036 0.12552826 -1.541696 -0.1406436 0.27740496 -0.15671994 -0.46268013 -0.12780203 -0.7941323 0.3738084 -0.27653912 -0.0151119055 0.5060986 -0.34004533 -1.2664653 0.27584603 -0.50680435 0.117977194 0.4740907 -0.779376 0.07391119 -0.64099425 -0.81270665
196 -0.19940102 -1.2037668 -0.16957921 -0.46098897 -0.21295865 -0.094272174 -0.06294584 -0.8001625 -0.37614524 0.069209136 -0.36345974 0.48008746 0.32123327 -0.45394766 -0.47517315 0.301051 -0.38770643 -0.20931284 0.7383881 -0.79786825 0.61532485 -0.018682431 -1.7991744 0.07037304 0.612845 0.1841641 0.51699984 1.6143407 -1.1601697 1.4774355 -0.4789106 0.58154434
383 -0.55088735 -1.64435 -0.079239056 -0.5024063 0.13164586 0.07826506 1.3917671 0.63153285 0.7183013 -0.71893775 0.80712426 -0.008065634 0.27709138 -1.0299448 -0.14286382 0.6893628 -0.9458993 0.9297081 -0.17044319 -1.2594963 -0.24411163 -0.3896437 -0.4991513 -0.5496412 -0.7377052 -0.43107995 0.47844926 1.1689931 -0.8085291 0.64296633 -1.1066433 0.32780197
546 0.030767001 -1.9566342 -0.0818356 -0.40675056 -0.00089453725 -0.25599566 -0.36247718 0.09757783 -0.76541376 0.16494946 0.1312632 -0.4315716 -0.43440923 -0.55228746 0.69624376 -0.60839474 -0.71564746 0.26132137 0.48888192 -0.11599124 0.22275564 0.124739766 -0.6536122 -0.7405336 0.21600151 -0.12688695 -0.8139046 0.2723886 -0.236778 -0.0825447 0.019586448 -0.39768755
166 -0.36738175 -1.7435507 -0.6120072 -1.1915516 -1.0429753 -0.27883196 0.2179387 0.22886032 -0.22875097 -0.84022975 -0.31381643 -0.90328795 -0.2453309 -0.18715067 1.1555035 0.5456307 -0.6898333 -0.9943262 0.27298826 -0.10669556 0.19968048 0.27322635 -0.022716066 -0.76535976 -0.4319696 -0.4126282 0.48949504 -0.74608964 -1.0978134 1.1925322 0.043439142 0.06082418
115 1.079685 -0.6857168 0.74518204 -0.84332854 0.36370012 0.009649772 0.04944971 -0.0852553 -0.3763739 0.48936346 -0.021667548 -0.7528543 -0.20657857 -0.5106735 0.32968563 0.50233084 -0.75905836 0.106270924 0.15010239 0.46100792 -0.5489811 0.97616017 -0.08269649 -1.5437484 0.14938852 0.4301118 -0.059174698 0.26505396 -0.29842862 0.44603705 -0.16501041 -0.65760016
246 -0.7376231 -1.9215776 -0.38330412 -0.41880065 -0.022721922 -0.51491374 0.52347904 -1.2984762 0.18234894 0.62892807 -0.013524689 0.089621544 0.77777547 -0.39334115 0.19715455 1.0733137 -1.0621904 0.32226846 0.30459893 -0.88114107 -0.492047 0.87554157 -0.22673555 -0.09379526 -1.0908115 -0.65264714 1.0373118 0.15239038 0.07174627 0.9602112 0.5597239 0.524893
154 -0.290268 -1.1183656 0.24751623 -0.87385356 0.022360768 0.5873337 0.5857589 -0.15747286 -0.205242 0.5433692 -0.34161195 0.15646015 0.3944717 0.34201863 -0.16248848 0.60437894 -0.52816504 -0.022063568 -0.09502255 -0.6900488 -0.054933656 0.22096908 0.18880059 -0.09048109 -0.009447815 0.10485378 -0.3681166 0.69214636 -0.090277106 0.4506697 0.45177686 0.285409
69 0.17658624 -1.2199552 -0.39589772 0.113467574 -0.52132523 -0.5181903 -0.37964222 0.08130827 -0.63678455 0.7072056 0.19232853 -0.7772359 -0.35965887 -0.26034057 0.029730532 0.027026914 -0.20599774 -0.22312218 0.14362508 -0.46543992 -0.11326688 0.10438561 -0.061143287 -1.9744133 -0.85890585 -0.4068425 -0.31546584 0.07656782 -0.42957494 0.82446146 0.4945357 -0.51860493
613 -0.33678225 -1.6595322 1.5490079 -0.28090972 -1.1053089 -0.22747761 0.5269851 -0.9336787 0.36908406 -0.7270158 -0.5147157 0.17589398 -0.9513934 -0.9066697 -0.62349075 -0.19153146 -0.47496283 0.4079024 0.062171023 -0.069803625 0.8944619 0.36461374 -0.009022523 -0.30592433 -0.0982591 -1.0285199 1.4052773 1.0450554 -0.23632929 0.7142997 -0.45861498 -0.8026003
264 0.41947752 -0.8996946 0.25944138 -1.1866486 0.047107533 0.8018303 0.39590627 0.553592 0.07808861 -0.33867705 -0.24337739 0.07034933 0.110840775 -1.1548728 0.56451917 1.0895189 -0.82276064 0.008852823 -0.1957206 -1.0030042 0.4692148 0.12689054 0.19825515 -0.019745952 -0.029809175 -0.73678243 -0.5214025 1.4336914 -1.1700755 0.7804941 -0.014778464 0.58984613
218 0.31148142 -1.5284649 0.118009135 -1.0654746 -0.60180604 -0.2585859 0.1505036 -0.8933114 0.12881178 0.57762426 -0.5274325 -0.31079435 -0.07133508 -0.4789349 -0.6591575 0.39379784 -0.46257693 -0.35514042 0.48916796 -1.1995369 0.9209258 0.05794534 -0.80690086 1.0166761 0.59264946 0.6106121 0.4563149 1.2907786 -1.1006405 1.3640962 -0.33441746 0.42345557
505 -0.7592058 -1.568468 -1.328074 -0.7534375 0.38094905 1.3312788 -0.11849965 -0.73764503 0.23557383 0.07015547 -0.54694 0.044789407 0.34583178 -1.8479209 -0.8497972 1.0357685 -0.6302279 0.8097299 -0.0477488 0.5927086 -0.16077136 -0.7277716 -1.1340436 -0.10337649 -1.0689846 -0.99661875 0.47406697 0.5826784 0.15593955 0.7569596 -0.005574774 -0.512325
10 0.6465289 -0.73945487 -0.82076144 -1.1677504 -1.3894924 -0.16592817 0.1967334 0.0736654 0.5952213 -0.3811947 0.9557002 0.04565065 0.41739437 -0.8985882 0.057545967 0.5741336 -0.5811665 0.4316286 0.13906856 0.23314288 1.528415 -0.2504667 -0.17131026 -0.6655692 0.4140539 0.055275 0.8763572 1.0101528 -0.085745834 1.2772009 -1.2928115 -0.94616425
609 -0.008635842 -1.6007237 -0.9689206 -0.69131726 -0.044730857 0.19833058 0.5065762 -0.8735278 0.8453238 0.29217884 -1.0293931 0.4490769 -0.051096253 -0.6794538 0.5119729 0.5349811 -0.20103939 -0.41876143 -0.59695375 -0.8283874 -0.93874395 0.029130029 0.08851732 -0.11171393 0.37369987 -0.62283456 0.9313235 1.0247207 0.28537583 2.0358174 0.40968502 -0.16629285
580 0.07743185 -1.8888409 0.2525997 -0.66311526 0.009202452 -0.78144956 -0.37785527 0.39434066 -0.7548638 -0.024880206 0.11053792 -0.9170169 -0.76588273 -1.0847219 0.85197186 -0.722317 -0.5501334 0.5723021 0.6094349 -0.49410206 0.13793209 0.07030673 -0.72319335 -0.4697615 0.1962549 -0.017801335 -0.7154026 0.570117 -0.48079863 0.26702908 -0.17067815 -0.5936243
344 -0.46811894 -1.4397749 0.5255955 -1.1881766 0.09923631 0.12486921 0.33109817 -0.9855063 0.058583155 0.054355096 -1.015294 0.4952791 -0.13874783 -1.083575 -0.17690194 0.39110878 -0.832532 -0.22555555 -0.6217216 -0.13787508 -0.019407226 0.7584738 -0.02793948 -0.08305374 -0.6108739 -0.37781242 0.5325588 0.84501386 0.65245706 0.27010205 0.114121094 0.650563
222 -0.4480191 -2.05473 -0.099201456 -0.59964603 0.36318734 0.5308137 0.8552646 -0.6303878 -0.52880746 0.392079 -0.6356911 0.10134876 0.8923343 -0.9086862 0.1922782 0.5085039 -0.031645358 0.019642245 -0.4455395 -0.06329724 -0.8611493 0.84548897 0.1956499 -0.048723005 -0.039521534 -0.09139038 0.9456071 0.8088595 0.32910398 0.4895662 0.011281387 0.58450574
3 0.12217282 -1.0679889 -0.8534285 -0.8276363 -0.07379188 -0.7070858 -0.098247044 0.022616535 -0.25529933 0.14289935 -0.23020554 -0.747219 0.32528365 -1.2315875 0.30771443 0.7191204 0.8211089 0.24492729 0.26925522 0.62740177 1.0857614 0.007865185 0.053228952 -0.79222065 0.0792932 -0.35069758 0.7049074 0.22174893 0.16388044 1.020933 -0.80454654 -1.1556051
230 -0.31870145 -1.3039156 -0.08547384 -0.67999345 -0.3138243 -0.006375259 0.4285917 -0.6750773 -0.14591162 0.37274697 -0.8248835 0.10330898 0.4864234 -0.2803501 -0.5066026 0.5222419 -0.31193098 -0.14103687 0.84497267 -0.6681015 0.6448113 0.19629838 -0.95840985 0.5892663 0.22325379 0.5971245 0.0945669 1.0350173 -1.01271 1.0593632 -0.123165645 0.58441067
122 0.534503 -1.2149872 0.42531434 -0.75643253 -0.90033984 0.048275266 -0.33725223 -0.2687801 -0.77373546 1.1825008 0.30943474 -0.89356273 -0.059018224 -0.5425762 -0.46767417 0.09245107 -0.61227065 0.05033816 0.4637753 0.07299045 0.2948623 -0.32861447 -0.4185808 -0.5215181 -0.70428604 -0.30583102 0.004889621 -0.28434902 -0.6706073 -0.24937938 0.03805845 -0.8680506
40 -0.60030407 -1.0627649 -0.44790533 -0.5592447 -0.7693162 -1.0757651 -0.62306565 -0.9676898 0.14025545 -0.0069365515 -0.013636352 -0.9655797 1.309461 -1.2363696 -0.5549154 0.56246746 -0.6472709 0.46727693 0.05044019 0.29948935 1.4086947 -0.59249353 0.17303748 -0.99539006 -0.20674703 -0.581958 -0.37207323 0.9188545 0.022317853 1.150137 -0.9163551 -0.54002935
116 -0.3506822 -1.4102939 -0.24266739 -0.17831519 -0.2640721 0.09119919 0.3148294 -0.925125 -0.05282279 -0.3512532 -0.34930983 0.4966711 -0.0019453669 -0.12091357 -0.46670026 0.31494313 -0.35325077 -0.16884755 0.5781989 -0.8564509 0.730034 0.5631509 -1.9109547 -0.1634464 0.64597815 -0.38883024 0.4180161 1.6224226 -1.5208372 1.8737575 -0.6192333 0.5139068
82 0.72588366 -1.2583879 0.25247902 -0.98141783 -1.2164533 -0.14969039 -0.29662633 -0.31886998 -0.8385277 1.2295142 -0.10410335 -0.83917326 -0.035396274 -0.90708417 -0.5949786 0.1920545 -0.7716653 0.37648985 0.20500751 0.20428279 0.0673381 -0.525261 -0.2662202 -0.52805936 -0.8940559 -0.5397844 0.4299107 -0.17423187 -0.9587218 -0.6313086 -0.13298075 -0.74852896
60 0.7284925 -1.381751 -0.8814054 -0.31789768 -0.153967 -0.036927253 0.72772205 -0.5104178 0.8218976 0.08158731 -1.0933629 -0.12370172 -0.3081669 -0.9468111 0.43090075 0.6772764 -0.26534516 -0.53136575 -0.81626797 -1.432019 -1.0430099 0.02734398 0.006038169 -0.09677993 0.16705397 -0.67466486 1.0810273 1.1190773 0.23770624 2.2159412 0.4010691 -0.28821015
254 0.2006756 -1.4381657 0.08298057 -0.8990188 -0.53262335 0.26826528 -0.35386318 0.1613154 0.1784131 0.40919888 0.97476315 -0.405306 0.46933544 -0.49118716 0.4727864 0.5839449 -0.3573759 0.121367395 0.4606096 -0.2929165 -0.67656636 0.30491188 -0.36875972 -1.2671773 0.36916593 -0.19264132 -0.2526245 0.10404157 -0.1827881 -0.55336046 0.239875 -0.42339432
330 0.830095 -1.0486455 -0.026405323 -0.1867861 -0.15856251 0.31189582 -0.184721 -0.32272905 -0.42223233 -0.16409048 -0.26298243 -1.0104787 0.20413041 -0.4989059 -0.1766228 -0.23218869 -0.9232704 -0.23986273 1.3941351 0.081401475 0.30784625 -0.0019803545 -0.3662623 -1.2317301 0.013163081 -0.50514406 0.21918073 0.18773764 -0.24718592 -0.18222596 0.55033785 -0.12795728
59 -0.32514173 -1.3547232 0.31857413 -0.8091436 -0.3565094 0.97159773 1.2744714 0.25703508 0.1309991 0.075611144 0.17934416 0.5410528 0.012788668 -0.83514035 -0.11592175 0.959016 -0.26306108 -0.13002394 -1.297085 -0.25064805 0.8024985 -0.34379572 -0.13369852 -0.505395 0.2761599 -0.4752842 -0.49391183 1.2057283 -1.0722976 0.6515879 -0.22012328 0.17407961
681 0.06564929 -0.91132766 0.57424897 -0.113501966 -0.10781671 0.13416104 0.30724153 -0.57707816 0.3259136 -0.3625474 0.28707483 -1.0430646 0.37739503 -1.0544889 -0.07135482 0.6644516 -0.37520218 -0.008186637 0.5410945 -0.2956447 0.057118826 0.49537757 -1.778294 -0.79784966 0.08012668 -0.6006481 -0.5340645 -0.42184633 -0.25977588 1.2033671 0.38999245 -0.98405427
668 -0.21566924 -1.9317323 -0.3638133 -0.8462605 -0.12969403 -0.14471868 0.6628355 -0.7092014 0.74200237 0.24497549 -1.2329464 0.7574364 0.8727366 -1.3107321 0.8847358 0.2522138 -0.20722412 -0.46384174 -0.21531525 -0.75140774 -0.65476364 -0.46212354 -0.2115717 -0.10573195 0.087249525 -0.11545821 1.0740949 0.57603437 0.3868312 1.0054727 0.32973674 -0.40782407
267 -0.5608234 -1.7831542 -0.46776304 -0.5212623 0.057165444 0.44203356 0.41328552 -1.2218977 0.44474554 0.484735 -1.0164225 0.5954541 0.03415038 -0.3607665 0.7514198 1.0386728 -0.36665154 0.21420841 -0.67812693 0.077482276 0.62647486 0.695697 0.3416738 -0.414542 -0.58678186 -0.16233857 0.46836182 1.0465362 0.10793544 0.9765328 0.35534093 0.88230395
326 0.22331718 -0.5170675 -0.24256922 -0.74998486 -0.622 -0.5912576 0.5559454 -0.36858663 -0.03476119 0.86996084 0.1630818 -0.5610993 0.88930875 -0.5976495 0.67385143 0.029085582 -0.14811048 0.75019854 0.6568525 0.33012912 1.2136531 -0.22299166 -0.014891875 -1.7127953 0.17336783 -0.7508403 0.44023868 0.4866633 -0.29053533 1.2954578 -1.0173537 0.16412254
669 -0.41416547 -1.3134736 0.013846927 -0.85638607 -0.13191953 0.29828656 0.32534865 -0.62553334 -0.57909864 0.2169851 -0.7141546 0.106351934 0.45957142 -0.01270754 -0.6300328 0.7590969 -0.3722159 -0.22218055 0.36663294 -0.59450996 0.26348427 0.20557933 -0.25494245 0.21900716 0.21304457 0.5868187 -0.34139854 1.0977218 -0.5417138 0.8707258 0.35331166 0.37931088
224 0.40914458 -1.4149784 -0.89622986 -1.1693426 0.17565538 -0.96293765 -0.3868332 -0.2738916 -0.22839336 -0.025864508 -0.32331142 -0.302192 0.1856435 -1.2152122 0.3600458 0.67459625 0.8655294 0.51394314 -0.14254567 0.744501 1.0372682 0.040975764 0.2721631 -1.0368971 -0.3487156 -1.1956892 1.1047288 0.7148353 -0.059594963 0.8992717 -0.91553414 -1.2088983
201 0.28673095 -1.2177016 0.23062976 -0.3593487 -0.25629947 0.44120938 -0.39083758 0.33167267 0.21890557 0.6860349 0.19291796 -0.19345868 -0.66403896 0.3133639 0.25287408 0.16220647 -0.66918826 0.13447133 1.2848115 -0.013922377 0.28164786 0.13484284 -0.080774225 -0.9938863 0.012347131 -0.521438 -0.40672743 0.17638932 -0.36982706 0.6250496 0.06628724 -1.420937
408 -0.6306515 -1.3575474 0.8897691 -0.67680925 -0.2737141 -0.2099478 0.13351783 -1.0418023 -0.2415986 -0.45985988 -0.96613616 0.11205781 -0.87217283 -1.6319124 -0.37011755 0.07991726 -0.59320104 0.3064736 -0.5351966 -0.5440966 0.46402565 0.5045129 -0.29128355 -0.30915025 -0.375927 -0.32006663 1.5751488 1.0556369 0.5806 0.352996 -0.20635961 -0.065613456
428 0.9256739 -1.0149003 -0.44269875 -0.50259984 -0.5430761 0.5576287 -0.14054374 -0.6111028 -0.8381603 0.6009626 0.7139046 -1.0437996 -0.29750082 -0.5381571 0.43249756 0.5322996 -0.35559487 -0.6349658 0.3743169 -0.21836406 0.4147783 0.060231294 -0.42168495 -0.6938918 0.39556918 -0.5885299 -0.20771593 -0.13445972 0.015225094 0.42258584 0.33328316 -0.6625783
412 0.15488866 -1.4440281 0.33674487 -2.0751004 -0.41849622 0.17381926 1.1043237 -0.09418268 -0.049665727 0.7060006 -0.6138387 0.35271212 0.3048653 0.44474554 -0.30008247 0.0066157687 0.60633355 -0.5394379 0.12182015 -0.7379776 0.7307822 0.3707412 -0.25253192 -0.20653714 -0.6958345 -0.8851652 0.2729272 1.0623068 -0.4062574 1.2415742 0.56617075 -0.14305335
394 0.4418182 -1.2916278 0.4381462 -0.3002734 -0.28886953 -0.35670367 -0.24415208 -0.24536316 0.2883313 1.3313951 0.18715845 -0.7406198 -0.46418598 -0.55494064 0.39314067 -0.13701229 -0.5287061 -0.3983287 0.5249437 -0.36315593 0.05766476 -0.32491282 -0.52351683 -1.4132316 0.82918435 -0.041619875 0.73540306 -0.17060056 -0.20422249 0.0019675987 0.45843744 -0.70472664
553 -0.27374327 -1.558726 -0.49832115 -0.6176757 -0.06785585 0.22301728 0.6326069 -0.6814012 0.8572609 0.316442 -0.90167093 0.62520367 0.4299833 -0.7401835 0.4202856 0.31554157 -0.20147592 -0.23055744 -0.5458599 -0.6377157 -0.822728 -0.14446722 -0.06830624 -0.09754377 -0.04877807 -0.3866702 0.94726956 0.66333574 0.45304143 1.1933428 0.15540108 0.054235622
583 -0.15646276 -2.4683473 -0.30434775 -0.565447 -0.12371749 -0.3979143 1.081896 -1.214314 0.51923555 0.7953478 -0.07356541 -0.37578568 0.09138133 -0.6601537 0.68085676 0.5056898 -0.4604136 -0.24087 -0.26549256 0.36222404 0.1998269 0.7961538 -0.2676508 1.1183469 -0.48549703 -0.2673847 0.30695254 1.279111 0.8218107 0.77432454 0.21326059 -0.07091941
7 0.98771054 -0.669996 -0.8812699 -1.0719858 -0.99856776 -0.65357274 0.34182137 -0.33036098 0.53816146 0.48202333 0.050491594 -1.118132 0.7596734 -1.6574217 0.6584993 0.39404398 0.10177078 0.3552097 0.117747106 0.04987729 0.5092292 -0.49594587 0.6938525 -0.94516873 0.55732304 -0.56979036 0.11315153 0.44346267 0.048798237 0.7936844 -0.37542343 -0.41189715
58 0.8524785 -1.1182876 -0.42171535 -0.8140952 -0.43462673 -0.42117658 0.66878915 -0.040383138 -0.60442257 0.29975113 0.48684597 -0.37774107 -0.37818974 -0.09078755 -0.7378162 -0.07428075 -0.72517276 -0.041016687 0.50345707 -0.1252107 -0.3599946 0.3981779 -0.91314083 -1.4133646 0.18616275 0.062460344 -0.19067207 -0.31508633 0.33819747 0.42919344 0.12290926 -0.6632524
127 -0.10022266 -1.3242252 -0.5019143 -0.8265746 -0.06416617 -0.7091799 0.18938118 0.027717173 -0.9283491 0.3178741 -0.29672623 -0.681532 0.46483034 -1.1701554 0.5067074 1.0186406 1.092761 0.35711345 0.7322089 0.66336685 1.2085955 -0.573361 -0.09924859 -0.62522495 0.76150745 -0.24483393 1.1153038 0.83254504 -0.38043946 1.5194172 -0.73164606 -1.4787637
117 0.55079687 -0.85747206 0.08365722 -1.1378293 -0.056671977 0.78588414 0.2477781 0.6114324 0.017076084 -0.3832885 -0.40318158 0.35560638 -0.19717774 -1.4654963 0.87402284 1.2878804 -1.270008 0.19573314 -0.32424113 -1.0641929 0.4243875 0.20139615 -0.087557845 -0.35183686 0.050550975 -0.850756 -0.541256 1.5411502 -0.9868026 0.70275825 -0.09225171 0.51285803
641 0.114344224 -2.0988164 0.31608728 0.04276042 0.094997406 0.96301246 0.8096172 0.75623065 0.5106717 0.51734245 -0.020474583 -1.5896032 -0.5943445 -1.2926643 -0.9517681 0.082370065 0.10819885 0.14103499 0.39425775 -0.6463212 -0.1262822 -0.36728966 -0.30906856 -0.7027138 0.4496033 -0.35896656 0.84495324 0.38910002 0.25002053 0.1990413 -0.14075615 -0.9805788
430 -0.36260226 -1.7609192 -0.07446009 -0.59455323 -0.13206002 0.37924084 0.33479527 -0.73818016 0.92881894 0.974869 -1.1104518 1.044215 0.52527547 -0.77862626 0.6634103 -0.078566484 -0.3886224 -0.27480084 -0.98882294 -0.38154384 -1.0804589 -0.13643745 -0.3918695 -0.55989546 -0.486627 -0.71923625 1.4372467 0.93554044 0.18946625 1.6154865 -0.3653963 -0.12157623
590 -0.7478981 -1.8393852 -1.0428357 -0.81410605 0.13669544 1.5009329 0.023012653 -0.87493736 0.39306134 0.41051322 -0.41682097 0.37633848 0.3888037 -1.3653408 -0.5808747 0.99713826 -0.8557203 0.70315194 0.16959208 0.7050945 -0.36261582 -0.42712742 -1.00054 0.022195525 -0.8963169 -0.9377249 0.20251764 0.4919521 0.27620703 0.64909303 0.23131661 -0.24421665
249 -0.68634516 -1.4336178 -0.033417996 -0.50260836 -0.3116951 0.069494724 -0.8029223 -0.7183267 -0.62303025 -0.1874916 -0.10673921 0.23728132 0.24804527 -0.86957985 -0.65402824 0.41661116 -0.9628978 -0.28471345 0.38336012 -0.7219152 1.0024521 -0.2011771 -2.100221 -0.041706994 0.61777055 0.33354852 0.5428998 1.6752512 -1.2807331 1.2998935 -0.36459765 0.669979
547 0.18373622 -1.0587193 -0.7082448 -0.7627431 -0.8052218 0.6223673 0.5494116 -1.1677922 -0.08648404 -0.08546748 0.9312199 0.32967544 -0.09643684 -1.0178586 -0.12279684 -0.52227616 0.39120367 -0.37490463 0.87593037 -0.5621606 -0.42246607 0.49076477 -0.75816834 -1.5257491 -0.82398933 0.50133765 1.0804971 0.20154536 -0.4317309 0.343695 -0.38841832 -0.4537708
204 -0.7017566 -2.042149 -0.3177373 -0.3238541 -0.74844164 1.2328942 -0.089481845 -0.84873885 0.7495653 0.39108986 -0.14195135 0.8027589 0.18826798 -1.4085654 -0.050547957 0.9705966 -1.3649579 0.7907732 0.4661794 1.0794523 -0.59504455 0.0689259 -0.63548154 0.1086542 -0.32773197 -0.41494632 0.6931752 0.7554205 0.52377367 0.6250421 -0.21045095 0.13794848
137 -0.40156293 -1.933643 0.42150193 -0.039884556 0.026789378 1.30175 -0.22760522 0.19512747 0.6701757 0.016056076 0.3274078 -0.8851796 0.9551132 -0.72586006 0.22553417 0.70937276 0.35544866 0.56569993 -0.5498979 -0.1458885 0.539247 -0.40250844 -0.04993285 -0.046326447 -1.1541605 -0.5150552 0.79909223 0.8038731 -1.6711246 1.9334534 -0.42801738 -0.45238397
336 -0.68807894 -1.1525933 0.86330825 -0.23200631 -0.6791011 -0.56820285 0.73738927 -1.9011251 -0.04306042 -0.52366936 -0.5266128 0.17687093 -1.2543725 -1.7906594 -0.6166146 0.6657281 -0.27346137 0.19033465 -0.2003361 -0.19376442 0.39138767 -0.42344525 -0.19210117 -0.85026836 -0.47767606 -0.36867228 0.9566817 1.0168387 -0.06573403 0.750343 -0.7613354 -0.52445227
366 0.20465451 -0.7233576 0.15125805 -0.7032976 -0.6700778 -0.7032363 1.1730306 0.60478294 -0.5210494 -0.5655475 -0.0061569903 0.05375963 -0.30528882 -1.2321799 -0.28996706 1.3872595 -0.6859666 -0.29076388 -0.12947038 -0.49066204 0.67839897 0.058921564 -0.25138748 -0.8223915 -0.6223463 -0.7862794 -0.10426337 1.8840792 -2.1191852 0.2859318 0.4615112 -0.22798994
46 -1.0357416 -2.374018 -0.6805207 -0.84232134 -0.35832578 1.5081757 0.7373784 -1.1732297 -0.15293983 0.52556086 -0.09479558 1.0410945 -0.26615867 -1.2522794 -0.78048605 0.50639147 -0.734878 0.5561166 0.30406475 0.895289 -0.56978494 -0.10756328 -0.35994217 -0.34597862 -0.25501344 -0.9671767 0.0651984 0.36888447 0.67545855 0.74282056 -0.3774176 -0.2739236
31 0.44412005 -1.234669 0.27835444 -0.29880905 -0.31328064 -0.49868533 -0.05226308 -1.0497384 -0.20081015 -0.010966717 0.14464875 0.60794145 0.6731103 -0.7086701 -0.0664638 -0.11414197 -0.8731095 -0.39064956 0.9161222 -1.1560781 0.27744746 0.055089127 -2.0431068 0.30777037 0.45814413 0.18857634 0.8010163 1.8495885 -1.1523252 1.7602013 -0.25870734 0.6123311
12 -0.5561129 -1.864446 -0.13341406 -0.37587956 -0.12810622 -0.7972922 -0.062072005 -1.7698629 0.20098169 0.5195583 0.09642758 0.019749356 0.18812342 -0.55033416 0.2062354 1.2522277 -0.90198445 0.575106 0.45484886 -0.8888284 -0.48212564 0.67684865 -0.3143873 -0.23139298 -1.3116137 -0.86401945 1.4425129 0.058418423 0.0053434884 0.99374586 -0.031289652 0.43613344
328 -0.09945088 -1.3322345 -0.91698915 -0.9079492 -0.20910117 -0.39815763 -0.39501515 -0.42961425 0.0013371337 0.15361255 -0.64737564 -1.014445 0.16676289 -1.5988094 0.4167755 0.6318523 1.0472738 0.17801559 0.2887244 0.5737353 0.9664388 -0.115079716 -0.13992108 -0.7522681 -0.12092761 -0.51793396 1.2574816 -0.07898853 0.6219571 1.5374236 -1.0143845 -1.1656075
520 1.072696 -0.6598779 0.8236869 -1.0588521 0.05440499 0.21410736 -0.38851404 -0.39366293 -0.4439184 0.36509413 -0.4915425 -1.0122129 -0.021769136 -0.55389595 0.69968015 0.5304503 -1.074701 0.14986336 0.078285195 0.5870167 -0.36655307 1.0593336 0.3127024 -1.6337328 0.14708892 0.07102922 -0.019249605 0.4169952 -0.091463655 0.6897488 -0.17194611 -0.6222109
140 -0.13777323 -1.9616896 -0.34821627 -1.1502584 -0.09479591 -0.26621518 0.6213159 -0.76562166 0.9216546 0.118100464 -1.2978919 0.9018607 0.87341815 -1.4385433 1.1569351 0.29073596 -0.30240512 -0.6617222 -0.0013190665 -0.74431425 -0.43024203 -0.7704682 -0.4386919 -0.32864082 0.3666075 -0.01937917 0.79224163 0.6599581 0.21989328 1.0513753 0.3997898 -0.8226032
433 -0.3216396 -1.7497921 0.73914194 -0.27536857 -0.43487665 -0.72227544 0.70660806 0.47732028 -0.35644242 -0.044514775 -0.5591909 0.28232232 -0.085483834 -1.1698748 -0.41726527 1.8209003 -0.31845292 0.31850725 -0.09114772 -0.34954825 -0.14486623 -0.19820534 0.54346645 -0.64464706 -0.7075499 -0.69363767 -0.22620901 1.4068573 -1.8572674 0.62624466 0.85737747 -0.19202805
194 0.89235276 -0.68633896 -0.71114224 -1.0206219 -1.0516133 -0.48101538 0.22752121 0.089501604 0.23568444 -0.23830381 0.5130011 -0.43107328 0.5617156 -0.81284845 0.11121862 0.46252298 -0.46419618 0.46079606 0.25213858 0.35309586 1.3235447 -0.58993167 -0.013619236 -0.69215906 0.42200243 0.044151496 0.407607 0.60333794 -0.004759131 0.9669695 -1.0466532 -0.88659084
95 -0.22950608 -0.71398914 -0.94565594 -1.6937913 0.19777 -0.6745594 0.44056815 0.17994756 -0.34507927 0.84676075 1.1618204 -0.3457187 0.26062366 -1.7017952 -0.08645836 0.60292697 -0.45695353 0.83151174 0.66866106 0.2033448 1.1925726 -0.37054187 0.70730036 -0.57508475 -0.4350796 -0.34411883 0.5643235 1.2872154 0.11096645 1.0745809 -0.31783783 6.215019e-05
409 -0.49076682 -1.7749628 -0.43861234 -0.6536819 0.06377664 0.96436846 0.4276989 -0.83428293 0.1109768 0.19768009 -0.4442793 0.6643108 0.28195274 -0.8295837 -0.116771884 0.8543418 -0.7762327 0.35682863 -0.35798487 0.031839065 -0.41414082 0.26395786 -0.122224346 0.14110209 -0.46181455 -0.27078068 0.2029076 0.5799409 0.69015884 0.69411063 0.30944374 0.41273823
241 -0.40654296 -1.3084091 0.54862136 -1.2505528 -0.0042856284 -0.10782843 -0.10765766 -0.6009466 0.38856944 -0.10514418 -0.32936957 -0.6314762 -0.7999112 -2.19421 -0.5206038 0.44703087 -0.78864515 0.13953926 -1.0219414 -0.7371774 0.24020486 1.0724965 -0.032352496 0.024991732 -0.13946839 0.29313716 1.1781582 0.639533 0.67288995 0.717271 0.04145135 0.5105953
214 -0.6797064 -1.4848049 0.6620642 0.035295524 -0.70738995 -0.21199885 0.18070307 0.08975361 0.6470887 0.008088743 0.2655377 -0.8742447 0.62265086 -0.88526416 -0.28772455 0.27694356 -0.04261007 0.110252425 0.780088 0.37352124 0.17533208 0.9292181 -1.4501734 -0.99742764 0.34271047 -0.13489433 0.036444142 -0.38397002 -0.96516937 0.8183328 0.73405015 -1.2250056
45 0.030447003 -2.9887183 0.28596407 -0.30531153 0.3194616 -0.113669924 0.9874966 -1.2701926 0.8732344 0.6680367 -0.73495346 0.29834378 0.41304913 -0.8194657 0.20650844 0.5931891 0.23444164 0.12411601 -0.42832923 0.08082886 -0.021801675 0.71204525 -0.6283736 0.64986706 -0.6277794 -0.26851478 0.48648906 0.7793176 0.3185275 0.7270697 0.08500801 -0.1984033
431 0.34298214 -1.0252923 -0.4795334 -0.22713566 -0.6435908 0.28966838 -0.17557253 -0.39154083 -0.48751876 1.0204756 -0.51901865 -0.66035473 -0.060778942 -0.5269488 0.27791163 0.30099598 -0.55628437 -0.093366355 0.73825747 0.107594125 -0.48116565 0.023821384 -0.59252316 -1.0389361 0.41991568 0.5348042 -0.51939523 0.13612422 -0.4330797 0.2675802 -0.34649453 -1.1143475
697 -0.45559868 -1.6323764 -0.27985004 -0.48254195 0.028688952 0.022370659 0.4644487 -0.9985713 0.25275883 0.8414062 -0.32790947 0.2245807 0.524586 -0.18668088 0.17016877 0.7750036 -0.7357527 0.27366132 -0.25186846 -0.7309612 -0.56192744 0.5302529 -0.16243659 0.22781347 -1.0141484 -0.52727103 0.76327604 0.40748745 0.326296 0.8683001 0.5123017 0.5463268
251 -0.2942046 -1.0921696 -0.5002879 -0.45720685 0.32902572 0.054338675 0.2731315 -0.29173973 -0.31063953 0.9275903 0.600759 -0.42295852 -0.6409073 0.072038226 0.180017 0.89294356 -0.7946176 -0.057987094 0.08119115 0.76437074 0.65774596 0.02376492 -1.122433 -1.4482346 -0.2693668 0.34456366 0.47170565 1.0489869 -0.8538672 -0.4244293 0.08863207 -0.8574117
621 -0.26962253 -1.3816026 0.026155973 -0.8097721 -0.43924314 0.47167006 0.72763604 -1.0412807 -0.91061914 0.30911723 -0.72502995 0.05090902 0.5966212 -0.23345995 -0.98955894 0.80535173 -0.35202053 -0.8757305 0.49294817 -0.5396598 0.16173391 -0.48408833 -0.2236908 -0.030433191 -0.039598808 0.7343518 -0.46900728 1.4487051 -0.30789134 1.0194548 0.42694384 0.22180027
207 -0.1463115 -2.1455965 -0.066431485 -0.5785322 0.22136256 -0.11081763 0.9802236 -1.142605 0.5496179 0.46840116 -0.4540279 0.15898424 0.27348226 -0.6847509 0.42760435 0.5259013 -0.16559526 -0.08536649 -0.43828642 -0.052088633 0.18380745 0.66762245 -0.38919008 0.7101661 -0.43788874 -0.13654803 0.1930861 0.9208548 0.55368954 0.54475397 0.12949918 0.16525117
41 -0.6651055 -1.1051553 0.12749182 0.1387814 0.117800705 0.14005578 0.22650346 0.050938863 0.71251476 0.335193 0.76964235 -0.8062754 0.22872548 -1.1193389 -0.1773029 0.49393532 0.016385775 -0.26439208 0.35909203 0.3209787 0.24512123 -0.21624826 -1.6137832 -1.3990529 0.49960563 -0.28239968 -0.1735671 0.2824715 -0.1954261 1.1946105 0.7374863 -1.3573961
303 -0.06289202 -1.6172723 0.09384772 -0.69558746 0.11403449 0.14159475 1.2020577 -0.505945 -0.018494451 0.12066722 -1.1681432 -0.0215376 0.70467293 -0.7769906 -0.7679346 1.0352145 -0.18431629 -0.25827318 1.1051624 -0.9283536 0.53382427 -0.05135844 -1.5292773 0.3822445 -0.13801415 1.0961473 0.46301964 1.525666 -1.5151736 1.0294898 -0.10268812 0.5263049
635 0.91461253 -1.0366887 -0.7176959 -0.63369054 -0.31983006 -0.51012427 -0.35667366 -0.16168684 0.87673765 1.0217685 -0.049223475 0.4089803 0.32618436 -0.97758 -0.74146014 0.56380695 -1.2814128 -0.4080925 0.5686969 0.015671974 0.7161412 1.3378398 -0.028630463 -1.0160866 0.20524117 -1.1132795 0.20072038 0.10392401 -0.8784037 0.25607094 0.11351299 -0.47833344
565 0.56220436 -1.5418481 0.25141302 -1.0748824 -0.81584734 -0.23891991 0.0697648 -1.0062668 0.3056123 0.556751 -0.3929936 -0.678371 -0.40140492 -0.7259636 -0.93961734 0.17210963 -0.2863273 -0.30498567 0.68510413 -1.2045699 1.185433 -0.12581676 -0.91178256 1.0231342 0.5232533 0.92542136 0.52038884 1.2205898 -1.244424 1.3412876 -0.37316287 0.049812414
305 0.13582382 -1.3198626 -0.03901531 -0.6332222 -0.259643 0.39405683 0.46486494 0.52813077 -0.42754474 1.0657643 0.38053733 -0.63165635 0.24474277 -0.4774825 0.09880241 -0.66174316 -0.114613734 -0.09905826 0.5907131 0.57381034 -0.26922178 0.1830429 -0.5030093 -1.2512995 0.27462104 -0.8823192 -0.045359153 -0.22587298 -0.70310366 0.17563252 0.28135428 -0.32504684
491 0.15490828 -0.85811275 -0.5049425 -1.2453586 -0.14056171 -0.16814877 0.25881 -0.3641325 -0.50649 -0.24710375 -0.67545444 -0.56907433 -0.04354027 -1.2015426 -0.23751059 -0.0798721 -0.9296201 -0.20395726 -1.323149 -0.97412145 0.9901589 0.83059335 -0.97296965 -0.6125223 -1.2840074 -0.18153226 1.1750978 1.4261166 0.8251138 0.93718153 -0.19171867 0.64478314
67 -0.37503573 -1.3471618 0.1740977 -1.193273 0.30194166 0.65461874 0.7371202 -0.39147705 0.32382992 0.75743955 -0.31327447 -0.21267699 -0.14844014 0.36191276 -0.13431917 0.54239523 -0.8362651 -0.14199023 -0.12659729 -0.8771402 -0.13526012 0.1386248 -0.29847807 -0.12587553 -0.39981467 0.051921338 -0.88564664 0.74478763 -0.39934084 0.53705275 0.9154459 0.24741273
107 -0.5727062 -1.8996991 -0.081475705 -1.2764459 -1.3034465 -0.05186876 0.2953008 -0.4598413 -0.22926971 -0.037083637 -1.5121973 0.19089113 0.6767439 -0.45165431 -0.71532065 -0.06766784 -0.57655597 -0.23392414 1.2183714 -0.12000791 0.5279363 0.16938739 -1.1511471 0.2832054 -0.32590184 0.8025812 0.3963549 1.0171605 -1.7367755 0.8825728 -0.5585799 0.52929235
486 1.0649042 -1.7771245 -0.37032953 -0.27184772 -0.41362903 0.09307681 -0.45126417 0.5581658 -0.52274054 0.38917586 -0.4675368 -0.58472586 0.25907728 -0.039694853 -0.16435055 -0.5081873 -1.0564092 0.7469581 -0.7250432 -0.054258034 -0.54908466 0.36745837 -1.2939832 -0.67688245 0.34806576 -0.5410134 1.133618 0.7157289 -0.19511922 0.81020224 0.5402049 -1.1304572
626 0.22170639 -1.0240077 0.8895233 -1.6780653 -0.2428136 -0.3428679 -0.6957114 -0.6569535 -0.083655685 -0.35871252 -0.8642663 -0.7691844 -0.11702615 -1.2120442 0.13327526 0.15365174 -0.780149 0.2147732 -0.78378886 -0.46149036 0.978968 0.80069715 -0.84632695 -0.65306747 -1.1064954 0.59224546 1.2646779 0.86051464 0.43587938 0.82438564 -0.6320319 0.6911322
210 0.51730233 -1.7065661 -0.20552862 -0.5915359 -0.49855524 0.24375296 -0.8635315 0.36374995 -0.20583577 0.7014262 -0.14729396 -1.0595609 0.1570687 0.009452568 -0.31496412 -0.019211326 -0.7798565 0.7916674 -0.680252 0.25886083 -0.33948222 0.4386893 -1.268596 -0.557093 0.60222113 0.22278316 0.37464955 1.0308701 0.37101376 0.9403989 0.6187939 -0.7324906
550 -0.5675752 -1.5212171 -0.344622 -0.1407185 -0.35194343 0.1798522 0.38199624 -0.79886395 0.15401082 -0.43376517 -0.31292307 0.48357412 -0.13319011 -0.10872408 -0.59449035 0.24914739 -0.30142966 -0.056804977 0.48809436 -0.7412654 0.7439852 0.6174024 -2.1161919 -0.24914558 0.62748 -0.5834215 0.4058913 1.5336738 -1.8183556 2.0472097 -0.62906075 0.35794395
182 0.1821882 -1.0575199 -0.8154083 -1.546435 -0.1670249 -0.92919785 0.48416322 -0.15497957 0.05688055 0.8507151 0.8574107 -0.5610885 -0.29630145 -1.6394325 0.7786385 0.4945447 -0.6039959 0.2830806 0.87508863 0.28177488 1.27178 -0.46962434 0.51762754 -0.81231546 -0.06823649 -0.076774284 0.58570284 0.9834054 0.74538624 1.1374568 -0.24247064 0.2505574
333 0.07622998 -1.3731215 -0.10473797 -0.609855 -0.4121646 0.45691568 -0.38060373 -0.87637013 -0.02155376 0.018938372 0.66172045 0.16119412 -0.07087496 -1.229043 0.35796872 -1.2292994 -0.3334379 0.20001931 0.58050466 -0.5867827 0.20695533 0.13814598 -0.65579885 -1.1310854 -0.7616629 0.37260303 0.621052 -0.09517609 -0.80855745 0.46060693 0.59472555 -0.5699399
379 0.075952455 -1.3081077 -0.07071059 -0.37776467 -1.5801129 0.09409359 0.09476917 -0.15326995 0.21520057 0.31666306 0.7314711 -0.74447244 -1.042828 -0.7962495 -0.37855923 0.096076176 -0.8577238 -0.18528636 0.7968614 0.23423855 0.28650776 0.98160696 -0.40213618 -0.91374034 0.29912335 0.024675457 -0.5062205 0.76239216 0.22597712 0.45225778 0.2691832 0.56512064
104 -0.06349565 -1.486736 0.081237555 -0.3872476 -1.4395145 -0.23374541 0.16180266 0.027829085 0.6616079 0.70620376 0.56417197 -0.846421 -0.78017575 -0.69024545 -0.06926358 0.23547882 -0.6983092 -0.23003606 0.41237947 0.39172825 -0.025773466 0.8995915 -0.20890553 -0.9745303 0.68170094 0.53875273 -0.49762228 0.6698978 -0.08817367 0.6720082 0.44086033 0.38685966
497 0.34660998 -1.0905406 -0.15520573 -0.9482484 0.11997646 0.74811935 0.22215152 -1.0417197 -0.6002411 -0.14304627 0.57273537 -0.18071169 -0.89521694 -0.8158322 0.09754652 -0.6152333 0.0081516495 0.23245737 0.48880252 -0.94740826 -0.15791446 0.12124908 -0.4279044 -1.0557237 -0.74410814 0.2731963 0.73584634 0.17940392 -1.4689806 0.45891273 0.1610492 -0.7832474
421 -0.23226808 -1.1145383 0.6664654 -1.321656 -0.3981006 0.22788495 0.12875512 -0.6339977 0.07024003 0.018596327 -0.547848 -0.05883368 -0.8906558 -1.5977366 -0.53518754 0.29144785 -0.8066606 0.07516308 -0.7126126 -0.6010204 0.20476128 0.64685035 -0.0087740505 0.08138296 -0.81194335 0.12627089 1.2318326 0.8904592 0.9157484 0.8528172 -0.094076425 0.47687253
57 -0.16270603 -1.4186641 -0.18770547 -0.5017863 0.23914146 0.099351496 -0.83466446 -0.89716446 -0.42337984 0.31678587 -0.579843 0.1274891 0.34496826 -0.4525807 -0.35818967 0.42094952 -0.33741754 0.29912674 1.0978572 -0.70487946 -0.13530305 0.26503128 -1.8659083 -0.4641389 0.17665002 0.39890766 1.0751365 1.673441 -0.45620352 1.5886508 -1.3606195 0.23294756
467 -0.23310304 -1.9197018 -0.5755002 -1.7988473 -1.0210443 -0.15577118 0.22955927 -0.041216496 -0.18127073 -1.0459404 -0.38181502 -0.6372103 -0.03034053 -0.49745885 1.2755644 0.5765356 -0.7700449 -0.74086994 0.47044265 0.1029113 0.2700466 0.23626612 0.2676563 -0.46032438 -0.41354927 -0.48246178 0.46689832 -0.7723642 -1.2561086 1.1643133 -0.15673992 0.4681691
288 -0.41543478 -1.6292541 -0.09193344 -1.367897 0.27672005 -0.14213938 0.13141248 -0.9709756 -0.25961003 -0.83142996 -0.18252112 -0.20405012 0.69553846 -0.5341888 -0.9831309 0.9673174 -0.41426554 -0.04007038 0.8512512 -0.16600686 0.20630942 -0.08454003 0.04873078 0.1540947 -0.16496523 1.1079562 -0.24213618 1.2965913 -0.9163395 1.4804233 1.0737988 0.04509716
526 -0.1254039 -1.4070095 -0.19403169 -1.9315921 -0.27787313 0.69306487 1.1522187 -0.12271207 -0.34412104 0.712595 -0.7958185 -0.013687344 0.16898656 0.33314434 -0.44258186 0.29221913 0.47741395 -0.12791288 0.16211534 -1.0039132 0.57548726 0.6580921 0.10488592 -0.29612792 -0.33502117 -0.70752364 0.14402223 1.3144283 -0.18549241 0.53135574 0.15571004 0.18191823
490 -0.28203785 -0.9754289 -0.1499182 -1.2149737 -0.07705808 0.97022444 0.37913072 -0.9039186 0.074080095 0.39346313 0.8281347 -0.102704145 -0.329186 -0.79148376 -0.07627652 -1.1455363 -0.1582873 0.34329787 0.9416574 -0.3395111 -0.05674714 -0.1707885 -0.033573024 -1.2553524 -0.23226956 0.13512409 0.748717 0.1712186 -0.8069369 0.4651299 -0.13621569 -0.76173365
687 0.65990776 -1.0528904 -0.28148755 -0.31961492 -0.20869383 -0.32522103 -0.53500277 -0.3628205 0.0166955 0.53645515 0.15160544 0.010195569 -0.12780157 -1.1655738 -0.48166025 0.112517 -0.93851095 -0.68667156 0.061831694 -0.2750186 0.2065224 1.7100177 -0.39930198 -0.50551784 0.3945167 -0.9706421 -0.71164 0.3834609 -0.6231967 0.70995986 -0.3222455 -0.65777487
108 0.5756181 -0.92456746 -0.3709226 -0.83810663 -0.18213813 0.07710962 -0.3301128 0.497139 -0.4630756 0.79305565 0.30239058 -0.9300376 0.0056638666 -0.30196932 0.06605441 0.021605995 -0.4270889 -0.30073655 0.8495292 0.08417047 0.15742253 0.24379775 -0.15564324 -0.92967147 0.17909493 0.4274214 -0.262998 0.3448876 -0.68040645 0.32811296 0.8703867 -0.86257505
209 0.5907289 -1.0159713 -0.006033708 -0.29564425 -0.51858234 0.5401336 -0.11782739 0.5330092 -0.16148776 0.83311915 0.41844204 -0.83014476 0.2017731 -0.42689872 -0.11666614 -0.32716528 -0.7030058 -0.29036257 0.5872394 -0.09464352 -0.086374685 0.08779363 -0.3598508 -1.0702479 0.0025625261 0.1537313 -0.38248426 0.13925017 -0.96829987 0.2688278 0.22924635 -0.6662294
84 -0.2871465 -1.3644222 -0.18124565 -0.4016629 0.15257348 0.09660688 -0.95480543 -0.7136467 -0.27998263 0.23298685 -0.5345983 0.1972994 0.22046551 -0.40802214 -0.45415732 0.42473635 -0.3175825 0.32435638 1.1178784 -0.69791543 -0.21103565 0.42821464 -2.1513176 -0.33029512 0.32449317 0.02833611 1.0693091 1.6622596 -0.6083733 1.5090163 -1.4782218 0.2314252
276 0.16488105 -0.8428601 -0.6339207 -0.90085155 -0.7481496 -1.7504125 0.41163388 -0.046200633 0.14932482 0.22291389 0.54489696 -0.95749354 0.90749437 -0.6705539 0.06862577 0.123717986 -0.32817104 0.84429026 0.7492035 0.41386074 0.209027 0.2929749 0.31677273 -1.1981514 -0.30835652 0.35288712 1.044026 0.7582375 -0.035192434 1.880248 -0.09400709 -0.4781548
268 0.14269939 -1.1412194 0.1540402 -0.71341306 -0.16449516 0.5335494 0.458307 -0.05529462 -0.37520087 0.64417106 -0.018567747 -0.19271691 0.5145298 0.3935646 -0.055252574 0.18994148 -0.52715206 -0.115192816 0.048879668 -0.5104257 -0.017035253 -0.030639052 0.10827974 -0.43130234 0.17053556 0.043367572 -0.5109023 0.20233275 -0.06436921 0.05237703 0.3988036 0.14974062
361 -0.3933977 -0.9782293 1.4396113 -0.1878257 -0.97288996 -0.8838905 0.15313782 -1.1428859 -0.08806727 -0.54918003 -0.6206863 0.04694783 -0.7786194 -1.6860793 -0.4382763 0.45902607 -0.54026324 0.3618251 -0.32699054 -0.38539058 0.23813611 0.046056308 -0.19419773 -0.6143243 0.4377356 -0.24252175 1.5385121 1.0222939 -0.6488803 0.71920556 -0.3044735 -0.68591267
150 0.21709229 -0.72042483 0.16588306 -1.1299464 -0.21221054 0.9279782 0.18974337 -0.7167547 -0.05948934 -0.048930097 0.8052841 0.3301319 -0.65557224 -1.0909103 0.5618642 -0.44682926 -0.31236702 -0.15589064 1.0959761 -0.3597123 0.020227714 0.7169223 -0.06349078 -1.3834372 -0.58464074 0.08491166 0.24805847 -0.0014778997 -0.8386661 0.4814964 -0.08638648 -0.7328625
258 0.23988147 -1.4130625 -1.1260188 -1.9024159 0.08737786 -0.7318272 0.53014624 -0.087778464 0.100464255 0.4177355 0.9183886 -0.3641834 -0.09519336 -1.3080404 0.25361454 0.6609496 -0.5014727 0.6116474 0.7180056 0.29918176 1.1168625 -0.70923305 0.34987664 -0.71234965 -0.05341841 0.01692082 0.2782093 0.7332865 0.8044557 0.7026231 -0.64698726 0.21183676
627 -0.034154773 -1.8173399 -0.5810804 -0.9260248 -0.5876323 0.12678239 0.39202487 0.63612604 0.2823074 -0.39240694 -0.6174196 -1.505061 -0.7688738 -0.34875482 0.34949145 0.7389304 -0.597846 -0.3695762 0.44546312 0.28997263 -0.30154854 -0.26204878 -0.4550172 -0.43076235 -0.090578176 -0.2667518 0.9137018 -0.54034203 -0.660396 0.31467634 -0.2077039 0.08677911
530 -0.37297332 -1.290246 0.06844325 -0.9473622 -0.690499 1.2566041 1.3689294 0.27710477 0.015608527 0.107533045 0.10567154 0.53125006 -0.0014709703 -0.86752063 0.010676953 0.9505815 -0.24309348 -0.16387425 -1.1607169 -0.10332891 0.79086024 -0.6125358 -0.11604581 -0.79328966 0.6738263 -0.68909824 -0.49353996 1.3578875 -1.1882855 0.9231541 -0.4699616 0.14792457
544 -0.016128305 -1.3211513 -1.5288683 -0.9893055 -0.70332617 -0.27886432 0.69062835 0.18955103 0.26946312 -0.15193774 -0.30993548 -1.0956585 -0.21152854 -0.35413364 0.39773676 0.34608668 -1.1550252 -0.34607336 0.34724724 0.5624411 -0.44156086 0.4384042 -0.593374 -0.50283116 -0.1236292 0.089649454 0.6014972 -0.38111502 -1.5019851 0.8334584 0.049191806 -0.23985028
568 -0.47202352 -1.7987533 -0.16809455 -0.28623685 -0.13355629 -0.9985165 -0.23192613 -1.7995516 0.26167396 0.4710886 0.15616296 -0.08895742 0.20627719 -0.6439225 0.3479552 1.2006686 -0.97089034 0.5513998 0.49234578 -0.8988576 -0.43489528 0.63120943 -0.3648663 -0.4678418 -1.4215016 -0.9642299 1.5796213 0.019111263 -0.13167293 1.1045475 -0.12656537 0.38971227
77 0.58272755 -0.7840417 0.13043366 -1.3993132 -0.31578395 -0.43658522 -0.02323696 -0.8625731 -0.13350472 -0.049562495 -1.4242675 -0.34464094 -0.14427678 -1.3001642 0.24617966 0.19647443 -0.89100534 -0.076365046 -0.9753293 -0.34099716 0.7973231 0.5322515 -0.8116619 -0.629517 -1.1682364 0.20936358 1.4156892 1.3636817 0.65026474 0.75762236 -0.18665838 0.49316546
86 -0.69657904 -2.0694342 -0.25879347 -0.7461574 -0.18955173 0.29841167 0.54694897 -1.5220779 0.536386 0.57338494 -1.2352569 0.5775698 0.14298533 -0.4916058 0.8007842 1.2110333 -0.2703515 0.12538978 -0.48262602 0.36762133 0.8235096 0.5812071 0.6172273 -0.87500685 -0.49541646 -0.3215208 0.37541252 0.9985835 -0.04382411 0.95215565 0.53165454 0.6191308
652 0.15952821 -1.9562374 0.599877 -0.13785563 -0.11494732 1.0947728 -0.28441003 -0.02739492 0.1445174 0.19685286 0.20609829 -0.9852906 0.68378806 -0.5372101 0.32907498 0.7944289 0.40904066 -0.003464663 -0.5895503 0.1117135 0.8547438 0.013569524 -0.028876463 0.5382901 -1.0342999 -0.23134823 0.84040624 1.029903 -1.1624973 1.8401207 -0.058667637 -0.6044396
292 0.8419357 -1.831173 -0.35588595 -0.032196976 -0.057370093 -0.6519095 -0.72060776 -0.37951726 0.21224758 0.3259074 -0.045628782 0.07135124 0.16498907 -1.2171481 -0.5187432 0.27802613 -0.63834536 -0.4630274 -0.0590705 0.074927315 0.17892349 1.5000466 -0.27319476 -0.68770784 0.21612771 -0.8418688 -0.6226597 0.13097718 -0.9854757 0.54251957 0.015604545 -0.43137652
683 0.43569165 -1.2802647 -0.12254522 -0.13507743 0.20378274 0.04315683 -0.4527218 -0.06312426 0.17449702 1.0897497 0.17162618 -0.9716575 0.11585365 -0.39377305 0.07126001 -0.22363025 -1.0339344 -0.23747553 0.69233626 -0.30889225 -0.07572775 0.08679535 -0.43246472 -1.0954741 0.27834877 0.34531987 -0.19535168 -0.13259035 -0.08368323 0.5134867 0.18262108 -0.14900532
28 -0.77507865 -1.1622508 0.35413545 -0.84123695 -0.72782636 0.2362232 1.5226529 0.425393 -0.23913124 -0.30533925 0.533922 -0.43958554 0.17407016 -0.810678 -0.68372095 0.67113966 -0.55319613 0.4662355 -0.51328707 -0.67298174 -0.53808874 -0.4307115 -0.090958245 -0.6883827 -0.9505371 -0.14284304 -0.25316292 1.2355572 -1.091668 1.2529808 -0.62952256 0.5831105
680 -0.37293807 -0.92563355 0.047170572 -0.7979049 -0.05415786 1.3693163 0.88520455 0.34150726 -0.45174986 0.4334471 0.07955731 -0.36814573 0.36439526 -0.9477286 -0.2365536 1.2343339 -0.3046213 0.23444498 -0.7946527 -0.5383529 0.5625686 0.331002 0.41772968 -0.42318752 -0.6149925 -0.10841048 -0.5383442 1.3315346 -1.2190436 0.42577434 0.24053755 0.015914831
52 -0.7719028 -0.9047504 1.224 -0.42208982 -0.9252815 -0.44939464 0.25199807 -1.1240181 0.19640215 -1.005237 -0.7021321 -0.04251864 -0.68544006 -1.5574259 -0.5484541 0.32148692 -0.41896424 0.45630223 -0.38515055 0.06868271 0.57883877 -0.14705597 -0.6305828 -0.9971843 -0.12551346 0.024002954 1.2001932 1.619815 -0.16342358 0.7566074 0.09816504 -0.53502154
537 -0.45744187 -1.6853421 -0.061167438 -1.1072699 -0.86937946 -0.047828883 0.2687824 -0.6436586 -0.12684904 0.096766 -1.2297924 0.115745984 0.4748392 -0.24572688 -0.6994027 0.12545435 -0.39307386 -0.22859277 1.0491647 -0.34820756 0.5989399 0.20293671 -1.1405957 0.42981583 -0.11904225 0.64764905 0.28484628 1.109104 -1.3690654 0.913949 -0.36366478 0.5215366
313 0.8121357 -1.05773 -0.6042188 -0.8732888 -0.9653192 -0.46469608 -0.2871257 -0.36865216 0.01757688 0.2226075 0.41706976 -0.36057854 0.6404135 -0.93954873 0.17732711 0.7725985 0.123080574 0.8500229 0.78771883 0.42283645 0.47013846 -0.79180735 0.22006562 -1.5018206 0.10812445 -0.17698199 0.20773835 0.12693052 0.29112297 0.96669096 -0.33725858 -0.44231287
39 -0.11001719 -1.2423915 -0.2572262 -0.49820966 0.2381465 0.84373724 1.1422414 0.67247343 -0.15426801 0.3974008 -0.32805473 0.22274217 0.56860006 -0.7087692 -0.26289442 0.90456635 -0.40212306 -0.16218315 -0.74409384 -0.6401458 0.0076246103 0.3658971 0.3497992 0.036687907 -0.48330134 -0.45933604 -0.2199438 1.3900684 -1.2403402 0.7629934 0.08038572 0.2660714
688 -0.283687 -1.6821549 0.7230594 -1.2376566 -0.034331735 -0.10501791 0.5441149 -0.8756733 0.028498573 0.12786914 -1.1665767 0.43039304 -0.20772539 -1.7880086 0.16844173 0.37187776 -1.0026845 -0.13888963 -0.65275747 -0.38409427 -0.082389414 0.98133236 -0.035943285 -0.36762878 -0.6068131 -0.92221534 0.64145565 0.9263109 0.7937609 -0.008013326 0.47348478 0.4204678
602 0.45113143 -1.6917722 -0.93869054 -1.1656641 0.33620295 -0.7484172 -0.5074894 -0.3498306 -0.36861163 0.1633926 -0.67320704 -0.23715961 -0.030413596 -1.3298334 0.41071028 0.8673043 0.94582623 0.29579088 -0.18978433 0.6179629 1.0070708 -0.17441949 0.22712736 -0.99724317 -0.34210998 -1.4538994 1.1703159 0.7246713 -0.23936246 0.6800168 -0.87344724 -1.2277681
487 -0.20261163 -0.9672012 -0.49822214 -0.7106625 -0.75687045 -0.9458087 -0.31527767 -0.6599214 0.006262677 0.12774281 0.20610699 -0.7757713 0.8327621 -0.79879904 -0.333617 0.17410235 -0.2560759 0.45852748 0.36355692 0.2851321 1.0140631 -0.6648722 0.1955174 -0.97607404 0.04028199 -0.39926776 -0.2831464 0.578065 0.22164157 0.8734413 -0.7202004 -0.66552675
384 -0.4550154 -1.1903863 1.0645657 -0.30826414 -0.8021371 -0.729405 0.32065535 -1.2823789 0.23035234 -0.7402755 -0.3557219 -0.016208153 -0.9415554 -1.7126594 -0.2781548 0.48753896 -0.53770536 0.8946275 -0.09598032 -0.5416382 0.55343145 0.008181846 -0.048381433 -0.87539977 0.1574095 0.14790705 1.8403409 1.1986732 0.05933397 0.57025284 -0.2946261 -0.76674575
50 0.30186453 -1.1361216 -0.050199613 -0.7588468 -0.5981259 -0.2166846 -0.15429558 -0.15806726 -0.49967137 0.43036962 0.4219618 -1.270589 -0.42948943 -0.68753314 0.16501495 -0.4510727 -0.37125796 -0.22171776 0.5911476 0.63300616 -0.21853215 0.4257896 -0.3028574 -1.0768405 0.02530797 -0.20432472 -0.21693799 0.041005883 -0.39249098 -0.0882062 0.514906 -1.1147174
643 0.53766453 -1.3401754 -0.08655851 -0.643829 -0.7092536 -0.55025035 0.013786721 0.060732283 -0.04375752 0.24325655 0.5467367 -0.66579777 0.56394327 -0.92958367 0.8695781 0.11535002 -0.13574432 1.1363337 0.15151723 0.40628067 0.8575079 -0.4121398 0.50287175 -1.0390396 0.103009924 -0.12794933 0.33341372 0.38809928 0.6186625 0.6360466 -0.36387455 -0.82430923
265 0.048683774 -1.7145045 -0.98979175 -0.7025736 -0.24941762 0.0060567763 0.28311065 -1.0436091 0.6830342 0.19393319 -1.1712829 0.34197798 -0.119817816 -0.7234959 0.5120217 0.5565227 -0.18658403 -0.6010264 -0.37458664 -1.0206196 -0.87744635 0.15788314 0.040331963 -0.16692443 0.6385206 -0.48659188 1.1101615 0.94909394 0.04028738 2.108748 0.37397298 -0.015944054
509 0.84088355 -1.5362555 -0.7784914 -0.49424052 -0.4947071 0.19021748 -0.8568574 0.02079322 -0.0002726967 0.27171198 0.33324167 -0.609523 -0.43814054 0.008834809 0.14894421 -0.4023006 -0.77721673 0.55485183 -0.8746786 -0.10430777 -0.19505872 0.4067077 -1.0254513 -0.86372876 0.30138266 -0.25998503 0.63642585 0.8673 -0.08052524 0.5866202 0.78566974 -0.92425346
371 -0.5938416 -1.8560965 -0.57201624 -0.36157912 -0.006804199 -0.98535097 0.42268565 -1.4141701 0.43117324 0.2906724 -0.062625 -0.029530654 0.901828 -0.69747543 0.2850294 0.9993684 -1.3391836 0.17276594 0.31090698 -1.0311518 -0.45360303 1.0473207 -0.46683237 -0.23752838 -1.0264881 -0.5979967 0.9707345 0.18609081 -0.09268408 0.99135566 0.77146816 0.4810745
519 -0.5222548 -1.4264897 -0.3776489 -0.08892146 -0.31334004 0.1735894 0.3960648 -0.6983925 0.23925416 -0.4703877 -0.18086636 0.4501 -0.22571981 -0.026636502 -0.47854465 0.18419938 -0.23541188 -0.027018774 0.37870607 -0.73244447 0.68528044 0.70481247 -1.9814442 -0.33260137 0.6409791 -0.6741867 0.3490482 1.4639919 -1.7535093 2.0329833 -0.62978655 0.3402188
650 0.11535663 -2.0978036 0.33098993 -0.13667668 0.11245671 1.1389501 0.78071 0.6965623 0.27846795 0.41088456 -0.1289826 -1.6911576 -0.688326 -1.0416684 -0.76313895 0.12382205 0.12578636 0.090043165 0.21389231 -0.5993432 -0.10212828 -0.29124635 -0.38112998 -0.41505793 0.34243432 -0.37781596 0.94576174 0.5466828 0.15194933 0.25853655 -0.20587912 -1.045263
402 0.8236846 -1.2583108 -0.417689 -0.88020086 -0.6136445 -0.62106884 0.6414787 -0.18889382 -0.43322894 0.3680167 0.6394468 -0.48939273 -0.17915475 -0.16444105 -0.6605077 -0.05736498 -0.68595135 -0.037172686 0.83646584 -0.18522762 -0.3882031 0.32979032 -0.96381944 -1.307012 0.3027813 -0.22740479 -0.1804181 -0.23559056 0.4561625 0.43983224 -0.1041995 -0.56390345
260 0.36355513 -1.1054032 0.17047544 -0.9743258 -0.49937558 -0.09162317 -0.099859275 -0.15292841 0.2949709 0.36510092 0.25782773 -1.6157774 -0.16550682 0.3187601 -0.32794598 -0.13011113 -0.1640341 -0.863838 0.23233023 -0.27478945 -0.04593926 0.5974839 -0.660435 -1.3042083 0.6234447 -0.46664461 -0.035970397 0.6444283 -0.56685275 0.2537102 -0.8303006 -0.9702145
386 0.30099013 -1.3526256 0.075173005 -1.1784433 -0.46370015 0.43290627 -0.17454305 0.089373946 0.2906123 0.3658249 0.8053708 -0.46608007 0.49234363 -0.64518404 0.38714764 0.3289047 -0.50357515 0.3497596 0.40534943 -0.2266544 -0.6672077 0.15511054 -0.38931194 -1.2098396 0.42863622 -0.08605398 -0.28472447 0.10412738 -0.35959902 -0.7375751 0.24513842 -0.5202705
275 0.9587798 -1.3044224 -0.17797571 -0.95025027 -0.46801054 -0.6518897 0.5082119 -0.064030945 -0.60668623 0.40590626 0.588852 -0.40384716 -0.29376122 -0.011886244 -0.6947172 -0.080994375 -0.71140945 0.04731973 0.7092382 -0.12233563 -0.4997353 0.47072354 -1.1451101 -1.2852129 0.28548226 -0.08678251 -0.03614125 -0.21245365 0.29703254 0.56101036 -0.025889609 -0.5547468
436 0.62171084 -1.3392671 -0.8054816 -0.34339267 -0.26973453 -0.101555765 0.5022586 -0.4430963 0.81758606 -0.011215481 -0.92434263 -0.16692655 -0.4860256 -0.8640203 0.37275788 0.624821 -0.32310075 -0.4636127 -0.82418317 -1.3227669 -0.9500882 0.1234262 -0.098043114 -0.035453536 0.2185487 -0.78862286 1.2048427 1.1252528 0.009421796 2.3278918 0.17462063 -0.21229811
616 0.6361399 -0.90649676 0.09004597 -1.1052903 -0.01127935 0.71104956 0.13111943 0.6614871 0.012894307 -0.41018978 -0.3981035 0.34468862 -0.22006857 -1.5849949 0.89985067 1.2657585 -1.4113321 0.11748237 -0.4188502 -1.0460021 0.40922168 0.18629745 -0.08325863 -0.38339534 0.18726125 -0.7687883 -0.6405468 1.4640044 -0.9078671 0.6763171 -0.120508045 0.49213144
672 0.43168843 -1.0319735 0.096602075 -1.002141 0.12763175 0.93205184 0.32773682 0.5808134 -0.0130928345 -0.40030232 -0.25286978 0.07150981 0.18234295 -1.4248124 0.6477696 1.2213775 -1.00393 0.026943125 -0.3765223 -0.9356337 0.52800107 0.07660559 0.11739691 -0.06321993 0.11414535 -0.6461704 -0.6435301 1.4762548 -1.1042401 0.7980715 -0.10516873 0.6053758
144 0.54443747 -0.95095956 0.22624166 -1.1136839 -0.010903205 0.8061673 0.35648516 0.5083553 -0.01607443 -0.26492405 -0.29273695 0.12748902 0.042357534 -1.1739274 0.6279731 1.1549547 -0.8302901 0.048458293 -0.2640133 -0.95573163 0.67194223 0.04596008 0.047058582 -0.007024145 -0.0032832639 -0.56164175 -0.66445935 1.4708416 -1.0603969 0.68510586 -0.040432382 0.42202738
156 0.17285444 -1.0820578 -0.84450984 -1.5420047 -0.0658552 -0.845106 0.3313598 -0.17122418 0.031355962 0.72302806 0.9616512 -0.50064266 -0.32730538 -1.5469034 0.6794572 0.50105286 -0.598241 0.31345525 0.7322225 0.2300877 1.1800026 -0.55075026 0.5983229 -0.72572136 -0.10280673 -0.13220505 0.4491387 0.96490043 0.7565617 1.0329205 -0.20067641 0.28946376
188 -0.9260416 -1.5113039 1.3815775 -0.5904634 -0.21048024 -0.359326 0.30946904 -0.76165843 0.09413578 -0.7522176 -0.24624692 0.066576116 -0.89822036 -1.7004858 0.1407234 0.5839489 -0.17794098 -0.11255356 0.53004295 0.7117802 0.4540766 0.009470377 -0.400793 -0.30973634 0.3941543 -0.068081945 1.4316618 1.3468875 -0.3914853 0.27506855 -0.37819424 -0.27421194
21 0.31095994 -0.70498264 0.049745098 -0.13800204 -0.82169527 0.4174421 0.77538115 0.49546862 -0.518934 0.6798965 0.003100622 -0.656612 -0.085956596 -1.0638938 0.37904352 -0.29317868 -1.095245 -0.64600873 0.24390385 -0.25478086 0.2763114 0.88976985 -0.31456554 -1.2318758 -0.19682007 0.040331405 0.42002887 0.3139104 0.19428523 0.16170406 0.4538979 -1.1266809
175 0.35984826 -0.9141009 0.14490324 -0.8078358 -0.4468633 -0.1366342 -0.14188817 -0.30389786 0.16042566 0.2716075 0.23304863 -1.4698716 -0.05218632 0.28617966 -0.44596103 -0.13194051 -0.19643655 -0.83230734 0.3354497 -0.34366193 0.2362588 0.5316045 -0.5517363 -1.4294502 0.50337046 -0.48424792 0.0057691135 0.7244116 -0.4823059 0.15727605 -0.8402579 -1.0262456
287 0.58301437 -0.9087251 -0.09546866 -1.1531454 0.10321621 0.7750411 0.19887179 0.6072114 -0.018775454 -0.43741664 -0.39708632 0.2835734 -0.0869627 -1.6348577 0.81739086 1.235768 -1.3744559 0.101975374 -0.3289676 -1.0810802 0.5268955 0.32477584 -0.13116434 -0.3381486 0.2716396 -0.78708863 -0.58549714 1.5822214 -0.9996682 0.68076587 -0.17742032 0.5828016
62 -0.34864777 -1.3834084 -0.2905981 -0.11590038 -0.26814404 0.22342826 0.37409922 -0.7237374 0.076739304 -0.43014148 -0.3500172 0.6129825 -0.015201967 -0.14912483 -0.40595242 0.3020548 -0.37219626 -0.11737345 0.5213962 -0.8078656 0.5339545 0.61922145 -1.9159063 -0.2082097 0.53374934 -0.55688524 0.30751765 1.5226276 -1.587396 1.8742663 -0.58628076 0.41828763
286 0.16206115 -0.6082751 -0.06786408 -0.17984998 -0.9275839 0.3134554 0.99406195 0.5765397 -0.48429814 0.6089965 -0.085013844 -0.81501496 0.036499 -0.96652615 0.56519336 0.0064830636 -1.123442 -0.87714577 0.29019368 -0.26396376 0.5202857 0.68280137 -0.20721042 -1.318217 -0.23037502 -0.1515569 0.4105189 0.41240293 0.4047295 0.16441178 0.30782962 -1.1811097
321 -0.16468582 -1.0169088 0.7072716 -1.4470689 -0.36269915 0.23386255 0.16965164 -0.4544535 -0.035851307 -0.02214041 -0.44138342 -0.13620795 -0.87982666 -1.6340646 -0.56891525 0.30924505 -0.89783055 0.07884669 -0.8414979 -0.7690387 0.13980877 0.69265336 0.055464234 0.0628146 -0.78965247 0.16220638 1.1288223 0.9455805 0.892245 0.79958993 -0.1777926 0.5884566
347 0.17644645 -1.0225916 -0.17413011 -0.7068767 -0.18004335 0.6104823 0.14948137 -0.96919435 -0.09066464 -0.008818222 0.7824138 0.071973234 -0.3479473 -1.0277798 0.24118505 -0.76326746 0.101758726 0.30258092 0.7558305 -0.37916213 0.13845286 0.4060774 -0.47647184 -1.2021853 -0.43012124 0.4402314 0.33619076 -0.02280134 -0.9049535 0.6180745 0.13279995 -0.65029657
676 -0.41019073 -1.4975259 -0.29750237 -1.5194713 0.16324924 0.14317545 0.13091685 -0.9415362 -0.42894882 -0.5901478 -0.37377807 -0.072616525 0.6633561 -0.30355775 -0.9304816 0.80259955 -0.20678872 0.10873338 0.9459017 -0.2587674 0.26599184 0.08268348 -0.10397938 0.23260559 -0.08003884 0.80612445 -0.20294425 1.354336 -0.7611994 1.4799488 0.6459551 0.12191276
220 -0.24200211 -0.54867744 -0.007453932 -1.0379039 -0.23313825 0.38371587 -0.7153943 0.43360338 -0.5359879 0.3703719 0.63913286 -0.5827037 0.03275991 -0.5411979 0.002445798 -0.12388455 -0.92619234 -0.8798052 0.41529462 0.11296413 -0.79413646 -0.34388384 -0.7053878 -0.68579745 -0.13610113 -0.6909823 0.502535 0.99068505 0.114046685 0.9374757 -0.04359391 -0.6138791
101 -0.08966709 -1.4187055 0.029225748 -0.52068615 -1.7690266 -0.051821135 0.18444018 -0.037889928 0.21223196 0.29191333 0.48939613 -0.9923481 -1.087328 -1.0716246 -0.40608627 0.1595973 -0.936621 -0.25122374 0.91396654 0.20362885 0.33102793 0.99760014 -0.16951899 -0.82194215 0.19446963 -0.04904872 -0.6253424 0.7726578 0.27744368 0.61693555 0.35029334 0.6661358
382 -0.32206523 -1.9431745 0.4498766 0.024591153 -0.0069114226 1.1289289 -0.2754587 0.037406564 0.6067352 -0.030329559 0.3068228 -1.0691056 0.85376734 -0.6596914 0.112776935 0.6420772 0.4448576 0.46692845 -0.4452851 -0.007477265 0.54352856 -0.27687454 -0.15595701 0.08147518 -1.1273358 -0.32870173 0.96210253 0.71757275 -1.4615346 1.9220815 -0.35422564 -0.5655849
304 0.3249593 -1.1942213 -0.09691662 -0.9566025 0.12013407 0.8137727 0.22086196 -1.0763515 -0.64151865 -0.17779927 0.53867334 -0.096537255 -0.99349123 -0.7912674 0.1557353 -0.57904345 0.14340006 0.3195182 0.57070524 -0.92221594 -0.049070522 -0.07885815 -0.35848448 -0.94071305 -0.72835857 0.43006766 0.7177115 0.2996578 -1.4430099 0.64103 0.030562844 -0.7569723
385 0.35853153 -0.68764985 -0.5307843 -0.95562994 -0.84240454 -1.7021693 0.1311432 -0.110319346 0.12365194 0.33464155 0.34658492 -0.821681 0.9470607 -0.95242685 0.17307411 0.10803594 -0.39287302 0.8917336 0.6373376 0.5437778 0.1025697 0.044254832 0.36903834 -1.007997 -0.28186974 0.18232088 1.0531151 0.5971062 0.061948225 1.6956023 -0.058432106 -0.32048804
388 -0.6524016 -1.4009969 -1.2153915 -0.7687377 0.24842593 1.207045 -0.14613114 -0.604728 0.2185358 0.03226897 -0.4417553 0.077084504 0.31318033 -1.8314055 -0.8875439 0.9482312 -0.7050384 0.8151264 0.078740254 0.5192779 -0.18666436 -0.7560188 -1.0718108 -0.1291645 -0.95424414 -0.92299426 0.3740514 0.548889 0.12831883 0.65028715 0.025228117 -0.57814056
642 0.6832751 -1.1129482 0.12770288 0.011984149 -0.1615559 0.36217034 -0.22103062 -0.20988865 -0.61460114 -0.18827288 -0.20443253 -0.88953125 0.39924753 -0.57550037 -0.12834536 -0.17257693 -1.0494624 -0.29942414 1.5819386 0.17677566 0.13486476 -0.076923385 -0.50143623 -1.4657649 -0.13596202 -0.49454233 0.2719525 0.22059803 -0.18571463 -0.039115116 0.43635854 -0.18469065
636 -0.011630126 -1.3155748 -0.08319566 -0.3906114 -0.35791484 0.49577183 -0.3464412 -0.7968955 -0.07803276 -0.13307115 0.6318874 0.29234326 0.028395528 -1.245004 0.4769533 -1.335182 -0.47108835 0.36341837 0.564229 -0.42438543 0.25809216 0.057456046 -0.6648704 -1.2046858 -0.8766513 0.34502393 0.79708165 0.08994887 -0.8051801 0.5617173 0.73740584 -0.6384863
168 0.13593064 -0.9721497 -0.22806804 -0.8180345 -0.21668825 0.514279 0.013784408 -1.0208203 0.00073930196 0.17130145 0.7595977 0.041819166 -0.33160368 -1.1877315 0.20677516 -0.83623946 0.080564186 0.11177843 0.6695865 -0.5429669 0.049476873 0.22002767 -0.13350685 -0.9366709 -0.53299075 0.29923534 0.6595987 -0.09389643 -0.89390534 0.56096166 0.06836464 -0.61316496
393 0.1818317 -0.9254611 -0.13698359 -0.79579103 -0.16095902 0.7457381 0.14846633 -0.86398023 0.03561024 0.24796002 0.79629475 0.10036472 -0.3277055 -0.9695703 0.17071277 -0.7627901 0.17147505 0.20499462 0.52267563 -0.41007677 0.08939065 0.27169803 -0.34903646 -1.1400288 -0.5659573 0.4030759 0.7172528 0.11347615 -0.9259966 0.52691853 0.111765794 -0.80382586
591 0.8036199 -0.71152294 -0.8086618 -1.0318264 -1.496678 0.06895203 0.38528404 0.014026623 0.59651273 -0.4172886 0.85469997 0.047271162 0.5769686 -0.82887197 0.063337095 0.36331576 -0.56627345 0.5226705 0.17042887 0.24007447 1.4723284 -0.35743004 -0.28805724 -0.8352009 0.35867524 -0.13524427 0.75542307 0.926899 -0.34351248 1.3317178 -1.2472608 -0.99942344
183 -0.133649 -1.0222812 0.42738906 -0.57981145 -1.5841285 -0.2148207 -0.14176494 0.02148953 0.2593434 0.63386816 0.70326394 -0.8391371 -0.7561285 -0.6320969 -0.35162765 0.17342985 -1.04073 -0.28479025 0.7804987 0.30929112 -0.025832899 0.7650521 -0.23655765 -1.0508076 0.11320233 0.22956091 -0.3933447 0.6574193 0.018988214 0.37581372 0.33858332 0.43781266
314 0.036746677 -0.95987153 -0.18043628 -0.76734143 -0.34959432 0.6770501 0.027660975 -0.8454655 -0.09918268 0.15945768 0.6081235 -0.18904425 -0.43077493 -0.9706772 0.2958988 -0.826064 0.050219636 0.07964308 0.631831 -0.33779764 -0.14979585 0.21520913 -0.29809567 -1.1304898 -0.44609228 0.47455576 0.42674297 -0.015911289 -1.0893984 0.6109042 0.10677457 -0.70554537
195 -0.456698 -1.5249316 -0.2295549 -1.4455458 0.20914435 0.16001241 0.17145033 -0.9977056 -0.3044358 -0.5926704 -0.14671806 0.007683336 0.7033963 -0.414235 -0.6408532 1.0298699 -0.5204072 0.09965238 0.59901816 -0.45348564 0.3363415 0.10673569 -0.0101239355 0.2146057 -0.016008316 0.7535794 -0.3473478 1.3786346 -0.82677865 1.5767934 0.83879393 0.32290962
399 -0.03283498 -1.5538654 0.10177857 -0.4208003 -1.5475483 -0.31896392 0.08511247 0.006651166 0.74901545 0.63148063 0.47764596 -0.9210486 -0.71863174 -0.7123964 -0.23499286 0.34078953 -0.6322836 -0.14504135 0.47127563 0.35847226 -0.18793763 0.8837366 -0.16370806 -0.8886416 0.7074596 0.39592007 -0.41233927 0.7413897 0.06634922 0.6984539 0.43671942 0.4567633
317 -0.4375457 -1.5067683 -0.32075432 -1.4627131 0.17786239 0.1263251 0.21302933 -0.86268127 -0.2548035 -0.5920464 -0.29146555 -0.10847017 0.68327135 -0.36534745 -0.7910607 0.82047087 -0.28918433 0.0027440276 0.782645 -0.3079896 0.055838957 -0.049775496 -0.022059422 0.12770891 -0.05473111 0.8880519 -0.35342994 1.2346454 -0.71845615 1.5063275 0.7471978 0.17636333
522 0.31106943 -0.91360384 -0.3204429 -0.588857 -0.19720219 0.67181957 -0.029360369 -0.99193084 -0.012245937 0.17985114 0.721257 0.03081775 -0.3069095 -1.1459183 0.15969555 -0.7016346 0.060682535 -0.03042271 0.7059241 -0.36893052 -0.0023134016 0.4253765 -0.17267853 -1.1965586 -0.4661209 0.39878288 0.63262355 -0.05880637 -0.96265215 0.6003554 0.19341305 -0.6821072
675 0.2273163 -1.113282 -0.7502568 -0.73739344 -0.8455313 0.5047973 0.53989 -1.2105207 -0.08553019 -0.06589245 0.8860442 0.4708648 -0.01444765 -1.06603 -0.2526124 -0.31633264 0.44136524 -0.23683792 0.867677 -0.6101543 -0.45666012 0.42248088 -0.84686124 -1.4945896 -0.8145585 0.53965735 1.1931291 0.27782342 -0.46735343 0.33355576 -0.43582198 -0.5637431
110 0.64960146 -1.3357522 -0.8256233 -0.3432764 -0.2221422 -0.20852028 0.51925784 -0.4127127 0.8088161 -0.0340479 -0.99891025 -0.1531998 -0.34347424 -0.85346013 0.46291304 0.5826476 -0.31574407 -0.4651047 -0.8451105 -1.2431768 -0.8553033 0.070717834 -0.11803152 0.031475518 0.2331796 -0.7171018 1.1853119 1.1252534 0.03399799 2.2651367 0.11698109 -0.2097611
387 0.43641335 -0.9378627 -0.22028692 -0.8691224 -0.15695475 0.62737167 0.08306513 -1.0514616 0.044130627 0.14311586 0.7076119 0.014960648 -0.24590884 -0.973137 0.21752247 -0.79052186 0.026946353 0.053531874 0.68242955 -0.35315546 0.10158817 0.557057 -0.12993969 -1.2501407 -0.42338717 0.35880303 0.5825085 0.04999138 -1.0001493 0.39158824 -0.12104766 -0.6140876
280 0.020655893 -2.0972621 0.5215945 -0.21947083 0.1672398 1.1958603 0.6841319 0.5115576 0.27571675 0.54866827 -0.06451794 -1.6948519 -0.7085665 -1.1343753 -0.8068673 0.3154989 0.28624853 0.018430213 0.33906 -0.6210382 -0.2625594 -0.3174873 -0.33657733 -0.5620723 0.3278697 -0.40882036 0.70687455 0.59321266 0.13822521 0.23610501 -0.26380342 -0.9706619
560 0.5952233 -1.8106515 -0.05834674 -0.11193613 0.043012824 0.16820696 0.3441639 0.4348035 -0.12767506 0.7005009 -0.04539401 -1.003118 -0.5275784 -1.1880792 -0.7173039 0.29421216 0.48400027 0.19570905 0.47186774 -0.69418275 -0.31398228 -0.14405742 -0.19898926 -0.83692366 -0.19069801 -0.1828782 0.024448093 0.5899623 0.4374324 -0.009426353 -0.2742675 -0.983764
644 0.5768883 -1.7288288 0.11879406 0.103627406 -0.2535939 0.44230348 0.23843996 0.4392168 -0.05402467 0.7496556 0.013273705 -1.232558 -0.7521512 -1.1860077 -0.69277495 0.18493241 0.4269991 0.2916786 0.42955294 -0.4442705 -0.39825252 0.036219206 -0.17173001 -0.99510235 -0.1880276 -0.07749996 0.05863308 0.7742815 0.46125445 0.13359307 -0.24842352 -0.92970234
232 0.096328184 -1.0458658 -0.91248846 -1.4156113 -0.17636745 -0.76925886 0.47788462 0.046340488 0.058318686 0.6112454 1.014405 -0.4467761 0.052490097 -1.5770044 0.3648211 0.52066725 -0.35578683 0.60643315 0.7817697 0.30497795 1.1506888 -0.49029443 0.5026185 -0.75877476 -0.12060119 -0.17638156 0.2536292 0.81874245 0.6167647 0.97165185 -0.35352182 0.10492163
417 0.022423519 -1.7437392 0.55313724 0.031198805 -0.21068649 1.093117 -0.19304106 0.03350762 0.26622212 0.08533224 0.2488931 -0.93896073 0.49472094 -0.6636501 0.32380542 0.8930341 0.31843457 0.09212951 -0.7598744 0.004480509 0.74252415 -0.14258325 -0.05874239 0.24641031 -0.85901827 -0.24156441 0.582095 1.0804062 -1.388794 1.7014277 -0.17817545 -0.3898484
158 0.1778505 -0.7392143 0.1577131 -0.271131 -0.8950361 0.43561476 0.85268927 0.45769176 -0.4792124 0.6073617 0.053713694 -0.48594153 0.05509615 -1.1074347 0.438312 -0.16941963 -1.2325165 -0.6877444 0.4639357 -0.3593876 0.42557406 0.7742638 -0.18492731 -1.3749565 -0.22742067 -0.030589614 0.33337423 0.2403443 0.19764146 0.050377548 0.19641441 -1.3142103
343 0.6372787 -1.0837659 -0.4631084 -0.38079548 -0.02042574 -0.51236457 -0.6678923 -0.3935197 -0.038255546 0.7107655 0.10475556 0.1355234 0.46284375 -1.1237903 -0.5674537 0.13720705 -0.8148012 -0.6494027 0.01624244 -0.075061105 0.085460186 1.1985261 -0.40057534 -0.7821142 0.258174 -0.94976187 -0.18532886 0.17543837 -0.78707135 0.36051962 0.013394408 -0.6495261
36 0.316785 -1.407794 -0.96073 -0.78633904 -0.28938675 0.1811001 0.40530425 0.5719349 0.028659863 -0.09784393 -0.2908215 -1.1637088 -0.5928225 -0.19395956 0.33632722 0.54735166 -0.78313416 -0.59526926 0.12095982 0.44513735 -0.22022201 0.24649614 -0.4510816 -0.33118042 -0.071846105 -0.3173559 0.5993034 -0.5508463 -0.94752634 0.8845263 0.14496072 -0.24617592
696 1.1731668 -0.78495955 0.98116934 -1.2996492 -0.09923617 0.38771117 -0.21969995 -0.45647067 -0.5202416 0.62185663 -0.39190736 -1.1902056 -0.19136372 -0.55307835 0.7882385 0.53922486 -0.9385613 0.027677108 -0.10175183 0.5841704 -0.16112912 0.98791534 0.52843416 -1.7925823 0.049089026 0.17402521 0.23474278 0.78537774 0.07658383 0.6121313 -0.33869502 -0.6410528
100 -0.64848006 -1.4784342 -1.223363 -0.8005678 0.30092382 1.199499 -0.14636573 -0.6051883 0.23572624 0.075060844 -0.4513191 -0.006676275 0.38586798 -1.8067985 -0.87844396 1.0176283 -0.7205395 0.8117732 0.036843557 0.5534709 -0.22841254 -0.7202987 -1.0743608 -0.046982806 -1.0063598 -0.90708077 0.3672872 0.54839814 0.18123202 0.63329464 0.06422317 -0.5268349
177 0.25088292 -0.9892354 0.09808687 -0.94574744 -0.40666515 -0.070076205 0.0018140519 -0.00032956203 0.011061055 0.21134347 0.23529951 -1.7288023 -0.08378394 0.23182131 -0.18312597 -0.29899612 -0.27518046 -0.88210785 0.38404715 -0.20699112 0.037053116 0.4346207 -0.5224491 -1.3666683 0.55880314 -0.298399 0.013442822 0.7740709 -0.47438836 0.08237471 -0.8313117 -0.98791546
327 0.17013289 -0.7567405 0.2661547 -0.68995297 -0.74025863 -0.8471848 1.1614122 0.56278753 -0.46568483 -0.37568405 -0.20720194 0.1286075 -0.47287503 -1.2120519 -0.38998234 1.3380429 -0.6952207 -0.24814856 -0.10296401 -0.30752438 0.43474004 0.09571457 -0.17279842 -0.97163117 -0.6016211 -0.9133398 -0.117576875 1.7211554 -1.9852974 0.116361804 0.37238723 -0.241971
632 -0.7276811 -1.7117224 -1.0462347 -0.8611876 0.1424753 1.4438356 0.037889425 -0.7430959 0.34418422 0.39593926 -0.4557739 0.347024 0.31153232 -1.3763741 -0.62970465 0.9953672 -0.89145124 0.72277164 0.10851404 0.69637346 -0.31713614 -0.40470606 -0.96035844 -0.10771445 -0.81988996 -0.9235099 0.11905068 0.5348259 0.3420481 0.59049547 0.245378 -0.3395858
429 -0.6844504 -2.0077364 -0.2790265 -0.2720409 -0.76309186 1.336071 -0.096976385 -0.8083096 0.73619336 0.3167743 0.07352314 0.8454546 0.12412582 -1.3551699 -0.08376277 0.87897754 -1.3972409 0.8895149 0.60431033 1.1512958 -0.582416 -0.053690597 -0.73284197 -0.09535358 -0.3072946 -0.53063196 0.6271032 0.6920025 0.39914063 0.60301185 -0.34107292 0.03446698
131 -0.4473568 -1.4365141 0.22462137 -0.6522747 -0.41230765 1.0687106 1.2187186 0.2234728 0.10336808 0.14435987 0.22939219 0.4683798 0.0683588 -0.886661 -0.045157768 0.9743348 -0.4504 -0.00791867 -1.1689365 -0.33245865 0.72808313 -0.41195342 -0.17658481 -0.8253784 0.44818413 -0.40020943 -0.49348384 1.237142 -1.1444217 0.70791155 -0.30284604 0.13723153
273 -0.46074402 -1.4416491 -0.11725009 -0.47354 0.07653024 0.20940967 1.1577687 0.6448546 0.5454251 -0.6843317 0.7247124 -0.12146071 0.25632644 -0.9958612 -0.10924069 0.6020321 -0.8644076 0.94025874 -0.1048065 -1.2876607 -0.22025128 -0.32640684 -0.4058328 -0.5075367 -0.7295959 -0.25399092 0.6816214 1.020531 -0.7282815 0.6907914 -1.147225 0.39885235
368 0.11522948 -1.0005587 -0.07957938 -0.7235108 -0.3526442 0.6022441 0.01120382 -0.9476442 0.0743494 0.18977256 0.79361683 0.019364776 -0.49178585 -0.96377397 0.10128979 -0.83850026 0.047813375 0.019689186 0.716206 -0.4538422 -0.0149671985 0.34744686 -0.27067816 -1.1643785 -0.4978836 0.32132462 0.5067833 0.081839904 -1.0105305 0.5736148 0.03507502 -0.6472542
531 -0.081959 -3.0172055 0.066825055 -0.30850625 0.14761528 -0.11052473 1.022778 -1.3273782 0.9326053 0.85029835 -0.65895545 0.2261466 0.30549654 -0.60225254 0.26570377 0.5453225 0.27753022 0.033472862 -0.24548192 0.25364703 -0.05510774 0.7291352 -0.6559379 0.73738295 -0.43644658 -0.25754437 0.4353278 0.9208244 0.30479133 0.88718134 -0.010594939 -0.2499704
525 0.5307149 -1.7119619 0.13454157 -0.043490034 -0.07720995 0.56256056 0.45842892 0.5472242 -0.2134936 0.58275586 -0.11903119 -1.1190628 -0.6596875 -0.87470496 -0.6872075 0.26221755 0.21452835 0.11562647 0.7026281 -0.43589047 -0.2680602 -0.22211027 -0.32002056 -0.90060943 -0.441922 -0.0930453 0.23302984 0.3964079 0.38252348 0.10366666 -0.16567442 -0.8820672
443 -0.4375418 -1.4100697 -0.2677163 -0.10021003 -0.39766958 0.11499768 0.28807756 -0.66312754 0.1071731 -0.4271023 -0.22750828 0.5872723 -0.060121734 -0.18578236 -0.42990562 0.19911288 -0.42909533 -0.18972394 0.43056893 -0.7379881 0.6218141 0.51652247 -1.9706365 -0.18990129 0.592412 -0.5499228 0.36008608 1.3994321 -1.6656199 1.7781045 -0.52506715 0.3872334
410 -0.43326142 -1.4461536 -0.07531346 -0.5006735 0.11978612 0.15226404 1.2088207 0.6707207 0.5864843 -0.6671922 0.6952004 -0.087182395 0.2943655 -1.0181546 -0.17920566 0.58463275 -0.8957158 0.89136034 -0.03622099 -1.3517188 -0.29990256 -0.20016754 -0.3715396 -0.5133871 -0.7636351 -0.33945477 0.6502128 1.0672643 -0.79441065 0.6145059 -1.0853804 0.46396405
61 -0.16941799 -1.3206803 -0.78918886 -0.9721748 -0.2515483 -0.44900936 -0.30036217 -0.41722965 0.092196055 0.16952331 -0.71762925 -0.999222 0.20759557 -1.6142317 0.45841023 0.7462486 1.0373214 0.3044233 0.25669664 0.605953 0.9214287 -0.22409843 -0.21692488 -0.7770327 -0.09601056 -0.5030378 1.4069963 0.09899981 0.67903984 1.6729912 -1.0115777 -1.1156552
54 0.10961079 -1.0658462 0.5840728 0.008790851 -0.1077785 0.10149739 0.5186279 -0.38237828 0.36276233 -0.44573757 0.16528513 -1.1323739 0.5797076 -1.1617042 -0.21193217 0.7615798 -0.38763648 -0.12653334 0.5185859 -0.08583482 0.17759311 0.4570858 -1.8189286 -0.5557867 0.25791737 -0.7544514 -0.5954063 -0.27557635 -0.19388688 1.1997828 0.33425093 -0.8739625
308 0.11263826 -0.90540487 -0.10266368 -0.10043928 -0.8237924 0.4074856 0.8551509 0.562179 -0.52983737 0.67885184 -0.120944835 -0.6580505 -0.09161487 -1.301245 0.36792833 -0.11665537 -1.1997321 -0.5786172 0.23958571 -0.35793507 0.55304784 0.90290725 -0.34423074 -1.1419395 -0.29848143 -0.035741605 0.2558248 0.3179778 0.30277947 -0.08156494 0.23113057 -1.2463983
477 0.6178644 -1.7265596 0.023448044 -0.17007971 -0.13702361 0.25093725 0.43159682 0.5182974 -0.22218125 0.8144873 0.082902774 -1.0611509 -0.7113842 -0.9906945 -0.6943019 0.2937802 0.3836928 0.2859968 0.53402555 -0.51260155 -0.43821126 -0.1456121 -0.3800824 -0.94573444 -0.26607922 -0.16569711 0.14898007 0.5683116 0.6127848 0.13360044 -0.16486216 -0.9646308
472 0.19787079 -0.9726991 -0.1309115 -0.904913 -0.2693551 0.88884634 -0.08174858 -0.8611641 0.031915326 0.35093635 0.82136434 0.015045149 -0.45432517 -1.0177897 0.22255929 -0.80683595 0.029355437 0.1510378 0.5912634 -0.41490993 -0.14970233 0.22210854 -0.22971605 -0.9970096 -0.36066753 0.49385378 0.6710329 0.074282244 -0.8457169 0.5807287 0.2696899 -0.76751965
506 0.48746917 -1.7326853 0.09594197 0.06620833 -0.087439075 0.28341967 0.41428602 0.5641344 0.009158668 0.70321184 -0.12676649 -1.0919126 -0.58596975 -0.8840132 -0.64031255 0.52011603 0.33772823 0.18934913 0.4831764 -0.4192183 -0.26625645 -0.03293008 -0.15993245 -0.9589819 -0.2774072 -0.17595443 0.09469751 0.58523726 0.40716353 -0.0132828085 -0.20665862 -0.909852
299 0.51485705 -1.7489837 0.27158633 -0.08810004 -0.0014129574 0.32383177 0.30577007 0.403527 -0.1577088 0.68299955 0.04900338 -1.1236924 -0.5122431 -1.0776277 -0.59567744 0.2725213 0.5348693 0.3673315 0.76344854 -0.4663133 -0.32210356 -0.2648513 -0.1595074 -1.1030561 -0.31007844 -0.12648898 -0.010731528 0.6909472 0.47772023 0.04645247 -0.26323846 -0.95175743
2 0.33710387 -0.86128026 -0.51130563 -0.76048255 -0.94188005 -1.6294808 0.06934966 0.00081959367 0.20524724 0.20906164 0.37414277 -0.8296337 0.81066984 -0.80106115 0.07372077 0.043605465 -0.5076562 0.9096855 0.5813783 0.48734593 0.11432444 0.18109372 0.41951317 -0.956194 -0.12139379 0.3403947 0.8218803 0.7109089 0.09794482 1.6683769 0.09990758 -0.49031907
485 -0.72573394 -1.1150098 0.8067305 -0.23504698 -0.7109592 -0.5455717 0.70036006 -1.8323797 -0.08844881 -0.4675193 -0.579067 0.21836537 -1.2080531 -1.695875 -0.6858195 0.59750414 -0.30830783 0.20584495 -0.25285983 -0.21484594 0.34423774 -0.34775242 -0.22109528 -0.862622 -0.4575766 -0.3758176 0.87826973 1.0157852 0.0070180027 0.7519779 -0.66910017 -0.4769513
231 0.069246314 -0.7911636 0.25814646 -0.63063407 -0.6955873 -0.78870404 1.2033206 0.5712212 -0.43528396 -0.39176533 -0.07471195 0.20247702 -0.4250279 -1.1731832 -0.39830467 1.2580861 -0.6008311 -0.22268395 -0.2234934 -0.30193868 0.44808778 0.06340656 -0.19886008 -0.9889235 -0.66120875 -0.8668095 -0.004079734 1.6777292 -1.9368534 0.15943387 0.3338723 -0.22073498
513 0.5432693 -1.8321713 0.24104151 0.016689979 -0.23901024 0.35492602 0.36295772 0.26828295 -0.01994806 0.6538468 0.17499095 -1.1566331 -0.63064164 -1.2730999 -0.6466896 0.2824141 0.52494836 0.33989146 0.7209544 -0.39384124 -0.31472135 -0.16873656 -0.1252965 -0.9906295 -0.23215812 -0.1612274 0.1452678 0.63714665 0.48085126 0.102508105 -0.17798884 -0.9143666
503 0.438062 -0.88340414 -0.21927543 -0.78441787 -0.34200573 0.73259556 0.021674879 -0.9742672 -0.015851548 0.35996684 0.72979283 0.1123729 -0.33459502 -1.0525181 0.16177584 -0.6625242 -0.05646427 0.043949585 0.5510819 -0.3640667 -0.065404624 0.51066303 -0.1865057 -1.1924433 -0.43980294 0.36370134 0.65831256 0.027166428 -0.92631114 0.48451972 0.038072303 -0.7248667
270 0.8088199 -1.2168996 -0.10712997 -0.10736152 -0.20250751 0.34183884 -0.2735811 -0.33658075 -0.5629334 -0.26862016 -0.017153524 -0.793997 0.4716994 -0.40184546 -0.25239098 0.10156769 -1.3103387 -0.24062532 1.394526 0.32692018 0.22097911 0.05463427 -0.5871455 -1.4887179 -0.08119836 -0.6211363 0.039697263 0.12877439 -0.137009 -0.10912328 0.4640406 -0.21963574
618 -0.9484936 -2.3803244 -0.45141286 -0.8665411 -0.512488 1.5454607 0.8252697 -1.1798911 -0.110972896 0.6625421 -0.038136397 0.9995022 -0.30688664 -1.0346293 -0.63348365 0.5262278 -0.77516377 0.5511107 0.47858676 0.9713418 -0.49945477 -0.089892715 -0.3781031 -0.4291109 -0.15922971 -0.8736529 -0.05993688 0.396604 0.5904733 0.5706785 -0.36700302 -0.30235228
378 -0.60918653 -1.8867447 -0.28433418 -0.6237269 -0.015282186 0.42034304 0.65180707 -1.2039396 0.45427895 0.4926882 -1.0034279 0.32722297 0.13864914 -0.4012014 0.76222026 1.0670097 -0.18900208 0.20878954 -0.66019684 0.17864124 0.54391336 0.68941426 0.5885007 -0.6114533 -0.5943176 -0.3323952 0.47228402 1.0815629 0.11329533 1.1416504 0.42067242 0.72541076
585 -0.23965564 -1.7515887 0.67363584 -0.29467428 -0.5068801 -0.7107331 0.7059041 0.388126 -0.4081927 0.075197615 -0.68971163 0.27957708 -0.173979 -1.0459579 -0.35873052 1.7366648 -0.32354003 0.11755538 -0.1056638 -0.3039201 -0.06532077 -0.101947576 0.42048785 -0.7648999 -0.67617416 -0.7872437 -0.20305407 1.335865 -1.7660097 0.39990142 1.0155176 -0.30170614
244 0.21396884 -0.9861999 -0.23241936 -0.7624001 -0.19807327 0.7118103 0.11036925 -1.0825973 0.007607286 0.2294056 0.7685206 0.09984883 -0.24072275 -1.0616184 0.29903525 -0.7845334 0.03147731 0.061020736 0.50551814 -0.40290195 -0.020338837 0.5958129 -0.28534636 -0.98408556 -0.42911297 0.4040339 0.5324733 -0.07158362 -0.8180429 0.63011545 0.31417626 -0.5981344
452 0.18939449 -1.6371833 -0.92301995 -0.46420804 -0.1380252 0.075525396 0.4595895 -0.82763064 0.79634875 0.21608031 -0.9684383 0.19891827 -0.1040169 -0.5922257 0.44000462 0.5243266 -0.102299966 -0.48144174 -0.5867816 -0.92140096 -0.9472954 0.107070595 -0.012470528 0.029339368 0.36670673 -0.56816065 1.0037738 0.976398 0.14343704 2.1066284 0.38624984 -0.10904352
466 0.040848862 -1.2664669 -1.6535658 -0.97339946 -0.83207494 -0.38922 0.69104165 0.16709864 0.31135574 -0.03329615 -0.27611622 -1.1345906 -0.15751858 -0.3767959 0.32710254 0.33340767 -1.0920101 -0.2365523 0.2660068 0.66086745 -0.39262202 0.4251263 -0.5466793 -0.48678857 -0.15446837 0.18990457 0.70116866 -0.36241198 -1.5425955 0.8457846 0.06336429 -0.15325329
439 -0.15596099 -0.95314467 -0.06899427 -1.334055 -0.08209357 1.026042 0.43695825 -1.0488572 0.02326013 0.29993752 0.7934853 -0.083916895 -0.22477865 -0.85576785 0.06667332 -1.1030357 -0.30485287 0.51694006 1.0398064 -0.16269192 0.16356188 -0.19608437 0.040976547 -1.225207 -0.3372139 0.14254765 0.77766275 0.21487924 -0.7869825 0.38484553 -0.09254565 -0.65445495
223 0.45337218 -0.9708534 0.13693386 -1.0251216 0.09132223 0.7461794 0.28316477 0.5724016 -0.08591204 -0.3884915 -0.13565905 0.052965377 0.140094 -1.3018376 0.64357036 1.1817544 -1.0980382 -0.032358117 -0.3013257 -1.019093 0.40880916 0.03172883 0.0476994 -0.072802946 0.027388088 -0.56962776 -0.68493015 1.4178848 -1.0166507 0.7316584 -0.06369674 0.6075201
33 -0.65160275 -1.3347813 -0.013602991 -0.3386354 -0.07400625 0.09750218 -0.74978346 -0.63424915 -0.5983806 -0.17408486 0.08967466 0.33105043 0.28869587 -0.94700325 -0.5849073 0.48738775 -0.9987803 -0.26935884 0.22613035 -0.81053424 0.9550728 -0.21415685 -2.186152 -0.14046104 0.6210589 0.19611427 0.49047574 1.7283475 -1.1368746 1.2385312 -0.28694123 0.65207094
130 0.17070301 -0.80996555 -0.2486885 -0.84614646 -0.38652176 0.6332302 0.072371945 -0.84472406 -0.10601596 0.17566176 0.82135254 -0.066571824 -0.3614913 -0.9415342 0.14496319 -0.67092335 0.12029245 0.15004945 0.6174623 -0.2869248 0.017966231 0.2416209 -0.13970663 -1.1179676 -0.4740777 0.3943073 0.54975057 0.08651095 -0.8787814 0.5672665 -0.016975282 -0.55517125
373 0.5482832 -1.68414 0.20065227 -0.049535085 -0.15593664 0.3614967 0.38742176 0.5296781 0.07044763 0.8013644 0.108758695 -1.0890535 -0.69099104 -0.9137817 -0.82748103 0.25882354 0.3113673 0.3142048 0.50697833 -0.3993638 -0.39147848 -0.09834794 -0.32256755 -0.8858675 -0.18237413 -0.11279797 0.31856564 0.8074039 0.4890831 0.079679415 -0.05470123 -0.8414709
691 0.29411486 -1.0366182 -0.13778344 -0.7491465 -0.21399048 0.7283675 -0.045497563 -1.0076748 -0.1203895 0.0976658 0.7168974 0.05464677 -0.30706316 -0.9649578 0.19367084 -0.7135128 -0.031364504 0.15083072 0.622712 -0.32787412 0.030298524 0.3694518 -0.36120972 -1.2355437 -0.53998333 0.42109415 0.6883398 -0.007593803 -1.0674819 0.40113735 0.13609082 -0.7234655
390 -0.3440832 -1.5412184 -0.34687066 -1.4001783 0.098240815 0.2368485 0.28580987 -0.9659096 -0.21447909 -0.5123704 -0.32848898 -0.06328344 0.60130566 -0.43436292 -0.8925451 0.93735695 -0.32413465 -0.050859734 0.59412915 -0.22795458 0.11816648 -0.008551856 0.18065734 0.23332624 0.016451435 0.72558975 -0.42530406 1.2619975 -0.5930749 1.4659191 0.8987314 0.14013678
457 0.18926817 -0.8570431 -0.14651045 -0.23253612 -0.85822 0.21972719 0.89210784 0.64782506 -0.5590819 0.49556556 -0.08805721 -0.45069462 0.09646633 -1.1101363 0.43104306 -0.1376989 -1.2934446 -0.65066886 0.5134984 -0.28278887 0.63615316 0.7657341 -0.2570879 -1.2240934 -0.13009188 -0.20889732 0.24908358 0.21075733 0.2434102 0.057289604 -0.038513366 -1.2900547
364 0.4794094 -1.6670635 -0.029607499 0.0684518 -0.12804052 0.5444541 0.4271149 0.43874666 -0.075161934 0.6005754 0.12163244 -1.0812768 -0.658879 -1.1467167 -0.71339905 0.2928228 0.43859273 0.14276296 0.6389609 -0.61113137 -0.3522934 -0.04523845 -0.1261795 -0.94995373 -0.36406046 -0.1422194 0.058632117 0.6387091 0.40811324 0.1731365 -0.04549272 -0.8665789
427 -0.40992495 -1.3046819 0.64740205 -0.8513609 -0.19885543 -0.058970965 0.09824468 -0.8974652 0.085543744 -0.14052494 -0.713324 -0.13657612 -0.5349005 -1.5167834 -0.26868218 0.24675788 -0.63093036 0.17042352 -0.8965455 -0.37981808 0.38765293 0.95050913 0.034244414 -0.26251575 -0.5391153 0.05984877 1.2549515 0.9329893 0.7651771 0.5416396 -0.06540831 0.46615574
301 -0.14183277 -1.2769728 -0.121926114 -0.5039073 0.15582116 0.08520353 -0.84565145 -0.72563213 -0.24441618 0.44879955 -0.5982391 0.021090563 0.21367815 -0.4641661 -0.35511142 0.34611905 -0.25890556 0.2979426 1.0415753 -0.7449602 -0.08825272 0.23734064 -1.9216487 -0.32943547 0.22244965 0.2712068 1.0896872 1.4931986 -0.42500874 1.4225768 -1.3794622 0.18344317
567 -0.5738144 -1.3343158 -0.06108787 -0.36993405 -0.19525854 0.028571684 -0.76083827 -0.6587336 -0.5839583 -0.18319039 0.012558119 0.26759043 0.18204181 -0.8807327 -0.59172195 0.4505342 -0.9660345 -0.29178077 0.34611878 -0.7770528 0.9538802 -0.18969743 -2.1056263 -0.068992585 0.67185783 0.21323915 0.5252889 1.6974671 -1.1695516 1.2642443 -0.41518664 0.6267204
278 0.28218302 -0.8180775 0.07417905 -0.40604815 -0.86553955 0.44445208 0.9044655 0.547995 -0.5886023 0.5386255 -0.025470637 -0.59137887 0.042385597 -1.2642022 0.3154704 -0.19485874 -1.2276633 -0.68856937 0.20674597 -0.33942506 0.4976239 0.7402443 -0.4036868 -1.0208068 -0.25620604 -0.04973227 0.31622845 0.21399201 0.14714105 -0.061815586 0.14104356 -1.340906
448 -0.03417045 -1.7868305 0.523086 0.05831983 -0.16234508 1.1041571 -0.096276276 0.07778825 0.28391847 0.018576857 0.28967133 -0.9926962 0.59120274 -0.63507277 0.25019643 0.8345522 0.36916363 0.097172365 -0.7452691 -0.010448219 0.7021754 -0.09860738 -0.046551775 0.30637866 -0.8787332 -0.21185584 0.5896794 1.0415123 -1.3490753 1.8029032 -0.26237136 -0.34387723
147 0.10287117 -0.81625736 0.10042025 -0.45308623 -0.9909272 0.45687103 1.108762 0.71362656 -0.4080329 0.5263257 -0.0856041 -0.5431677 0.13193005 -1.0861778 0.41117632 -0.10501815 -1.1388882 -0.5156806 0.3238536 -0.2531622 0.27560005 0.8728303 -0.45459294 -1.1062738 -0.2286437 0.030651957 0.31048948 0.25140402 0.3436746 0.07710437 0.24001895 -1.2217962
458 0.0038437687 -1.8754487 -0.56256765 -0.9477812 -0.6238925 0.14544486 0.55813646 0.5830472 0.19062418 -0.3009457 -0.62885934 -1.5204861 -0.85872805 -0.3399602 0.22248322 0.7997892 -0.6345773 -0.32577494 0.35812667 0.26241243 -0.38379607 -0.28022453 -0.36486578 -0.28611296 -0.043188177 -0.2179141 0.9284057 -0.4980451 -0.83604497 0.2728401 -0.2356173 0.087520935
11 0.31489566 -1.9454985 0.19218911 0.0047594057 -0.0898887 0.3181928 0.47321293 0.5797058 0.02763967 0.59070176 0.033314526 -1.2880647 -0.7029628 -1.0408105 -0.76669866 0.45459554 0.46536863 0.20346779 0.6643376 -0.61517346 -0.32477346 -0.081760466 -0.27901936 -0.94421595 -0.27979624 -0.1744315 0.121281 0.642547 0.3794763 0.012904821 -0.24772628 -0.90462345
94 -0.18633386 -0.8456188 -0.9673804 -1.6922629 0.13134623 -0.67976135 0.39238876 0.14798072 -0.30547702 0.772267 1.0697583 -0.28136683 0.13839611 -1.6856244 0.110181674 0.5452845 -0.5126432 0.6788641 0.6321948 0.13495024 1.0170568 -0.4158138 0.695731 -0.5194394 -0.45219395 -0.29114178 0.4685615 1.1117662 0.2371358 1.0601891 -0.18727657 0.033138543
601 0.10229314 -1.2930917 0.4414082 -0.25535113 -0.22393501 0.86213136 0.1942534 0.49214926 -0.2834213 0.049754206 -0.0151066985 -0.2571094 0.14697719 -0.7234234 0.7172199 1.2193843 -0.07227491 0.2836023 -0.99728835 -0.46483222 0.6586605 -0.14941466 -0.03231105 0.07265508 -0.91448444 -0.122726515 0.13632004 1.4483078 -1.3595982 1.2908298 -0.05719401 -0.3670798
415 -0.44888583 -2.3702073 -0.07447148 -0.5628256 0.33220637 0.6528497 0.91442925 -0.5813774 -0.5527649 0.6427709 -0.5915864 0.08058258 0.7405607 -0.6691979 0.3261835 0.33491558 0.18481968 0.03774679 -0.47267053 -0.030348564 -0.7515525 1.2405864 0.3021682 -0.23184355 -0.29288983 -0.32779452 1.0960513 0.70708776 0.42251444 0.5594481 0.03975276 0.3274049
114 -0.7249089 -1.6531852 0.6381428 0.07558941 -0.6362804 -0.14744468 0.027407916 -0.027895397 0.8875038 0.06030831 0.3073616 -0.83182776 0.42777014 -0.9431387 -0.35459733 0.22111374 0.17226906 0.15755065 0.75205034 0.21077268 0.09570798 0.8111877 -1.4806615 -0.8230197 0.44949725 -0.10206453 0.0835817 -0.2581828 -1.0956204 0.88232255 0.83580613 -1.1158152
192 0.43980294 -1.0117377 -0.013442267 -0.8845113 -0.23218308 0.68292326 -0.09379272 -0.9443005 0.022906417 0.19971572 0.7144885 -0.08539302 -0.38542128 -0.9052648 0.24205522 -0.7984543 0.07543515 0.2963545 0.40803877 -0.48731977 -0.019412206 0.46081647 -0.31982818 -1.1927496 -0.44619364 0.5826097 0.631738 0.08007721 -0.8963502 0.3346316 0.21682525 -0.75430524
620 0.3704307 -1.0937359 0.085929975 -1.023316 -0.27844176 -0.19944014 -0.07557149 -0.17715123 0.25666088 0.13630143 0.30765942 -1.5517901 -0.07937216 0.3097227 -0.22860196 -0.2823816 -0.21458586 -0.6824608 0.24352163 -0.4679453 -0.04876268 0.48531854 -0.5157737 -1.2830548 0.6011369 -0.06271483 0.07212332 0.78099096 -0.5438631 0.0404547 -0.7965231 -0.98518777
186 0.28462335 -0.99224275 -0.20335582 -0.9585067 -0.3279807 0.74405813 0.12616639 -1.1307591 -0.099193655 0.2207673 0.84077036 0.04201637 -0.42151406 -1.022049 0.12564364 -0.6231912 -0.008043446 -0.034509655 0.66817325 -0.42181042 -0.01956966 0.43710786 -0.24845192 -1.0988755 -0.52132034 0.3501458 0.647981 -0.04730273 -0.9506867 0.39629057 0.16210099 -0.6746605
16 0.21919984 -0.89088094 0.0659528 -0.13946213 -0.947926 0.36628944 0.95778024 0.53364617 -0.5416317 0.5680916 -0.2435524 -0.5839787 0.03185841 -0.9997157 0.26081708 -0.11904722 -1.2007142 -0.55877084 0.2262541 -0.2016602 0.4299586 0.80889136 -0.5473306 -0.9681137 -0.23291163 -0.20924655 0.45185 0.211293 0.26956165 -0.070842564 0.2996323 -1.137766
253 0.6467942 -0.6952197 -0.8056815 -1.1522728 -1.3316022 -0.16196331 0.3438168 0.11953337 0.6128648 -0.38186294 0.99800354 0.050316922 0.4560365 -0.9123351 0.052298754 0.4667285 -0.4245894 0.46306732 0.09876676 0.17576976 1.5471014 -0.17016596 -0.2640692 -0.60944986 0.3490822 0.025618171 0.8094524 0.96582085 -0.19184369 1.3255384 -1.1712445 -1.0592891
647 0.2108008 -1.8747079 -0.012138035 -0.44677106 0.25198066 -0.25702357 -0.48907098 0.1426138 -0.815864 0.15760581 0.035457987 -0.5535758 -0.43017557 -0.7581721 0.666958 -0.4897547 -0.83405393 0.13984868 0.367468 -0.21220087 0.22220838 0.25574562 -0.61502194 -0.8222364 0.08877691 -0.38572672 -0.91132486 0.42243102 -0.16427313 -0.051477987 0.11490803 -0.34264228
563 -0.27174142 -1.7496243 -0.46720013 -1.2791709 -0.89759845 -0.16655995 0.26711303 0.05552638 -0.25957716 -0.81741494 -0.33755645 -0.8303868 -0.3001109 -0.29635826 1.0904368 0.62162924 -0.7763778 -1.0369846 0.4293014 0.05994825 0.11151308 0.21521685 0.12179839 -0.502619 -0.41187626 -0.38777348 0.37328812 -0.6385766 -1.0182885 1.176429 -0.05617405 0.33609945
293 -0.3161871 -0.6414475 -0.31605497 -2.1448965 -0.37830222 0.61456233 1.3369291 -0.44657037 -0.30636948 0.4859639 -1.0323391 -0.3559352 -0.1551149 -0.08369577 -0.18922207 0.64169633 0.29275507 0.5159552 0.43221816 0.006217381 0.040730175 0.4073017 -0.12687688 -0.35730165 -0.21554326 -1.2875082 -0.06484535 1.2370455 -0.086477615 0.908805 0.26019645 -0.5789958
126 -0.48247007 -1.0795547 1.1883662 -0.287599 -0.8168566 -0.54874045 0.3195042 -1.1191912 0.14078811 -0.74124056 -0.5446298 0.034061424 -0.98140913 -1.4881673 -0.45970544 0.25791547 -0.44084165 0.37141383 -0.19739935 -0.16286571 0.5284696 0.015153907 -0.20372024 -0.59976363 -0.042728532 -0.3018805 1.3846127 1.1031349 -0.0678825 0.5990903 -0.4054194 -0.5704878
437 -0.39733186 -0.9423686 1.3727067 -0.19806856 -0.99471164 -0.8705423 0.05749231 -1.0872538 -0.11379806 -0.65228236 -0.49303532 -0.050281122 -0.7886944 -1.7212472 -0.63420594 0.4029412 -0.5780289 0.46907955 -0.3254831 -0.44108906 0.26516107 0.023180595 -0.27889174 -0.7345598 0.36866444 -0.13865717 1.5263737 1.0926039 -0.61252517 0.75716704 -0.27310994 -0.7560157
119 -0.22687052 -0.658778 -0.20385496 -2.2174728 -0.3739608 0.65368646 1.3044186 -0.3605071 -0.20774896 0.5592377 -0.96793836 -0.3065164 -0.12987477 -0.075981826 -0.23776068 0.56437135 0.30185136 0.50727814 0.40495092 -0.14002189 0.09427135 0.39838797 -0.24497604 -0.26177377 -0.33134747 -1.3534033 -0.049159598 1.2251291 -0.16520812 0.98546326 0.25336817 -0.6179751
478 0.012412533 -0.84176904 -0.5645045 -0.91119206 -0.6849339 -1.7556914 0.3924013 -0.020346975 0.08011709 0.16771182 0.3995877 -0.8994351 0.8711484 -0.60077083 0.12667695 0.01417533 -0.3355709 0.76798457 0.73811156 0.47377062 0.021879163 0.4394013 0.27048296 -1.0916283 -0.32510433 0.38860625 1.1920142 0.7415509 -0.11137481 1.9132634 -0.07937679 -0.49092832
610 -0.47595903 -1.0783758 1.228521 -0.34799865 -0.80784804 -0.5167914 0.3028085 -1.1170931 0.087644085 -0.7332542 -0.5692021 0.042180616 -0.97032154 -1.5245438 -0.4688004 0.25288484 -0.4359352 0.39070833 -0.17163976 -0.12455475 0.56305385 -0.06404122 -0.30519184 -0.68036026 -0.04584702 -0.27228764 1.3698655 1.218089 -0.08084638 0.59646654 -0.41592765 -0.61141884
240 0.21460761 -0.9390264 -0.26689234 -0.7258228 -0.28453138 0.8280521 0.024271142 -1.053255 -0.034968186 0.2004588 0.7692002 -0.05865164 -0.48383793 -1.0551082 0.23230803 -0.64526886 0.010500494 -0.016409231 0.6813354 -0.38729048 -0.023918033 0.42095783 -0.34955686 -1.212354 -0.43878412 0.474839 0.36404926 0.01800668 -1.0088398 0.53609943 0.12405512 -0.6389828
283 -0.23949099 -1.8601139 -0.2386593 -0.9156482 -0.121216305 -0.2022677 0.49651298 -0.6952685 0.6744635 0.24233818 -1.1818718 0.84976333 0.8806464 -1.2970684 1.0308386 0.19138242 -0.4032685 -0.51596797 -0.14471371 -0.82733184 -0.6326025 -0.53944737 -0.18953514 -0.35159838 0.2906618 -0.16166417 0.86879545 0.49562275 0.31587458 0.95035994 0.46442932 -0.46590573
538 -0.86173165 -1.907946 -0.60488844 -0.6148945 -0.239126 1.4578575 0.22671157 -0.9194191 0.22930364 0.31336564 -0.28609794 0.7929764 0.1484535 -1.2223934 -0.3549678 0.8964962 -0.9989696 0.6749976 0.2597353 0.7288709 -0.5574322 -0.08472781 -0.43248034 -0.19273125 -0.38739502 -0.72700804 0.2708312 0.4140049 0.5124184 0.6010578 -0.055382136 -0.037031308
49 0.3386736 -1.7179759 0.12702647 0.06949337 -0.030137677 0.3421418 0.24197237 0.5585865 -0.053165395 0.6614824 -0.016231801 -1.1063896 -0.57215285 -1.083049 -0.7066395 0.18811154 0.4539938 0.36600417 0.5414492 -0.5208657 -0.20750594 -0.1573613 -0.16383465 -0.87761503 -0.28572273 -0.15383327 0.035114553 0.7516257 0.5827941 0.22142488 -0.28739014 -1.0423851
656 0.05121428 -1.7106483 0.49829134 0.090148196 -0.16287741 1.0601178 -0.15520439 0.11852388 0.233762 0.043561175 0.18668218 -0.8312965 0.5274668 -0.6425874 0.35445935 0.89238685 0.39799863 0.014916436 -0.757585 0.04852767 0.79076695 -0.08040791 -0.031856623 0.22221024 -0.74751645 -0.3032574 0.56691074 1.0424956 -1.4139194 1.7149751 -0.19439067 -0.43831035
365 -0.24060953 -1.2666501 -0.00300923 -0.47246915 -0.13556463 -0.02134061 -0.096999325 -0.7894638 -0.3087288 -0.043254673 -0.3469007 0.47225934 0.38576362 -0.39458868 -0.42856172 0.2916167 -0.5716764 -0.23398113 0.6312982 -0.87471926 0.58148146 0.1409994 -1.8757187 0.09788089 0.45987892 0.114078596 0.5522061 1.5891005 -1.0769565 1.4348376 -0.30696985 0.56903183
